"","RC2","RC5","RC13","RC7","RC1","RC4","RC14","RC10","RC3","RC12","RC6","RC8","RC15","RC11","RC9"
"play",-0.00943081170965514,-0.0211322964316444,0.00460946721024806,-0.0584625651203783,-0.0148837744948369,-0.0258548599938757,0.0104554028426602,0.0194976370984831,0.0517570609858244,-0.051571788291105,0.239096472971107,0.0270987909528745,-0.0217152120192054,0.0716591771898662,0.00178418825450217
"game",-0.0151910863997268,-0.0315340037617361,0.00724901683281237,-0.046022420225037,0.0103284544659161,-0.0488406350155127,0.0606965285588892,0.00262103942267516,0.0439456776574363,-0.0573268043584246,0.252853545673722,0.0189544953391225,-0.0724135255566194,0.0438597988431085,-0.00858621494895689
"mind",-0.00147224034043901,-0.0149267562685544,0.0192108986494505,-0.0057932325899403,0.00378190712986031,0.225420271629107,0.0110927782898709,-0.00162123928453524,-0.0155355875595143,0.000697700809412274,0.0089800468958798,-0.0347029499526508,0.0115889352005172,0.0120425931601204,-0.00787703686653737
"phone",-0.0228402876957555,-0.0274774777058517,0.0301336022066722,-0.0760645111781435,-0.00105009864298352,0.051704143023452,0.00984652257973714,0.12011971520722,-0.0544688779598335,0.0457256953824017,0.0723236418339042,0.0382892945452929,0.0283103812426779,0.000116881809234819,-0.0713055042614516
"wait",-0.0131041674959323,-0.000937343794306118,-0.00862181653054371,0.0455187828481277,-0.0335398629482986,-0.0338968522520512,-0.0143047371202121,0.141641623194394,0.0281777101652063,0.0178713486558364,0.0129292571153407,0.00549406902170493,-0.0645049804804039,-0.0360454046530598,-0.0283138973837741
"computer",-0.0363461801128502,-0.0309317916878717,0.0452867532128698,-0.034178600127743,0.0858924279832175,0.00399230410364616,-0.0112614020377737,0.0162161698033358,-0.0251679428316295,-0.0116861276023174,0.010992037096971,0.0306948834929586,-0.0464437385672393,-0.0052832769882708,0.0924125129943897
"call",-0.00420867581693484,-0.0339941038930341,-0.00701056523305614,-0.0447291281957646,-0.0158853219851416,0.0938398884335382,0.0451238184730198,0.0893423532165827,0.032606110556128,0.0604753818353089,0.0387866855783639,0.00470024833230683,-0.0194558678805709,0.00648641293568552,-0.131846158843441
"move",0.00175840308190911,0.00204637091316996,-0.0156238314741045,0.000946445397468039,-0.0139486870983775,-0.0631950920384256,0.0917756714235434,0.00541878594937046,0.00315823293583469,0.0444704042181648,0.0150720965247326,-0.0467723963819612,0.00249623296111177,0.086708252321829,0.100269752407837
"quick",0.0306573362643921,0.00678442248568262,-0.00151041405080883,-0.00908430103063078,0.0271189546338345,-0.0181110775112718,0.00913143079726862,0.0636623117932047,-0.0521911725071835,-0.00413434392805024,-0.0365662996036085,0.0041789611248351,0.0256451735733195,0.020567446228456,0.00311317715767914
"pay",-0.109094619629026,-0.0282374656422997,0.301317753739914,-0.0283715027756728,0.12725791869138,0.0172344035545773,-0.00270911819146446,0.042666169576417,-0.0393906241218769,-0.0323701430775119,0.00152564424823047,-0.0165048034381386,-0.0930810501787776,-0.00779902918801251,-0.0395675353296862
"attention",-0.100099211074565,-0.03037132608073,0.305675538155594,-0.0222596019298286,0.109726095189035,0.0235625962655366,0.000851508021813042,0.0484983599769615,-0.0472894624035595,-0.0501032047281621,0.0162081089338255,-0.0176224599776914,-0.0603014434249925,-0.0205783841564727,-0.0245611344855922
"answer",0.0724863615144744,-0.0543682159107906,0.0149566560877705,-0.0105333261104446,-0.0816698059693233,0.0156905934701976,0.0998556227242776,0.15161380826155,-0.0283092684097676,0.00428335209647534,0.0871358124412067,-0.0269362836738716,0.00930882555776734,-0.0546678482418715,-0.0720737316478633
"work",-0.0293925738215122,-0.0299008993520979,-0.0213331558139677,-0.00185620242960916,0.141277327736474,0.0382042777943999,0.0938707773742522,-0.0384907478051129,0.0135490483030578,-0.0767835521104505,-0.00205506280816553,0.0814747688896203,-0.0341841347069047,-0.00119228835545086,0.100121462264805
"coffee",-0.0102300580102891,0.0289295536037696,-0.0193813589434562,0.0368929482457318,0.0256808533535948,0.00658193800514266,-0.00385881316618301,0.0750780647433719,0.0103181976747431,-0.0337068011875751,-0.0558886747927987,-0.0219077363828524,0.0620352502391432,-0.0303473942777851,-0.0103779351165611
"told",-0.0108577678789946,-0.0248968540778162,0.000280353282216498,-0.0664046412513694,0.027157952249255,0.0197755924532344,0.0103350697456721,0.131523897945647,0.0534483705708364,-0.0236795979903535,-0.0480298025829051,0.00282674481634497,0.0657521039225333,0.0613671588009685,-0.0727936316574327
"event",-0.00512426187872063,-0.00671405589094174,-0.0160229867451024,0.0233876674766212,-0.00628322939099005,0.045012100152918,-0.0509336963398885,0.00407535059808436,-0.0119553284308154,0.141117797953623,-0.0068199284941268,6.78491407131659e-05,-0.0151145952186797,-0.0963924514100452,-0.00699144504376336
"place",-0.0232737317207806,-0.00314471697136464,-0.0112120432292136,0.043623241121301,-0.00289522441568351,-0.00886739131353875,0.0377437669778631,-0.0331327942949541,0.0298867585574381,0.0695621412648579,-0.0197065271908002,0.00255424450849807,-0.00988783797181731,0.0521737279272954,0.0240505055460966
"amuse",-0.021881660124535,0.0365530250428951,0.000992160493013419,-0.0378550708542622,-0.0158954922507233,-0.00764111629399116,-0.0109937905425926,0.0134170989634032,0.00578585761587661,-0.028996480438267,-0.00176151287499999,0.0058763050828985,0.181036235536451,-0.0168251926296236,0.0283556715618773
"room",0.0517892475442353,0.0181312582453883,-0.0358715552362726,-0.0373348602802488,0.00629631033486628,-0.0519615252610631,-0.0655364791903512,0.0395355508123209,-0.0238506572193193,0.00227539729579571,0.0681936859666903,-0.0266918677189642,-0.0194829858367972,0.169491731126795,0.0689866038748161
"study",0.11945147071287,4.0520135599748e-05,-0.0344048045658316,0.000334040590861339,0.0419408696422478,0.0044684939229821,-0.0239811884055006,-0.0190700630576417,0.0140850509566243,-0.055179347593315,-0.0543838065422395,0.110077200091975,0.047894322534138,-0.0071720099292381,-0.00692476479212788
"interest",-0.0349433970489718,0.0268585332082987,0.0674822842339345,0.0310583354432391,-0.0700783209100738,0.0147927202298616,-0.00788824253506924,-0.0410445965679739,0.08080015449983,0.0314417871453881,0.00167378492115625,-0.0233292220052804,0.114979895431354,-0.0649496848923218,0.128923295529561
"fact",0.0461106207893143,0.0167647103157774,-0.0296491082774351,0.00346014303944464,-0.0327094443055763,-0.0194034642447235,0.00538849797648256,-0.01725426863285,-0.0126294370668419,0.0899724247294379,0.0141701976384782,0.0234052930113631,-0.0210802561742188,0.020612771690291,0.017659240740214
"rest",0.0140537607093298,0.121936682081495,-0.00720357720735386,-0.00769667618021278,0.000487291572468244,-0.0331913216898918,-0.00785866226256671,-0.0228942959410301,-0.0149524003652689,0.0364062514877736,0.0103336613403448,-0.0266139170120571,0.0132713724389236,0.0103489493034011,0.0476266228851321
"bore",-0.0273117875091959,0.0330043091125179,0.0947031994026615,-0.028724052780732,-0.0208243548154096,0.0423211196838224,-0.014135728077159,-0.0132970688093995,0.0242710003748895,-0.0611232815176909,0.049569156684589,0.00927915267123879,0.0529393280487468,0.00661074097946809,0.0104713688563586
"suppose",-0.010042407477854,-0.00913261578435795,-0.000389527211582222,-0.0227121593849966,-0.025760141444163,-0.0345188714204726,0.0258429308292046,0.0235606882425271,0.0119440352186754,-0.0164077322155211,0.0372953094648901,0.248810368846988,-0.0183182140593558,-0.0354581244009338,-0.0358804414145888
"hear",-0.0133872150842751,-0.0179032910142012,-0.00216380325347241,-0.0211366630751987,0.0340441536877801,0.00760940592804238,0.0368518538777182,0.000532321768999599,-0.00680232317255294,0.027987505744985,-0.0455117614825047,0.00885645912611507,0.112666600872354,0.0110406499825693,-0.0189923781923288
"realize",0.00110272021884289,0.0165677515609335,0.0176114537111581,-0.0324405935985806,0.0379279592555182,-0.00875747741581414,0.0379233097436208,0.0349946490749086,-0.0057776828185411,-0.00302161713631842,-0.0193684711372398,0.000224935557690268,-0.0222655824737486,0.0681786981877374,0.0232654590723726
"idea",-0.00898744794858517,0.000362666016857037,0.00166891731365,-0.0153313650736804,-0.0342806758582517,-0.000361323772842105,-0.00448249918770403,-0.0136770274240078,0.114039984998361,0.0200954188044354,0.0210224638014144,-0.0168763849810376,-0.00215606476444696,-0.0078584976575674,0.0691410915846454
"talk",0.00230747962783855,-0.0345341051014409,0.0370645977730609,-0.0165120162259359,0.0173162043425921,0.000731156516355069,-0.0173374032388273,0.00601745711201665,0.0993553069817366,0.0265485605536996,-0.047116878400641,0.0612735187621011,0.147170838310044,0.0171407480341658,-0.125334698481189
"task",-0.022940493688296,-0.0138706511498878,-0.0277141507427536,-0.00735264794507261,0.013304122069977,0.082838882655728,0.0893356218699617,0.0113773665288095,-0.0196404443059519,-0.016644502753174,0.0274977327285573,-0.0564332627347395,-0.00849680591352332,0.0215820518260666,0.103683948122303
"research",-0.0288390457304499,0.0187445858809076,-0.00909142968172699,-0.0240344798559426,-0.00816770135691766,0.0164599211323665,-0.0235865721916326,0.0406273116197172,0.0908358880929932,-0.0213068064096357,-0.0241193681180698,0.0558511954548844,-0.00115292558289265,-0.0434390790016474,0.070057882919897
"thought",-0.0204708336713568,0.0377538805253053,0.015835831953753,-0.0188909590924873,-0.0187355735070312,0.04889694191355,0.0314530695432563,0.0205333116318442,-0.0110814354578564,0.0629978683560661,-0.0492539995942426,0.00562757013242601,0.0743762560863096,0.0460336866977725,0.0529118509102621
"funny",-0.00585420807312613,0.0104969672796063,-0.00926099279820037,-0.0169774889707098,-0.00998342053162839,0.0131270116737246,0.000448017835923494,0.0385105101080767,-0.00945806352106689,-0.0566969542479251,0.0193127588726699,-0.0252704487335367,0.231808660655295,-0.0187509387973331,0.0286841801488939
"night",0.0102061198037223,0.156065177570246,0.0123276308748395,-0.00867388671157662,0.028816445276754,0.000139752221452093,0.0346311638510134,-0.0436247860172923,0.0346624380551235,-0.0207221843593055,-0.0153771806434708,0.00749376238417905,0.0236685737503519,0.0215499506058421,-0.0484501832146735
"minute",0.0304417208967305,0.0180096193282204,0.00786426889773698,0.00495896927002399,-0.0407664058137578,-0.0137666707375695,0.0220169993806004,0.123959886972808,-0.035323528675949,-8.48996651948259e-05,0.0361066405073491,-0.0130901699246562,0.0326225640934937,-0.0164069527714944,0.0258728440350073
"conversation",-0.0227648966105864,-0.0339403375515145,0.0113993612761522,0.000801137151429246,0.0343020141333643,0.0168477795266946,0.0336821845037387,-0.00844116882410125,0.0671694564961734,0.00780692546045284,-0.0200546686926177,0.0112383694758141,0.106665798524915,-0.00783828048770948,-0.0581717101781292
"long",-0.0178803512725733,0.0226531350327069,-0.00046600632930523,0.0408692107796707,0.0452106052686529,-0.0328895775141851,0.0505352713656032,-0.013143266363994,0.0208697885876898,-0.00993298306439146,0.0380668658158394,0.024825368511597,-0.00186060579437797,-0.0423733968945276,0.0127013553777998
"order",-0.0145706229147565,-0.0266557498724048,0.0113646873389567,0.0711509896519613,0.0403388762548687,-0.00171801290951817,0.0425545284785974,0.0146801242329186,-0.0313342846748607,0.0138988499521733,-0.0176041621924164,-0.007383084321816,-0.044760312147915,0.00883984685154647,0.0144764405468857
"job",-0.0225740985907701,-0.0133468272288053,-0.00664973022035746,-0.00708539573398017,0.014150884065394,0.0454962117579592,0.0699589357245215,-0.00832252450718209,0.00731803526559787,0.110276344090032,0.00900120155827545,-0.00225406587200478,-0.0649684007585282,-0.0523634050160352,-0.0307166907207697
"late",0.0135859397025802,0.11515577452398,-0.0211911100790804,0.0421698220298164,-0.050943100237439,-0.0198107546307116,0.0500683829756414,0.0566976417543125,0.0252025118303202,0.00470174546567673,0.00202644774630607,-0.00971367721868156,-0.0286135442130818,-0.0456038009752446,-0.0439475826595324
"finish",0.0260372469664686,0.0219107495378016,-0.0208566791790831,0.0630127447746479,0.00012811366709633,0.0129060573248803,-0.0173235376670706,0.00666776419459771,0.0285329123013827,-0.0669050996021433,0.0879652286738833,0.117517877575303,-0.0188898604049702,-0.0410292941353752,0.0290663395840475
"stuff",-0.00821018888501621,-0.00302354836341337,-0.00240179577637842,-0.0133028152446933,-0.00210035618486923,-0.000596444011245987,0.0060612847009453,0.0251648146283855,0.033167678060189,-0.0187979379199794,-0.0045193758770179,0.0088359922501835,-0.0276748937654502,0.0771822142889316,-0.00381367714945463
"walk",0.0423565103451606,-0.0228407316526801,-0.0364262534601433,0.0100789853065054,-0.000816524901195185,-0.0166204333148876,-0.0343145181013358,0.178679579308087,-0.0265785662875717,-0.0327544919595304,-0.025061371740951,-0.0220539939102342,0.0261304214814522,0.0161728091899549,-0.0252052766991631
"ready",0.0303461659158634,0.0579092842084555,-0.0437774849882448,0.0295067441277243,-0.0082177522888044,-0.030937401106383,0.00855674683433314,0.0538291680820276,0.0264118073617064,-0.063287702325126,-0.00573775556692115,-0.060226239257494,0.0321238579181011,0.0254889858994816,0.058552653884329
"today",-0.014189862574484,0.0148048774078056,0.0208038537858999,0.0414774429287308,0.0602899955047008,0.0292657464544489,0.0581663920675341,0.0506259533240842,-0.00640739442687563,-0.0356424672126442,0.00635742811373928,0.0387387823736934,0.00269811535329727,-0.0441518430423385,0.0175031468341977
"friend",0.00259283461628525,0.000979403045151243,0.0193129427302903,-0.034237978294653,0.0613401290374454,0.0224179974019267,-0.0881309805919606,-0.0137944070836561,0.119424656766416,0.0603859201393137,-0.0230884423035208,0.0790863947315439,0.0243240940527877,0.0674640374502153,-0.127718051652138
"excite",-0.0235867874357271,-0.00269090235938085,-0.00639817850429554,0.0229637123441865,0.0520121648326392,-0.0456204578990107,-0.0920988891924345,0.00575809182811379,0.133692214105678,0.0325932922324096,0.0569374979313752,-0.0136318146933951,-0.0181237931919284,-0.0575395368006631,-0.0039231656633595
"start",0.0328308597638779,0.0263597996001151,-0.0166167291491167,-0.00678902421088927,-0.00266403338639167,0.0490684424893514,-0.0379663921249255,0.0808149064971597,0.0900255535796663,-0.0312009290498675,0.0156052638631599,-0.00662911744267528,0.0356349027947886,0.0513701650197731,0.0736572561308101
"laugh",-0.00758131508881673,0.0160814654846608,0.00171479175019264,-0.0331302000091351,-0.00505079362764223,0.00351264855833705,-0.0109088391365438,0.0269568321157603,0.0179264152485468,-0.0289902152900273,0.00836235490102625,-0.0213752132753525,0.194921813389331,0.020142934425673,-0.0116565813899842
"write",0.0203613058339492,-0.0249642770792385,0.0032265212640183,-0.0271315109278185,-0.00249042713709722,-0.0249856296767235,-0.0167992933858437,-0.0151229167722035,0.00960490359334983,0.0204465634151043,0.0054482113488529,0.0148630197340973,-0.025187394995155,0.00208190109611959,0.192947969098783
"email",-0.0539656720901765,-0.0419323434347917,0.0214985902333448,-0.0332995960367379,0.0837945020796586,0.00254947854290881,0.00342157378442079,0.0804704063335786,-0.0482268816980625,0.047973775986127,0.00690642732863653,-0.0337562904684891,-0.0671932897657475,-0.0781425279377501,0.0914358264422282
"lab",-0.0201102787921417,0.0365221880096221,-0.0561719271842833,0.0270627430442185,0.0562908003235341,-0.0229221450799858,0.0789735978142073,0.0702421382821652,0.0312626318802364,-0.109714239127,-0.0525314164482181,0.012200691911452,0.0905589048392926,-0.0929023831830043,0.0409693838013021
"day",0.0213411884948431,0.0555759250947431,-0.0259497262765184,0.028720026543773,0.114398715570314,0.0443602905560379,0.0159561633722923,0.0387191343941362,-0.0202004191428381,0.0334209087535324,0.0265884922662348,-0.0600531045360113,0.0143747254814476,-0.052399833175957,0.0318449374168368
"together",0.00109125852334091,-0.0203554721718824,-0.00679242286998272,-0.00237186252501346,0.0631974357764836,-0.0317911673244762,-0.0202467808936998,-0.0265360710663031,0.136970534452642,-0.0270112552977314,-0.0352734024112435,-0.0150380492282883,0.0237856306174349,0.0258239541477261,-0.0338554257982503
"group",-0.00240747603828826,0.00600220953417937,0.000347003520505721,-0.0231059443436876,-0.0237795264383435,-0.0432698302325752,0.00396248021163566,-0.0174788717338225,0.129835387426379,-0.00610635730143998,0.0190086182802988,0.0183263509855509,0.00448080513268389,0.018457604918568,0.0172511449878503
"focus",-0.00879382601234177,-0.0120028512790207,0.0631513834303951,0.0277130605347395,0.0266403203264296,0.0640859326726103,0.0158687443433703,-0.044228350758589,-0.0117119856641001,-0.0607341433065397,-0.0392019278801069,0.0262925137984645,0.057623944789605,0.0282964582206632,0.12481373432455
"fun",-0.0218837354907655,0.020361506971346,0.00151484655829076,0.0262221138167666,0.040807942297834,-0.0236934358027969,0.0184926863133,-0.0640462446029705,0.0799737020523976,0.0104226664902338,0.0284072613678223,-0.0299802052016519,0.0986814638100579,-0.0307785497876199,-9.91261756350839e-06
"meet",-0.019077744105002,-0.0144697729223645,-0.0433833385566814,-0.00756417362408546,0.0130178592693327,-0.0063391821141469,-0.0128835511191149,0.0909492542282016,0.188404860411204,-0.0423393755789242,-0.018061451161808,-0.0215765269057714,-0.000684453635111482,-0.0628428066891065,0.00230534874531138
"worry",0.0502130363904869,0.00917868448291017,-0.0107485548434469,-0.0205635868934674,0.0752339012439503,0.0333935582416489,0.0273457682680087,-0.0174261909808824,-0.0257822978968756,0.000218011960540771,-0.018139377891426,-0.021569996012655,-0.0143597043933239,0.00940863783044348,-0.0226231244005512
"lunch",-0.00653551041535724,-0.0391938757368776,0.0141960019883246,0.188175834693669,0.00689701521097889,0.0170551456192756,0.0138252920278386,0.0169638503443801,0.0125328047385205,-0.00904635988291216,0.0231774060003998,-0.00356018971441288,-0.0237449419063324,-0.00180122309538006,-0.0569101424005182
"anxious",0.0865134551380097,0.0096718406175297,-0.0445086425272311,-0.0372254879102761,-0.019098914626447,-0.0113486560701103,-0.0347814822232541,0.0506066380084906,-0.0222467848244274,0.0858090720895113,0.00883933243128497,0.00171982851367417,-0.046228286061997,-0.0369378392107802,0.00215327651407937
"show",-0.0120536601465761,0.0143838843849792,0.0134550729562069,0.0231646918830803,-0.0106108860766096,0.00272101894880587,0.000542925514663078,0.006242089299615,0.00639518991327046,0.0699929873490314,0.17392487323802,-0.0115832846466751,-0.0194344133399462,-0.0866295376571785,-0.0130966586564608
"sleep",-0.0337936422518891,0.239660606318962,0.028289702653711,0.00529088980679179,-0.0178133813559708,0.0345634682008779,0.037581932709583,-0.0724501368284393,0.0146885694890411,-0.0168602971881709,-0.0416975650959045,0.0202074150130735,0.00687375002964789,-0.0198970386935343,-0.0294296886137742
"spend",-0.0153112379907269,-0.0181774806115716,0.0186280068853643,0.0207046100774042,0.124236763360152,-5.06667665723864e-07,0.00739613278756946,-0.0513728177252489,0.00268099766720722,0.0224598440806338,-0.0234240996969805,-0.0276203138703405,-0.00831006196643957,0.0475077000024319,0.0105456410225345
"past",-0.00715098845289658,0.0182505815829682,-0.000651791124326961,0.0119127790663241,0.0357457851930744,-0.0141124211610331,0.00601402380293893,0.00687880567654731,-0.0142219244405326,0.105146810137341,-0.0132546557793726,-0.0164263431593481,-0.0320708175070105,-0.0486106762163859,-0.00180926690071687
"people",-0.0232061100071257,-0.0104742927196491,0.00816876865652663,0.0365166884179255,-0.0325158188736668,-0.0182138189385258,0.0328251277259891,-0.0173254780165596,-0.0157187296084453,0.109309924763962,-0.0176145240428998,0.167583291053203,0.0544666857605809,-0.0381678924995039,0.0383937466812861
"decide",-0.0235264206395832,0.0267711219021349,0.00265659372142462,0.0161795389543627,0.0392048803579627,0.0275501143891179,-0.0106711739534129,0.0374763994680701,0.0159888251812961,-0.00964301517795511,0.0485552038643284,-0.0145802852739433,-0.0411627311957021,0.0717057738252773,0.0124275676799751
"speak",0.0241801809746672,-0.0108878445890427,-0.00582542738848144,-0.016413445863345,-0.0198638977519352,0.0195851105732649,0.0139451115777763,0.0106771274677845,-0.0010203162074761,0.0916623550046969,-0.000239505479267496,-0.0308210953916477,-0.00929205959544955,0.0232092112741436,-0.0228091741347916
"issue",0.0097499718645801,0.0186158556430986,-0.0178921584336044,0.0037783734230389,-0.00506762120560472,0.0174405856183818,0.143266653416897,-0.0358189067067845,0.0171907185081893,-0.0053569254039366,0.0124551467424959,-0.045369653440363,0.0284821879513066,0.0251150272288878,0.000839859787653811
"plan",-0.0214523176374073,-0.00882984890976206,-0.00353462381832121,-0.0362203575779118,0.127085224083334,0.0436974897730255,-0.054754411493093,0.0250699946394955,0.116688694642015,-0.00758367863701824,-0.0349067585115104,-0.036683131642093,-0.0515078997921775,0.048250353726925,-0.0412508487052178
"annoy",-0.015992596644548,0.0192809305303202,-0.00383701611705587,-0.0199155861874287,-0.0111110901308422,-0.0748823940829824,0.190170653892963,-0.00547046579145068,-0.0343742181740244,-0.0177858277397592,-0.002825905626142,0.0362232153137406,0.0244064933474239,0.0759620121791035,-0.0109383500953643
"confuse",0.0160206213902891,0.0143825865373978,0.0559210345238171,-0.00875326863246721,-0.0226812995940818,-0.0210650091118073,0.0648681786517992,-0.00493840606734101,-0.023910214969365,0.0203904372966778,-0.0143482370844925,0.0151053600829868,-0.00828127035273109,0.0166300966094516,-0.0607604915769103
"schedule",-0.0207782285406999,0.0512293793296788,0.0218008289258683,0.0143132108207181,0.0592940061586836,0.0263951656854193,0.0140305147629044,0.0173086055477849,0.0410672229565656,0.0208872329421449,-0.0211439731351921,-0.0225665563395604,-0.0911034728631226,-0.0857133847785296,-0.0148286760803295
"week",0.0258911694890867,0.00298732861077792,-0.000295361354928654,-0.0342119253396362,0.153598364474815,-0.0314034514545464,0.00788400759324663,0.00847484290757132,-0.00799572711943767,0.00418932654482435,-0.00672998541014046,0.0100075016265544,-0.00831855054602709,-0.034004032443483,0.0182853745318811
"relieve",0.0540524673712328,-0.015850220012166,-0.0301676543442482,-0.013169245997254,0.0223427973010821,0.017699860663897,0.0265326457978432,0.0300654173890989,0.00235983799002813,-0.0364186138784265,0.0784380158019335,0.0290832543898641,0.00503344967354511,-0.0285255279909821,-0.0570595354029781
"early",0.0144189559664075,0.0908763460882963,0.00378691294069688,0.0231619345788236,0.0137095143577642,-0.00401553708465033,0.00881673000529071,0.0940670333964372,-0.0447006699575141,-0.00605658168603071,0.00912336639507236,-0.0160879115679572,0.0127244440288621,-0.0504894597196914,-0.0040220945344856
"relax",0.0532644032688803,0.0295076095492333,-0.0531969573918716,0.0212709699762074,0.060239741148739,0.0402044524950116,-0.0758285274827722,-0.0140698467370858,-0.0572026496203532,-0.0291337012484676,0.130907250020629,-0.0130398737039188,0.0537867036266738,-0.00949521761827427,0.0220722230685093
"open",-0.00439352783639548,0.00508015516515005,0.00394721445603291,-0.0392235219454682,-0.0405243556739011,0.00866172917165176,-0.0352652931819358,0.0724117717962921,-0.0141628298123886,0.087610905699902,-0.000485945315429838,0.0239539206630549,-0.0144921713809043,0.0347187537127844,0.031077399967241
"close",-0.00865014890521404,0.00534397881298827,0.0314572966688946,-0.0134211324134213,0.0670588349128825,0.000389099366184189,0.00812856966900376,-0.0180614729863684,-0.0338315939576719,0.105907514290838,-0.005942436841007,0.0244659783450482,-0.00584005485111832,0.0124876110182736,-0.0524990283369622
"news",0.000767292203226677,-0.0188349127351153,-0.00663502636763405,-0.0126176415013272,-0.0252518950731136,0.0431365457508519,-0.0208357626325065,0.0513311995397505,-0.0618276403373944,0.0572163901293021,0.0232485933075618,0.0306021465526505,0.0398773698252723,-0.0418831509781127,0.0213559444687715
"expect",0.00662864292150893,-0.00612110070535106,-0.00735034436907332,0.0106281372302445,-0.0174432611358052,-0.0236228959466358,-0.0130852265104683,0.0153843991980227,-0.0295884223177553,0.0468197310435611,-0.0195777229251906,0.189316287068277,0.0234117529628774,-0.0674047638704917,-0.00384174744634437
"alone",0.0210745281869023,0.0162980886591431,-0.0313088777012159,0.0168290674531535,-0.0300695863378637,0.22582614980643,-0.0462738875334805,0.0144490897014509,-0.0601607869923711,0.0395678255474309,-0.0132393607227854,-0.0141648115268591,-0.0113022473729526,0.0415806684534535,0.0293883991819074
"review",0.0883377150177456,0.0019466752396521,-0.0153155975533845,0.0185136110527804,-0.0451853790892829,-0.00709391501980873,0.00704923218552542,0.0208992167746322,0.0253644515752135,-0.000676135050092209,0.0126089224396617,-0.0157739785239707,-0.047621356984173,-0.012174005440969,0.0356583425176483
"homework",0.0386446239171314,-0.00967558971925577,0.00824362155256155,-0.021004862898507,0.0797618509749152,-0.03110088373345,0.0107984564705662,-0.0694792889531224,-0.0435595350571926,-0.0789676311801709,0.0342273020145104,0.196945265146479,2.06204735889598e-05,0.0485304110247307,-0.0309599882563888
"book",-0.0164478281120701,-0.0310897714726167,0.0170705631208407,-0.000262469067581993,-0.0431622542268141,0.0324633467316573,-0.0712837503158341,0.0734122753123344,-0.00752625614394146,0.0534175797367217,-0.0492618653839281,0.0195906297702379,0.0103041503604316,0.0699142508947866,0.100039994893372
"breakfast",0.00103542990447504,0.020825609189033,-0.0155263093608957,0.167863059264823,-0.0323212140223028,0.00122799975146601,-0.0164773386023893,0.0452674271138036,-0.0175284287702567,-0.0112910229342461,-0.0299412150658088,-0.0293530197427401,-0.0104745758329829,0.0359397608905044,0.0160948263382248
"topic",0.0272180741569976,0.0204603182243482,0.0634209252516934,0.0285515618758738,-0.0837505933569568,0.00499547852205835,0.0102367358822497,-0.0689324420017494,0.146025450709349,0.00746920113623525,-0.00287227470078268,0.00563217549682974,0.0525434419999299,0.0199348057314524,-0.00736317758963695
"person",0.0174993048458971,0.00326242053911546,-0.0218856599892307,-0.0293640253751406,-0.0548223169962374,0.000125080707885342,0.0353596696176732,0.0227491545769156,-0.00870814262122819,0.102109234941919,-0.00454297018571021,0.0226554480164362,0.0320473689118343,-0.000292874015402418,0.00916887005050695
"end",0.0150862052142095,0.0192487317312113,0.0256282383197594,0.0157641021615164,-0.0105535395785607,-0.0216169290856027,0.0401439046851694,0.029788322885762,0.0389695582377126,0.00620138843898106,0.0315339573006751,-0.0162387588540113,-0.0074727356156455,0.00263537030126687,0.0118892379991603
"great",0.0250098624945148,-0.00971365136521705,-0.0102141023561609,0.0212941663476918,0.0530813826475117,0.0103219101168344,0.0129382520355186,-0.0675375052014202,0.0401411427507549,0.0703386693922356,0.0350357871839483,-0.0292757644224729,0.0188298484505174,-0.0118222859559084,-0.0245486813689996
"professor",0.0966018906024441,0.00905256655990457,0.155482793504405,0.00204009886119737,-0.0793999245483134,-0.0258363267459523,-0.0235039157131037,0.0172477051060353,0.0553415121649113,0.00827588340657563,0.0228025570868818,-0.00398848434827995,0.0151339321486452,-0.0486744088108246,-0.0123481751439632
"understand",0.0621393830133818,-0.0172223910290232,0.0562465179930428,0.0118428201246138,-0.00943472584025691,0.000110588267016064,0.128701210519223,-0.0805981309041056,-0.0329058094064779,-0.00391322607975911,-0.0326470550309834,0.0241156276982106,0.0499417032255957,0.0788371156879994,-0.0375811711397446
"frustrate",0.0131552959294663,0.00276677164816149,-0.0118060257326728,-0.0278167620299265,-0.0154489680260712,-0.0228343164132888,0.181810933701382,-0.0289583708299852,-0.0641969171280262,0.0443248095108997,-0.0303641158304941,0.0895569404349506,-0.0533255842313113,0.0883602360797203,-0.0494191775205379
"office",-0.0119409947410011,-0.00941276455956059,-0.0258514453967376,-0.000495126550253498,0.0439058173335053,-0.0155761048696861,0.108542241108913,0.0416579191455161,-0.0279698766169346,0.0564549146401643,0.0037714381207584,-0.036235346188854,-0.0119086841352275,-0.0973034072694201,-0.00915745908712875
"problem",0.0635232459594749,-0.00639015644660047,0.0236698477374865,-0.00586504791760073,0.000998014158812839,0.0435946965312783,0.118262093617484,-0.0587602758286987,-0.0387431340053254,-0.0245453273268784,-0.0272859863558512,0.0328416423063383,0.0267023552238636,0.0780619777990672,-0.0575040580224711
"happy",-0.00726338281946509,-0.046928536954936,-0.0241908630689631,0.0161250357129218,0.10065957108889,0.0255608884759895,-0.0641020863246395,0.0315187533322392,0.0540509610115702,-0.0188445037829012,0.0654617872685155,0.0269285106353092,0.0851650949964001,-0.0480334216290645,-0.0332542782548723
"discuss",0.00256126240255343,0.00785055970660703,0.0083174161938758,0.0105728513672857,-0.0792982338428081,-0.00169788807691433,0.0144900846620125,-0.0333051152269193,0.218004927713309,-0.000506743361016473,-0.029071911411814,-0.0189590406513377,0.0168934565567225,0.0197914937967674,-0.0211161679278784
"stress",0.0838967244652693,-0.0106611546928699,-0.0280304957747902,-0.00948153849826744,0.123907676022413,0.0254798608664517,0.00834711249545409,-0.0308963749180742,-0.0692183283327709,0.0162198560510997,-0.0418080797622159,-0.0225315343425305,0.00112660949995756,-0.0091446296066395,-0.00893407645253716
"explain",0.0433414257051896,-0.0336899930687173,0.0141145715634841,0.0114034605290371,-0.0480215386904517,0.00259887450597438,0.106557500752132,0.0105497897767196,0.028194679536618,0.00426814583352641,0.0297496551065724,-0.00416101575016818,0.0443195076520615,0.000967838922429991,-0.0684077916016789
"chat",0.0015454823964838,-0.00223837076829232,-0.00773689265334968,-0.00660647405602943,0.0859679817458819,-0.0366225470189874,-0.0230421324797245,-0.0116426846920623,0.00486107683251277,0.0220855797576866,-0.0286834269310274,0.0191528894540746,0.0435589900951262,-0.00945871033045454,-0.0403640437426619
"bed",-0.0120663585381592,0.166078765963442,-0.0107342237986055,-0.0529006384653495,-0.0218248503939698,-0.0224376558920013,-0.0305435647512942,0.0156118108775573,-0.0305982245350358,0.0256436525834057,0.0491358572704834,-0.0420952023824707,0.0340944077572356,0.0593360065057302,0.0159665345635431
"question",0.129127563830698,-0.0470381535544716,-0.00477070123854294,0.00405493150802917,-0.0801197892910867,0.00582657092793502,0.123482445183762,0.0535080340300593,-0.00841395068594926,-0.00541013757177433,0.052184340126118,-0.0245673575267367,0.042633321449529,-0.0386594230365679,-0.0281172909086449
"lecture",0.0146121879303245,0.0247630592561606,0.196886558921842,0.0311799821027164,-0.0403379395133458,-0.0038541029064911,-0.0281673934448067,0.00472971209136624,0.0264074809520764,-0.0184724679454531,-0.0229249723008312,0.00570952196302313,0.0225292989110157,-0.00947606792692971,0.0181378909355403
"interact",-0.00966364337250936,-0.00280368081403236,0.0251921572579138,0.00291369918621876,-0.0476205260937496,0.20419901873433,-0.0389184275958873,-0.0121396338816132,-0.00562857818474951,0.0299016372609402,-0.00241360391414136,-0.0141552950556691,0.0236126718514906,-0.03318638832322,-0.0165974122649944
"session",-0.00327093814361528,0.0692033017197739,-0.00641902161539795,0.00728788281178319,-0.0395633234630517,0.0256274035053527,0.0111129652207117,0.0626361762685058,0.0451549452277779,-0.0303399964978682,-0.0236927936728829,-0.0143738363712455,0.00488142666740522,-0.0838720242574631,-0.00616749370360592
"learn",0.0341277456294443,0.00516253502665868,0.054773796590634,0.0470340414462695,-0.0335169416080072,-0.0193943850068907,0.0674281051288942,-0.0726745555664826,0.0324763568657437,-0.00568152458585656,-0.0174246586262915,-0.0190789551120505,0.0812933099770093,-0.0272224536067448,0.0267022947843395
"outside",-0.00087028279911404,-0.0129378298201764,0.0249857903085204,0.0109608860927866,-0.00997630457738882,0.0151785003044082,-0.0322171122100245,0.105309516090019,-0.0142758284453171,0.00238804391354479,-0.00541988032846616,0.00813718138002352,0.0416257816886943,-0.0177928391880562,0.0108355514439337
"hour",0.0248390523649629,0.0500643633741458,0.00771537508539787,0.0315959637557489,-0.012622781903625,-0.0456559086724367,0.0193212440209591,0.0331687386561459,0.00378608229000522,0.0514342397308072,0.0276472649012219,0.016372261324286,-0.0568338280448382,-0.0314120315037787,0.00987423159757604
"left",-0.00506357021782627,-0.00194223724459951,-0.0013076686866122,-0.0216607991786501,-0.000730358381299088,0.00302948875562201,-0.0269733623300203,0.148296017403282,0.0137739042531698,-0.0252828738954143,-0.0145701613698753,0.019312584285887,-0.0397098839451097,0.0573794804629899,0.000559519280700647
"assignment",0.000796089996923873,0.0412751513794867,0.00789533153950445,0.0206763407290021,0.0424932735838093,0.0832263969797591,0.0367949710729433,-0.0646527717783928,0.0615080268423858,-0.0506760556271256,-0.0253374813159493,0.0359395917275085,-0.0881403236360241,0.0493403754760811,0.00321338680989343
"couple",-0.0215529914468953,-0.0125408703523605,0.0271257299508618,0.00269587594059042,0.104372074164594,-0.0360037342662344,-0.0184737101669395,-0.00237400613498367,-0.0141625281167388,0.0503425671933665,0.0101641584317702,-0.0238407688335886,-0.0288327240094499,-0.0272315422508013,0.0463835869809005
"class",0.118512536810254,0.0468209766828873,0.132848021613063,-0.00858931336869879,-0.0274332801632576,-0.0548359211332095,-0.0957011875353199,0.0239629914430343,0.0286466546549079,0.0087185808978737,0.0271774495748967,-0.00630488429294995,-0.0139836060481274,-0.0248852205409938,-0.00692441812777779
"year",0.00337803660109404,0.00594664119763473,-0.0313591609204692,-0.00147612577734689,-0.00396057522640866,-0.0656565748731598,-0.0143848797664857,-0.0593120801231338,0.050882471769594,0.172060767974108,0.0136935155039652,-0.00743643748431781,-0.0480723550179759,0.0243707728172245,0.0875641863543074
"nervous",0.120671488715919,-0.00544197387516165,-0.0417585284378592,-0.0420544404249266,-0.0368711066738335,0.0142577598334602,-0.0590742428132523,0.0610549584246038,0.0308624026120113,0.0733847721693268,0.0261288603809997,0.000330275967621687,-0.0647617006666547,-0.0662672863937826,-0.0294164743167493
"love",-0.00214349310412271,0.00578575641452873,-0.013337550135487,0.0397082075699481,0.0156399013174283,-0.00557824832455877,-0.00598651805637682,-0.06413584007999,0.0256861172864612,0.0944339387971713,0.0177531003969638,-0.0228790414245167,0.0507513884623961,-0.0339334061877903,-0.0308036604323719
"listen",-0.0200328068775544,-0.00867083673653007,0.124308488365342,0.0187172422028388,-0.0232531645020345,0.0420389042372834,-0.014991279584864,-0.0196666779910687,0.0164021737998346,-0.0382911492597313,-0.0193965762474145,0.0353807968483496,0.0955488164727063,0.0193768985861372,0.012288797105671
"food",-0.0223049123839002,-0.0441827924298473,0.033139848520643,0.24696823870348,-0.00259492777887276,-0.0029694532494337,0.00768845006111305,0.00545413245077832,-0.0144292915740942,-0.0165989893876924,-0.0500758871251917,-0.00794363286583567,-0.00478524320668152,0.0456355303013462,-0.0222813979338183
"leave",-0.0229034064398477,0.0228233902076468,0.00826509797249059,0.00357542576281627,-0.0146519884484418,-0.0440501747598803,0.0303976991975917,0.0877030164975276,0.0208231078521249,-0.0289663687613659,-0.00607722409516779,-0.000147904973553014,-0.0333263977253417,0.0870756641379051,0.015230515923572
"reason",-0.00222310083932995,-7.48562681252228e-05,-0.00609487630579327,0.00877601901184849,0.00165844023318757,0.0392351989991879,0.0233280437163467,-0.0127386392538234,-0.0131936439736982,0.0996530276549465,-0.0218868274028655,0.0178475739352291,-0.0361016836277568,-0.00042514541811066,-0.0141111805446173
"enjoy",-0.0062246103190985,-0.0157843726940182,0.0324900175136827,0.10779400356879,0.00858762381160177,-0.00461948488381845,-0.00305816786147888,-0.016645477103763,-0.0046433034503403,0.0180033858431035,0.0778599410896274,-0.0371336395524257,0.075755813712221,-0.0379867413041809,0.0233137785318797
"paper",-0.0012158398707211,-0.028880317602498,-0.0315079541416607,-0.0211126231982495,-0.0126236675215903,-0.00519488491772018,-0.0315717280651911,-0.00771617273682667,0.0461795582537229,-0.0289253212809828,-0.00181731071549585,0.0373717378744069,0.00122475871690381,0.000935099740849705,0.204592707780744
"due",0.0261490880459912,0.00711193286455788,-0.0209367503629535,-0.0254822648308918,0.053924133301072,0.0147878272309659,0.00189418650940083,-0.0411020483056096,-0.0248648310048295,0.0180250110305695,0.0179008592591921,0.136946945298175,-0.0622932880006929,0.00303458690883759,0.0605537034845472
"nice",0.00897364322879642,-0.0516605187383681,-0.0213278849823665,0.0383139072921173,0.0932179019522629,-0.0259614429651642,-0.0294358596285271,0.0271385531499603,-0.00608435289610625,0.0377920892422825,-0.0122199129177015,-0.0237891998188123,0.0517945616239998,0.00710442911097903,0.0367610759076758
"tire",-0.0135987822756081,0.197784079506318,0.0143104003434595,-0.00687416566828521,-0.0058585425478258,-0.0188675082769663,-0.00131459363699496,-0.0455629609510409,-0.0166597810436911,-0.0130738549939821,0.0012165083137843,-0.00816267395645408,-0.00613895792528552,-0.0299375325335235,0.00116075649316428
"stay",-0.0334440773648348,0.0403814814051635,0.0765569612902244,0.0224957039408976,0.0345800665458415,-0.00596324099357033,0.0266187090487005,-0.0291782840307036,0.00696469872263706,0.0271806816968286,-0.00998916557677238,-0.0147990626353146,-0.0344513469798702,0.0687310951167864,0.0234005109927193
"wake",-0.0208576551258188,0.244153604336692,-0.00885827800237355,-0.0303036403831841,-0.0243015568864954,-0.0300766914660834,-0.00667055262447068,0.0110387793644411,0.00723011674405337,0.00432036203570949,-0.0263623131487115,-0.0168379236833735,0.00343655401648224,0.0124632822885307,-0.0217659799919657
"prepare",0.112069310614735,-0.0208066112675134,-0.0254038849342892,0.0630000206397182,-0.0429044397556758,0.0405428218831738,-0.00372863112298575,0.0431552149395007,-0.00544143615684149,0.0200611236798421,-0.0231352289363001,-0.0418695777976384,-0.0234723256519754,0.062375730944898,0.00669613811626012
"stop",0.00334347646171863,-0.0104839277143596,0.00429938838842406,-0.0164520184296746,-0.008602778599851,-0.0131432057036918,0.0538784474516545,0.0924728064732062,-0.0337481612325375,-0.0275309478052818,0.00741738797956048,0.0203120161671876,0.0598668725343893,0.0606228681577006,-0.0106020436382336
"apartment",-0.00954696569906347,-0.0185873596769973,0.00499190250675902,0.00886989502943685,-0.0226033646085788,-0.00928221363082084,0.0111154673040347,0.0373505038316777,-0.0161526108608507,-0.012541137787479,-0.0500718935137424,-0.00805227122268025,0.0361421906389225,0.23048473655782,0.0409022469798822
"mood",0.0367027268501171,0.00435947064378179,-0.0150192702491543,0.0377137536144943,0.0712067284328089,0.00141994419716004,0.0472381409639086,-0.0353010901383141,-0.0361206082633869,-0.0429353275017056,-0.0102960026271721,-0.0335004383033627,0.147940747942617,-0.0325279700902032,0.00610049905204607
"grade",0.136061064160115,-0.00101883388762442,-0.0198338860343312,-0.0093960131786551,0.003035726872216,0.0244266007428687,-0.0255956808455618,-0.0114581879570782,0.0242004763375452,-0.0138056054787658,-0.0289504826250467,0.00141777893864527,-0.037389052984012,-0.0121531241153986,-0.0109717444360331
"eat",0.00472416366600157,-0.0223210691672709,0.00127648950056111,0.269341961224593,-0.0193481651553341,-0.0426549162407801,-0.0283110701993998,-0.00754844697482598,-0.016503977155689,0.02526297701117,-0.00234779458104349,0.0357634063536305,-0.038271796378566,0.000595851910079583,-0.025292451956296
"turn",0.00553375609863638,-0.00160116057418304,0.0111534510641854,-0.0150825392822021,0.00556872956281816,0.0233561539718598,0.0291629139705646,0.0417520364881131,-0.0305896330352631,0.0484914336879774,0.0517085397061885,0.00831839064240347,-0.029756511095839,0.0242587025732544,-0.0231184240470624
"house",0.00761830657290792,0.00251707849071401,-0.000134543798053404,0.00982131927570054,-0.0175316777052786,0.0350715289023552,0.0293215604089656,0.00926518031049648,0.0180216200161429,0.0221337527531211,-0.0114575058115035,-0.0335707608023417,-0.0503799869046276,0.176522393560732,-0.0595414423530189
"watch",-0.00440267717618051,0.0183571776958087,-0.00625643273935751,0.0345276210035024,-0.0446472009679208,0.0182078772238903,-0.00388013015113411,-0.049738442199014,-0.047928446283421,0.0264764712603181,0.256607227693059,0.0174114849287018,0.03457107928404,-0.0246000110670995,-0.00920169625490162
"movie",-0.00807493267062321,0.0235936434489085,-0.016428384863978,0.011948528266798,-0.0429264841301733,0.0163263312675066,-0.0312101190102332,-0.0184091992881931,-0.00380506885888525,0.0338350286024438,0.0656533212591974,0.0286866746471114,0.0664417389273662,-0.0306149751016314,0.00722046980694244
"experience",-0.00866282715360224,0.0171061813962896,-0.0109469412596377,0.0551484161314045,-0.0123229675608159,-0.00970481506984637,0.0499305814038431,-0.0564531969707888,0.0484196464215909,0.0714767444942214,-0.012612633577931,-0.0313761607988934,0.0390045454729685,-0.0523841325533861,0.0272115903408073
"roommate",-0.00748131449298165,0.0122037491865003,0.0075728913679726,-0.00290612209866039,-0.00764865103160735,0.0115243027426091,0.0251481684085978,-0.0216559537927061,-0.00243188793775826,0.00682724007989746,-0.00861294784979812,-0.0278184345381192,0.0133220458876853,0.250730095101012,-0.0222112210875826
"mom",-0.00251718981811186,0.0109847685587348,-0.0118716511883605,-0.00133172763236264,0.0698771759601474,-0.00374536577874045,-0.0181776056536486,-0.011950953894988,-0.015786959585818,0.0461526534282227,0.0199174547764662,-0.0346319595401664,-0.00374340188838492,0.00235543819082013,-0.036059523408183
"surprise",0.0182585150015635,-0.0227297298301976,0.00803871273315131,-0.0464180524108034,0.0173565758834486,0.00959256726092194,-0.0305059767260918,0.045980058323574,-0.0410432345347522,0.0793874779796632,-0.019792835065684,0.017418449278135,0.043600864163052,0.0114702024012962,-0.0181029062876696
"text",-0.0230275993188693,0.0439946831647795,0.0304292209029068,-0.0711790786631682,0.0442935806451859,-0.028990861501785,-0.0458573453574393,0.0358871492760317,-0.000934123485757673,0.0473062120428947,0.00791352216942281,0.0310988864843958,0.0161091272789608,0.0364386823725228,-0.019986026253003
"fill",0.00313223361597596,-0.0179483484271581,0.053218644489755,0.04457125038683,-0.00419011970865602,0.0113814220130683,0.00812388786869119,0.0189403320824456,-0.000993191099722363,0.0409080775266418,0.0272691088759636,-0.00370267369082178,-0.0302794349916997,-0.0258441274495616,-0.0511759124561726
"morning",-0.00390192504476362,0.0999854723513222,-0.0118429420780591,0.0405083692814587,0.0660350173179194,-0.0223661613388612,0.0143520427809571,0.0470680578180743,-0.0650536692574374,-0.00302426747786685,-0.0383917214145051,0.0363078159894221,0.0264277521495071,-0.0365049154223065,0.013805838700579
"student",-0.0174588568547794,0.0150322607778076,0.0383469040973421,0.0256189762778933,-0.0579596485276151,-0.0178985109059589,0.048680429655912,0.0299625812003335,0.0923107551541589,0.0394168604643336,0.00230658766011046,-0.0092356634641993,-0.0592272544187461,-0.0579491431395145,0.0505168677583865
"reach",-0.0313365564062591,0.00994460755147999,0.00965299686039039,0.021123646305444,-0.0371449834664136,0.0449182901196494,-0.022714246621086,0.107889146621364,0.0502147903664529,-0.0200344439545275,-0.0501078510364634,0.000430855213554431,-0.0127780307540999,0.0193123036301749,0.0058991549394974
"data",-0.026893452046602,0.0029369370077835,-0.057189644216785,0.00606871449694864,-0.010903332409066,-0.0494889533825251,0.107321809484137,0.0148463082429352,0.0723525110425431,-0.0255117984958403,0.0145853016608734,-0.0364493686793254,-0.015386167355994,-0.0541567323675517,0.110528523875734
"read",-0.0094089633600467,-0.0168673312953241,0.0158481544849971,-0.0200801436000828,-0.0780697592735999,0.0160838769078799,-0.103184778953588,0.0586133810336698,-0.0499371005179425,0.0939172349662855,-0.0507589791704921,0.0607633757809981,0.0815200690805143,0.0152787745344574,0.228847580935131
"emotion",0.0190883513291351,-0.00314502266369975,0.0180840887929804,0.0118038196706129,0.00400941228889824,0.17303523618247,0.00471160153208642,-0.0491942098945615,-0.037754508410242,0.064846690040064,0.0435450231794709,-0.0366741700694236,0.0184798058271061,-0.022158541750094,-0.0315218352498007
"note",0.0616020614106796,-0.00681056251382978,0.0802745110281739,0.00364060472295292,-0.0106259642480079,-0.0168569992242732,-0.0424422952970838,0.0105523343451852,-0.0206652662263412,-0.0116930210128654,-0.0359294765960286,-0.0218537868074869,0.0315260174611679,0.021193604506046,0.108705993432432
"information",0.00783526326534304,-0.00442670213165268,0.0271539828287496,0.00548131860364775,-0.0270182797013338,-0.0200081805654185,0.0299934350514333,-0.0106134158312395,0.0126549040773179,0.046007251456018,-0.0375571700902407,-0.00715864883034826,0.0184374040463334,-0.0356619890966421,0.068628630915983
"deal",-0.0213560050908461,0.0210384115260244,-0.0256097944789705,-0.040318595672859,0.0137614426394839,0.00244565256458729,0.0559275916584397,-0.00514342790552652,-0.00583610441666756,0.0724124908369389,0.0235019363135761,0.00361589208557858,0.0052086263430018,-0.0279520234095144,0.0163602806865946
"hard",0.037964050821738,0.0183935730974347,0.0487600135556384,-0.000276337221262489,0.0642249106986516,0.0237646063223279,0.0362817267055841,-0.0549429838528673,-0.045674605860623,0.0101783727658034,-0.0146840217535983,-0.00251108490880553,0.0319975924572336,0.0316860542707705,0.0246622531971388
"productive",-0.0275020949680154,0.0345121335292187,-0.00543470031555914,-0.0182969480140469,0.0466542624192391,-0.00637841848681143,-0.0135550119223296,-0.0381243794126828,-0.00434637328805962,-0.00718496888443529,-0.0226051224019443,0.00239949252084633,0.00340900943509182,0.0310819595517674,0.145301506784526
"wear",-0.0228988987435069,0.0946484810299542,0.0183033020352212,-0.0297551962607856,-0.0276114432145585,0.0225056261822748,0.0019281675270657,0.0349543930582755,-0.0197706895287008,-0.00563658888013555,0.00205483557113306,0.0216077966906162,0.0272085652567476,0.0170221659758983,-0.019203984564534
"train",-0.0413045330503329,0.000867044594368744,-0.0253877793147906,0.00271461874237291,0.0465137215230838,-0.0269127048837824,0.0907239370639568,0.0908035689716929,-0.0374475293084393,-0.0446213639822713,-0.0303444768136086,-0.0393280523679695,0.064263386331034,-0.0372654914364594,0.0217759904324708
"desk",-0.030995858437501,0.0026630687803496,-0.0129337001966598,-0.0377301049409111,0.0324898860324715,0.0187347779947751,-0.0271056839707557,0.0419148358171181,-0.0724000295792708,0.0917753825317827,-0.0090705024012077,0.00373980091035943,-0.0292767059212717,-0.021687494075261,0.0824452404745471
"continue",-0.0111202835752868,-0.017044959474793,0.0352620321519801,-0.00349448413858873,0.00775211063892574,0.0707610168019072,0.0194085469720162,0.0243189644015693,-0.0394665553634695,-0.0056074569397279,0.0330572330097072,-0.0147173941374152,0.0730701251951625,0.0108798353512584,0.0101828623682434
"laptop",-0.0410292786364472,-0.000704283721550488,0.0231886625050376,-0.0432044206602024,-0.0435850936207094,0.0013279277940782,-0.067736059277486,0.0679715324480656,0.0142283357035342,0.026125938428549,0.0137664603677667,0.15130064513696,-0.0476217480323743,0.0161402531892237,0.028308714917643
"favorite",0.0059415638018603,-0.025337888925588,0.0243782314442207,0.106841428713832,0.0323484411697314,0.00795652543123292,-0.000586038387236662,-0.0709770781902905,-0.0149625781848165,0.0266587118173066,0.0699023552886734,-0.0171662605913938,0.0383956255579101,-0.0399230084267965,-0.00795864675040365
"hope",0.0426438441360516,0.0198732583170835,-0.0181608013610197,0.00349038764834165,-0.00321223221637867,0.00457638154412653,0.0381650557948395,-0.00740273742350316,0.00263473898816439,0.046161546463949,-0.0322016982736526,-0.00295517356743397,0.00142616752029604,-0.0145697187946849,-0.0410894045623306
"hungry",-0.0220212111509037,0.00555174113467917,0.0260980836131975,0.248745295402105,-0.0856708698132892,0.0305448969358365,-0.00290816468412966,0.0193704565501026,0.00197935932792832,-0.0115147903923161,-0.0251403882764544,0.0476660292838997,-0.0485063150242272,-0.0191728872660584,-0.0144501067338919
"angry",-0.0122381704713379,0.0196758110889326,-0.00378322512826638,-0.0119389533462818,-0.0535000489829379,-0.0185179029375315,0.0925605670217669,-0.0153316597742845,-0.0438326637651042,0.0854377981394836,-0.0122619145016551,0.127046445877509,-0.0362470795465125,0.0370190333293495,-0.0440692743231593
"clean",-0.0102183028983554,-0.00724788582371282,-0.00886705772463195,0.0460364014680305,-0.028893672620574,-0.0202336249756253,0.0615221369442254,0.00430673395614505,-0.0426600602562439,-0.00892391117600205,0.0305100666408246,-0.0236416784126954,-0.00684897002533583,0.149930773623912,0.0465553538114363
"remember",-0.0128787515560901,0.00727883340963529,0.00997011887943368,-0.0171538443485411,0.0208190205248291,-0.0107942562083869,-0.00669140237628461,0.0157520084141429,-0.00200931486168256,0.0568682325735376,0.00208535732906251,-0.00555736378413111,-0.0222737046730533,0.00153873675576069,0.000691146914290836
"interview",0.0135199904264145,-0.0182221795628421,-3.9052265612959e-05,-0.0195060583982964,-0.00442397022175445,0.137164348744451,-0.0090943898786052,0.0227946989076977,-0.0210088026404172,0.0855107391050838,-0.00798503733351963,-0.0192924662804308,-0.0167823647352009,-0.0507270133366724,-0.058478937396882
"begin",0.0421182795803228,0.00302119913857059,0.0201980158822815,0.0303693585238399,-0.0372694962151599,-0.0257518383330969,0.0216214527153178,0.00216365001814693,0.0220044447732587,0.0299029801694264,0.0222275196782481,-0.0381625296084618,0.0167156498369161,0.0293164840242831,0.0731508479076023
"pick",-0.00814971278111903,-0.0544436606142427,0.0118451477489153,0.0114231959183467,0.0130739678026553,-0.0156963994258051,-0.0167730475003602,0.0950314106099267,-0.0200681158785285,0.00652161236459344,0.00651389669754191,-0.00826470002929748,-0.0123989607085317,0.0253845499415559,-0.0207082295859411
"school",-0.00869213519990489,-0.000869682912152493,0.0169667637463612,0.0556681730415789,0.0531796143280341,-0.03952963665072,-0.00553332176867582,-0.0705496382366613,0.00184281475239892,0.0912207918356079,0.0292775389931988,-0.0303555736693175,-0.0202934387437057,-0.00355390423929348,0.0344639292322933
"music",-0.00391157606326817,-0.00820123072598942,0.0347981548841012,-0.0141779504164674,0.00304857421041032,0.0441708059620477,-0.0243297250443242,0.0115044205023256,0.00600903670726991,-0.063057819595975,0.0485751463524399,0.0425475527019352,0.0443876144576862,0.071408493630647,0.0189161327760413
"video",-0.0117804754180977,0.00166898591916023,0.0161020195073813,0.00277219157427715,-0.0306781499209354,0.0348923560495195,0.0245016972707687,-0.0242406225719947,-0.00990102389976976,-0.0203526422067271,0.220795184995854,-0.00695405045699985,0.0167809798996616,-0.00288755851012449,-0.0216176575674848
"library",-0.0116149772086862,0.00422484069737669,0.00759083466187686,0.00319960493729415,-0.0271620916309821,0.202044233086487,-0.0405618510871816,0.00457974116974622,0.0825754973441954,-0.0633922675929735,-0.0563608664564482,0.10117446030811,-0.0322466376169945,0.00684984638204465,-0.033404486098175
"message",-0.0303270364317958,0.028305825425903,0.032400913166708,-0.0661482865250958,0.0278475839915797,0.0273855186949868,-0.0191248231838995,0.0221557875337961,-0.00218422077118853,0.0548119745981971,0.00184284709777853,0.0402812493485055,-0.0257573618941141,0.0159402659173556,-0.0522368635649952
"life",-0.000815422674094807,0.00172136468222137,-0.00326660457405721,0.0407324096706037,0.0109198988474305,0.0151421468133072,0.0172606286859584,-0.112044664021075,-0.0027563493352002,0.142750960659003,-0.0231445928531712,-0.00148979029746298,0.03655840408658,0.0291907101066272,0.0069657606988861
"weekend",0.00276125971199452,0.016490326183427,-0.014201237651662,-0.0433245071349178,0.161410450896814,-0.0293365940674706,-0.0404235663176241,-0.00245149943730676,0.0147321078428778,-0.0265654653180765,-0.0125455867033051,-0.00236225546204563,0.0160558095272719,0.00918247978576515,0.001895252444533
"live",-0.0031413677135524,-0.0106834514203363,-0.00134020627331725,0.0268758311193962,0.00138062465425209,-0.000272792731622761,-0.0261901242598656,-0.0534946641855095,-0.0166349951520938,0.124155750542221,-0.0308994890705037,-0.00326618638764164,0.0367216264976592,0.107891298210289,0.0232494743475904
"sad",-0.00674298947967904,-0.00252700736171403,0.00195846433376844,-0.0253708881693545,0.00570084717205918,0.00598387504190557,-0.0380993703345361,-0.0458446545764018,-0.0382633000564098,0.11652314301696,-0.013852846852232,0.137772865355379,0.00533210739404598,0.012450558889763,-0.0336214908904295
"easy",0.0433070308839965,-0.0288094384497757,-0.00132640115951169,0.0257571973367013,0.0296273969799076,0.0160145199081317,0.0150104011997872,-0.0236129097283702,-0.0305045238980571,0.0415941468820179,0.0224045315959382,-0.0205385145216061,-0.0319755295795888,-0.000981582718520442,0.0688250119394828
"tomorrow",0.0563986817414074,-0.0161067142920562,-0.0158490404945806,-0.0179189709896814,0.11194096485774,-0.00281366568700917,0.00420549475213775,-0.0361387645523329,-0.0137930008198334,-0.0156884206399786,-0.00147591889696652,0.000122142687440663,-0.00225114877504532,0.0366165313225826,-0.0154202907295872
"semester",0.0442923348434283,-0.00710283238013067,0.0252804195281776,-0.0113446031124458,0.0108533357722445,-0.0207219960600352,-0.0578615479729298,0.0262474405584766,0.115040194593375,0.0468002509428479,0.0258036714987714,-0.0300782284314299,-0.0910329448051237,-0.0019357273584894,-0.00784091761214433
"exam",0.178808624761547,-0.021468500828195,-0.017894804181169,-0.0316149901661743,0.0472129300220945,-0.0110401682603206,-0.0711070213060096,-0.00815706785204679,-0.00753502476456423,-0.0139481187447888,-0.0330675445029687,0.00891867709281011,-0.0204767303541107,0.0432657139730655,-0.0419141561616993
"calm",0.042492234100258,-0.0135851764956081,-0.0383832821386315,-0.0234017684421382,0.0156452402271823,0.113469403865053,-0.0825395627549304,0.0395244422490905,-0.0550231503086705,-0.0261999280772245,0.02316816411143,-0.0217751537475633,0.0767034961100592,0.00813843442759361,0.0903295632541858
"shop",-0.0377507728077068,-0.0265158613802248,0.0224050523043636,0.000588584986698189,0.0686364901320892,0.0158356426663057,0.00192931061228756,0.0208571080805338,-0.0383921963985129,-0.00544210645119943,-0.0242545902527408,0.0016472324728041,-0.0116936671761812,0.0399882198721743,-0.0130245414183938
"material",0.136411035215364,-0.00580110701982852,0.0707972593446788,0.0245597010182673,-0.00825591105486551,-0.0122785880457398,0.014193885549978,-0.0365097883389072,-0.032587161382474,-0.000212572783134663,-0.0227648281078079,-0.0321511654150512,0.0188928228336999,0.00316921999747011,0.00673956803426955
"complete",-0.00567193064754751,0.0208046729433264,-0.0151932493201166,-0.00153040283629935,0.00905472223428635,0.136371097019253,0.101884672648621,0.00610734179488935,0.0342748853064476,-0.0330869304565053,0.0590287933460843,-0.0316169750688586,-0.0379524727692569,0.0251073182130027,0.0189755938291538
"break.",-0.0136872136276272,-0.0280212467106077,0.0331467575095284,0.0490188197455046,0.134142966253517,0.00233524374931068,-0.0325365266544645,-0.0334786414400905,-0.0389907369924576,0.00855670733432068,0.000432691293831585,0.0384213658240425,0.0328664099291117,-0.0350185919463584,-0.0163421436340832
"test",0.137913735839793,-0.0298118964805956,-0.0282722992017061,-0.00742857330804093,0.0101470576441852,-0.0268374953075024,0.0563679978800919,-0.0177643593393527,-0.0247226719804793,-0.0331936216594509,0.00969061209921404,0.000665683577086856,0.0286918575349339,0.0297851181396122,0.00501553359007893
"process",-0.00599436006495532,-0.00184609595299186,0.0105929481041033,0.0288685242921854,0.0109538706196655,0.02045794113167,0.0718191152242558,-0.0227751854912038,0.00814466928144329,0.0341581998614305,0.014671221239914,-0.0414859407824832,-0.0458516247196118,-0.0323342579227339,0.0113381929699929
"neutral",0.0107341177236311,-0.0141450718456249,-0.000316315870422642,-0.0252180079732783,0.002882734259277,0.0963363832037157,-0.0622372377576123,-0.0156774917795313,-0.0162258338391698,-0.0224726940274092,-0.0398552726090383,-0.00208771918967267,0.0454050325895732,-0.0127417394700093,0.030408634054195
"hand",0.0377595730283639,-0.0193655223888125,-0.00972575084809476,0.0249310971050184,-0.0388574650226149,0.0511457078922671,0.034483113606253,0.00525718370150821,0.00517607011753982,-0.00188887142974261,0.00783127724440332,-0.0554807739223724,0.00972454465531987,0.0628247960547162,0.0666573545364137
"project",-0.017624200913713,-0.0268082281774192,-0.027832899292572,-0.0287030006250398,-0.00629204616700727,0.075789266909521,0.0533153173729561,-0.0171852505721801,0.172936282254069,-0.107073938581699,0.0682442577632864,-0.0266294977327347,-0.0484971792535599,0.0196939310457049,0.0546088665272174
"confident",0.0982343238689028,-0.0348749271192967,-0.0181173178638299,-0.00864977347759189,-0.00686286312740968,0.0642542268209814,0.0128956546640602,-0.012785904836328,-0.00760449054644595,-0.010360573634861,0.0301502690827558,0.00902839277920324,-0.00985671154874562,-0.00637119181697423,-0.0270412675526347
"consider",-0.00418767788330785,-0.00218564917472515,0.067856382403113,0.0316466081309025,-0.000246296778448117,-0.0466936011556912,0.0176273854246613,-0.00721493101929062,0.0194355837610342,0.0527996925869059,0.0520965138219445,-0.00725550650018386,-0.0692567065731145,0.0570915404670298,0.0186665610829817
"dinner",0.00206294245099892,-0.00955433853785834,0.00409922774876079,0.0927081338824697,0.0231820172356261,-0.0255991585139426,0.0493761638192942,-0.0230527512964511,-0.0115022680507407,-0.0427935309269631,0.0272710967431221,-0.0503018761310999,0.00619330878504743,0.0870967689617825,-0.0298598979700714
"nap",-0.00807841401780883,0.20985540642553,-0.0213294784170492,-0.0697294200665935,-0.0366971782688744,0.00837180861076967,-0.0259665457641227,-0.0306281570014334,-0.00850398125722961,0.0380801270194701,0.00323660550657435,0.0202947272994694,0.00526338062212282,-0.000348802843757742,-0.0420955172720575
"final",0.0923293545564223,-0.00844564743066898,-0.051531990489212,-0.0282582966219477,0.0468577957196976,-0.0397901010768264,-0.06120884927215,-0.00747760421708707,0.0717384140846916,-0.0112635235131575,0.051776847192199,-0.00704732273670409,-0.0891903535748871,0.0104596283107201,0.0395867411232731
"quiz",0.160296643168092,0.00397142704949743,-0.0321720886269106,-0.0106934482042384,6.74743477840089e-05,-0.00219127422449696,0.0137738287351957,0.000524691109649006,-0.08174801621339,0.00274642747246314,-0.0172644593180297,-0.00418239294812488,0.0751013810625418,-0.0264093434733711,-0.0475572254470673
"table",-0.016444797216124,-0.0258897755889175,0.00986435242939596,0.0230553117957075,-0.0361724356597803,-0.0450637648668272,-0.0482472451358359,0.0233175621536749,0.00765950980173207,-0.0334546895558558,0.0127551597898374,0.273912024288846,-0.00718694380308465,-0.0034965810857138,0.0375741004789036
"fall",-0.0274254704588722,0.114935690096486,0.0260728658382629,-0.0322774244558471,-0.0320413166479266,-0.011021306242069,-0.0304374243075891,-0.0292343765230006,0.0647984770420041,0.0639540749899209,0.00313373585424209,-0.0223880480773296,-0.0664877122507779,0.0263848815986328,0.0133130807453386
"busy",-0.0343263804473498,-0.020957417403935,0.0109037597068018,-0.0171432917899788,0.128893530343906,0.00645343294401072,0.0352326358876199,0.0381874365438859,-0.0462284622874478,0.000197459820405883,0.00594868439000167,-0.0125057599782789,-0.000193447034700505,-0.0423979038302684,-0.000954624273944112
"dorm",0.0625421225196009,0.0230461158954855,-0.0315578290471826,0.0036730424306171,-0.0116160493751003,-0.0589887255099159,-0.0356405915941621,0.0447554123491751,0.00217641950334282,0.00488951250848276,0.0659366444642488,-0.0108583271390759,-0.0320160176066667,0.0621599823947563,-0.0401349858103104
