"","RC6","RC3","RC9","RC7","RC1","RC4","RC12","RC5","RC10","RC8","RC2","RC14","RC15","RC13","RC11"
"question",0.0983762076807436,-0.0666224013121976,-0.0488979156786894,-0.00165149308240443,0.0810148896719664,0.0108704356803482,0.0335106114638328,0.05875452999333,-0.000942584942802901,-0.0253154679275423,0.0377663380006437,0.107219326828171,-0.0461171683469342,-0.0481284358418015,-0.0449210574078614
"move",-0.00484387101089444,-0.0290774320372731,-0.00624769747601542,-0.00908374228637731,0.0461163578232155,-0.0533074684432627,0.0434185498911017,0.0110200684366413,0.023514358188481,-0.044650823857001,0.0362916921467138,0.0538425461879874,-0.047297080542225,0.0813760450296524,0.100318512622907
"answer",0.0518208511431253,-0.0825882217344385,-0.0535037094746133,-0.00935170433449664,0.166900860723633,0.0286250146503483,0.0195191549466821,0.080045256875383,0.0119827093024516,-0.027013821233364,-0.000711559959931318,0.0621618860895571,0.00682667805244292,-0.0745883312051681,-0.0594237634485079
"discuss",-0.0131354302194901,-0.00301047025965563,0.0113303666785618,0.0101030253118363,-0.0519552049678952,0.00347695758068248,0.182755903861379,-0.0388054282926531,0.012919632675687,-0.0166939143297949,0.0520710131584143,0.015784055646997,-0.035705796460912,-0.0518106939748774,0.0205844085495643
"study",0.119558584554979,0.0580997329611037,0.00832438043265683,0.0116114835997701,-0.0311673305954798,-0.0131028280376398,-0.056029039030436,-0.0287046685358218,-0.0117151452107597,0.111485397141662,0.021690644007691,0.00807448676218487,-0.0653035671244137,0.00980966065605339,-0.0417935795066325
"enjoy",-0.0172121025638884,0.0358214841449495,-0.0158961803171978,0.0899126876914973,-0.000744949105339421,-0.010389127825151,0.0105872664031157,0.093408099414099,0.00879242098212291,-0.038788789480161,0.0882500631939781,-0.0204465630924002,-0.00470281822407198,0.00620896230114182,-0.0332113489511884
"thought",-0.0202828218533014,0.00462984859808026,0.0381097821443945,-0.017120869905556,0.0136852515328635,0.0213516223562458,-0.0474706773686885,-0.0247033366542719,0.115188695141862,0.00372985795850447,0.0350227722545654,0.0506050393311363,-0.00482595091086259,0.0482138076646606,0.0239216390681808
"work",-0.0168369534478114,0.0880765407227797,-0.026445645029194,-0.00824016697263668,7.27895406381331e-05,0.0316204245373853,0.00570972363265391,-0.00775135703489857,-0.0912199974556745,0.0751764875440928,-0.0459543911183544,0.0538250884193791,0.00230171678489047,0.16325545475466,-0.0200874118371963
"happy",-0.0153269329157769,0.140711442422018,-0.0472426800377582,0.00510361630604293,0.0292288507612865,0.0399716390747994,0.0135547993604398,0.0667019088991419,-0.0239842927867189,0.0320280925309371,0.029767915406836,-0.068790511639575,-0.0227226185766261,-0.0327080134481399,-0.0292621160702704
"learn",0.0156568510035949,0.0195176027672421,0.00025393382857831,0.0347775354593148,-0.0516024532109928,-0.0291609955834787,0.0309081490940712,-0.00195545451978784,-0.0161085548352937,-0.0279454424257142,0.123942091895351,0.0859420098339155,-0.0255096231879788,-0.000299698056413784,-0.0324337642413231
"process",0.00572525130138575,-0.00295701944340133,-0.00405507487360351,0.0330492963950368,-0.0189569728431292,0.0125009653001383,0.0401406623734139,0.0207928227921655,0.0124188598101513,-0.0464611137650578,-0.0326352182220403,0.0522711486335365,0.0240055159174793,0.0339945066237442,-0.0443074898379226
"prepare",0.107846163226428,-0.0431883373465342,-0.0229818008197677,0.0633565049272886,0.0318813294051226,0.0438933645651468,-0.000197967807353853,-0.0169743640685837,0.0353982687269057,-0.0375110029700954,-0.00262502680930873,-0.0039648861275885,-0.0455014999929916,-0.00307715573071148,0.0456772188686172
"tomorrow",0.0578495842152058,0.0907407915525765,-0.0154849213543993,-0.0248373638304912,-0.00506252643164446,0.000774431310273603,-0.0277140815900433,0.00124516774651677,-0.0432747662385668,0.000166920336331546,-0.0353726988482794,0.011661827996345,0.00518889371857354,0.0113271619565705,0.0279306533412173
"plan",-0.0123737337370919,0.124680820625446,0.000159009180575248,-0.0349164426522334,0.00458973781993922,0.0636834661581572,0.0597417061166623,-0.0606163545358182,-0.0226104752917711,-0.023372838224398,-0.0685626032953779,-0.0643314586021027,0.0627947203693629,0.00262701281613506,0.0523972502587206
"complete",-0.00809557311374507,-0.00850787433175562,0.0220981769676265,0.0135984369672809,0.00869359042559668,0.129851802571935,0.0414418855644856,0.0567485195912868,-0.035954926645221,-0.043106627776655,-0.0357900777355492,0.0837529910311521,0.00478021924316069,0.0540967720961033,0.0016138452758449
"task",-0.0216135990276667,-0.019347719267103,-0.0150471176080005,-0.00124683473444225,0.0187044500505806,0.0661359655881234,0.0152494949894962,0.037665134659608,-0.0107427755318732,-0.0581225860801265,-0.0201591232914031,0.0516698690298188,-0.0140865849438421,0.124054922377587,0.007674899456425
"train",-0.0547886473333684,0.040263760048191,0.00357993305238556,-0.0127591985769595,0.140579767990861,-0.0285324591074641,-0.0374427932251352,-0.023736914252851,-0.042763095890884,-0.0401512381189128,0.0236103532020868,0.0548450769351563,-0.0422801567909118,0.0399987237398655,-0.0333354475288031
"session",-0.00791954798255119,-0.033090294716382,0.0722542127155273,0.00444871755604757,0.0529347694533537,0.0300048333091459,0.0486996788200443,-0.0199149875728686,-0.0183626040545233,-0.00326871371278924,0.008743254610348,-0.0197091590452348,-0.0052022030906225,-0.0175714877176069,-0.066387498606759
"day",0.0277995566721512,0.0742528212824635,0.0617917309578864,0.0270845151913127,0.0588358053253208,0.0300679389699123,-0.0192688476738262,0.0388771537715162,0.0288458616830095,-0.0560949128106892,-0.0358473938471704,-0.0133824429384563,0.00490449329458855,0.0674360277817904,-0.0438828195166129
"watch",-0.00291011854177035,-0.0360878633268092,0.0239235685000051,0.0302348269078019,-0.061564448010335,-0.0151341015549758,-0.0375106925253819,0.278060691071495,0.0475984098609276,0.0132806935186966,0.00473509723988524,-0.00295409446315676,-0.00836392671806547,0.0052054201452111,-0.043983641341362
"frustrate",0.00542935445691973,-0.0439215508210956,0.00332942673634103,-0.00492499829737766,-0.0092485070373365,-0.0207294142274221,-0.0201841376498714,-0.0282528299922419,0.0332259251374276,0.0614156344581372,-0.0843206789949701,0.212520045245707,0.0129556377088857,-0.0189839811450181,0.048208340686502
"late",0.00922412808853712,-0.0421999799874798,0.118601440017519,0.0338861704092897,0.0638035369548386,-0.0112293412561525,0.0376450346786036,-0.00972386853930691,-0.00262508141721712,-0.0120275568707732,-0.0290270528545854,0.0289703640662475,-0.0157922080723846,-0.0445664195695235,-0.0311739482004296
"job",-0.0180785830297067,0.00436949370046897,-0.00358242710305677,-0.000215125092315416,-0.00628781083655976,0.0401102288370279,0.0690931443550453,0.00554374866210306,0.071141313359629,-0.0132680353637868,-0.0487253291300175,0.0219140470572571,0.027385273319059,0.0184582793788417,-0.0846280603412503
"nervous",0.124187526032233,-0.0425146723934806,-0.00170301877497052,-0.0337004638637326,0.0268981549568233,0.0211684494570053,0.0500889251908588,0.00974250906341533,0.0773133116057959,0.00445118377107554,-0.0725838396712322,-0.0725957502211442,0.00108497302349362,-0.033813238654908,-0.0440404806503566
"call",-0.00418917005902023,-0.0118153811159336,-0.0175431664309084,-0.0235745472705675,0.0608666310961556,0.0846944703114448,0.00809915070440626,0.0523453378981483,0.0947561416374026,-0.00859837271458818,-0.0724697537852546,0.0444523780296971,0.0347721446188485,-0.0738637416806194,-0.0348801205969314
"begin",0.0421132213076223,-0.0313152167243043,-0.00818564580274161,0.0264957718373124,0.00610949968695031,-0.0252662285548872,0.0356687010422506,0.0194351832031296,0.0283963563108006,-0.036343153186973,0.0427242445598049,0.0302238071939851,-0.00743798062205886,0.0341555052282916,0.0586988379931568
"busy",-0.0299367956361185,0.09434141561227,-0.00979756944844001,-0.0205429808276751,0.0623283401620297,0.00791417296837911,-0.0335601343950129,0.00668883074858098,-0.022642111523356,-0.0233239764943624,-0.00876843592042381,0.00261230356161404,0.0268495674649814,0.0517903394847236,-0.0560256913112947
"start",0.0287335496664912,0.00483241531336692,0.0309020921938133,-0.00408314179314589,0.0490061293973858,0.0328481625215052,0.0368192953190613,0.0215021479859709,0.0165711063554604,0.00313330371781747,0.0204004616196891,-0.0303436935314197,-0.0206918032043077,0.0643721919673528,0.0655874080211758
"fun",-0.0287770092940272,0.0940355405281057,0.0105880552359366,0.0112664608450717,-0.044594682001185,-0.018625308215799,0.0623611549285216,0.0462989381651245,-0.0131649090598851,-0.0281806643230835,0.0657907215022127,0.0278667901573611,-0.0391656383089996,-0.0245703849795439,-0.0188266101573749
"conversation",-0.0418172339818228,0.087511238080115,-0.0312888880103847,-0.0029693549845356,0.0081820844357212,0.0164017017573867,0.036326587165938,-0.000232647306083563,0.0247580343454483,0.0117801295055031,0.0299171450012579,0.040079161116938,-0.00177247903377872,-0.0640790243776097,-0.0275351337346054
"friend",0.00615362042536724,0.121785731564143,-0.00708795851087048,-0.0209308992874045,-0.0466242529109582,0.0427463981278165,0.04846284134955,-0.0252238150119829,0.0483700565888307,0.0826972542945185,-0.0420276482944011,-0.0267497776242938,0.0661743567863673,-0.139084800559631,0.0736176053445161
"weekend",0.0130076482773566,0.156445285273151,0.0242817730015266,-0.0579466506712312,0.0129462759976498,-0.0148798993089254,-0.0282254106662423,-0.0261380208946716,-0.0438127014006697,-0.000969006233915998,-0.00393754041234847,-0.0477213348607866,-0.00629816955355618,0.0330045297012996,0.011324643327051
"stay",-0.0218367673113807,0.0180917735823335,0.0339418864170177,0.0316404013286598,-0.0389046839109702,-0.00784652915033012,0.0016094158067845,-0.0167726065829399,0.0209013501165118,-0.0215243155298608,0.011085703103457,0.0474666049326194,0.0867870512584581,0.0398310987477436,0.0653446688919668
"excite",-0.0159495248859973,0.0749141682221343,0.00171124578238088,-0.000574097979340192,-0.00638733653187484,-0.0181262918041833,0.120875849057948,0.0296091286950764,-0.019061320683778,0.0114252311600431,0.00657057428972477,-0.115767694368466,0.00722668827806695,-0.0195157363353182,-0.00232403884218716
"schedule",-0.00429985437020451,0.0326565055809781,0.0536980415592198,0.0178873669079125,0.00818166720498763,0.0444711402225093,0.0545718328423387,-0.0383574471886679,-0.0072746100444335,-0.0129356741057844,-0.0610739309141994,-0.0205298832955301,0.0793570711550816,0.0127087644593627,-0.0730046381746323
"office",-0.0166058262975858,0.016868505379626,-0.00168996456538517,-0.00378647184321023,0.0708791591273061,-0.0197780277561971,0.0445719598480011,0.00882937102611759,0.0236838060925105,-0.0439281398754944,-0.0327136685167143,0.0314524699945063,-0.00656475750974256,0.0344459913975583,-0.109246660928769
"breakfast",0.00565405787118482,-0.0286982319154575,0.0258880296190712,0.185835679021235,0.00628734728244928,-0.0111148753240287,-0.0146911347099081,-0.0127521564671312,0.00954971574120739,-0.0391031998584194,0.0132279387121673,-0.0159502047988415,-0.0283279077502232,0.0204411546562113,0.0236080580386435
"hope",0.0334206514640323,0.0273707261226416,0.021541053476627,-0.00324031673124008,0.0188467466066777,0.0228846596477125,0.0140475688184955,-0.0470118680955474,0.0197003020621809,-0.0218399082413829,0.0152207679595675,0.0294479983490003,-0.0456191380589443,-0.0366212214879657,-0.0241416894633936
"show",-0.000887072505981608,-0.0165546416397647,0.0186954354176217,0.02227393134739,-0.00911219950252193,-0.0186603400917979,0.0233876030764003,0.181801366370658,0.0624874980919496,-0.00906788320434264,-0.028156512856415,-0.0188273993081242,0.0464904458038035,0.0114167033505735,-0.0802714200544056
"hallway",0.0223059418965982,-0.000525473508380691,-0.0246548134637443,0.0434174900337358,0.0630332576892764,-0.0167923641995856,0.0557915291454813,-0.0183063133692703,-0.0361415814871865,0.050882234452776,-0.049075006911597,-0.0639156881950418,0.0516600023543565,-0.0498972477621261,0.0442743870730488
"stress",0.0918046257386797,0.0922822877245914,-0.0047892358859819,0.00571535757419747,-0.0316777815324052,0.00840869048606413,-0.0838774492946515,-0.0227585541149352,0.0236455964168192,-0.0335318483767131,-0.0575222864526976,0.0299424884834608,0.00479821166488441,0.0426329616782852,-0.0287788445884656
"meet",-0.0189550721208906,0.0463880258730292,-0.0193375921378889,-0.00797875453488,0.0655559521193259,0.00801295051263383,0.161580009696574,-0.037816853427481,-0.0408809175304249,0.00283783521571329,-0.0205477916132341,-0.058731326498321,-0.0230822183858141,-0.00731508517312356,-0.0274275770080038
"information",0.0102500206558365,-0.0202511990819955,-0.0048379906140843,-0.00334137118826443,-0.000352938677910379,-0.0263974308046379,0.0534300843435109,-0.033129079930479,0.0366555253657735,-0.00420907576849455,0.0723260532407047,-0.0060362933767237,-0.0245159838200527,0.0427863552293445,-0.0435303911618125
"great",0.0323120560018654,0.0752949266870032,-0.00583929203778051,0.0175599426367212,-0.0627691632070577,-0.00990643023691754,0.00911532781655686,0.0495201218446372,0.0560450072676161,-0.0389377759851908,-0.0228412201490233,0.0314513722048713,-0.0100789792754741,0.00855968921213373,-0.0205136089119909
"research",-0.0314573120730576,0.00361452328484318,0.0249790512737803,-0.0260039915450103,0.019862467642622,0.0226770884178323,0.0877754981301346,-0.0499353871860558,-0.00589854744153669,0.0675880264829379,0.0224014748058623,-0.0567022755589877,-0.00171487290274179,0.0514919556466727,-0.0212523481523182
"read",-0.00483414819303739,-0.0791336286693202,-0.0177321398547516,-0.00706038911848301,0.0159754641455724,-0.0262596435328388,-0.0479479593900666,-0.0365768831242,0.174642941253864,0.0602929666833215,0.119290567934329,-0.0879257597407051,-0.0443894305666783,0.158436193126911,0.0332325085015248
"due",0.0383442029157597,0.00703104616726234,0.00787449361812088,-0.0152784944413402,-0.0501362517476195,0.00189549525512179,-0.0115837873572298,0.0198476327323733,0.0171014820022192,0.135041097807345,-0.0686225927473328,0.00183462053928585,0.022355803131558,0.0938420373083129,-0.0134451530199933
"anxious",0.0940560686531946,-0.0351879835726866,0.0114325334689106,-0.0221685543759315,0.0180844168319205,-0.00927532724101305,0.00439374039002045,0.00401127315387892,0.0975920521354711,0.00613654785990528,-0.0796776511445654,-0.0382236416809882,0.00559824868600903,-0.00653875797343046,-0.0269885188377774
"left",0.00475016923621292,-0.0213248221208511,-0.00285952555387858,-0.0154628616821582,0.125138734844421,0.0184599918987334,0.0130159100235567,-0.0389203912383717,-0.0234007174608029,0.0294001834651579,-0.0502054693435367,-0.0459480661647155,0.0385112736087349,-0.00603458328399837,0.0870667362394945
"student",-0.0119964724540415,-0.0592443807653973,0.0119261228288948,0.0315184139882739,0.00627226363090435,-0.0108027289735287,0.156915586729783,-0.0120127130872621,0.0153434133990244,0.00107561326627386,-0.00459059403796091,0.00875670259927828,0.0453853901621262,0.0243903467311424,-0.0442261321208563
"relieve",0.0419472443109589,0.0223188897762261,-0.0146994497635545,-0.0214184997164492,0.0407706074223851,0.0351816592233333,0.000312903547088942,0.0689487912031633,-0.0464435562791279,0.0263578956839512,-0.0317675517714888,0.0252301204440704,-0.0203414050967878,-0.0376478264796788,-0.0138081634117308
"email",-0.0248158216703116,0.00182532427081997,-0.0360791099492757,-0.0127044175115262,0.0732278209026101,-0.00258820418547422,-0.00172197032440102,0.00402528207044895,0.0354094977498755,-0.0306474336868711,-0.046770934713656,-0.0517354901953103,0.0671384502416159,0.122904345171251,-0.0790859269309453
"leave",-0.0249972509284207,-0.0300337456985491,0.0211599543044116,-0.00582819129065771,0.0873294042279165,-0.0213874432391381,0.0388405325679334,-0.0243541822741568,-0.0397722831734313,0.00753775872607333,-0.0119124371560528,0.00848285121022385,0.0226746897078958,0.0025320948582073,0.0993420261779809
"today",-0.0154105372877645,0.0384338890255083,0.0180615622873265,0.0272324186537946,0.0796974406976928,0.033086860651637,-0.00277199099394708,-0.00540258415405476,-0.0542026023259307,0.0311236928560258,0.0382274865123166,0.0288455564127839,-0.00446316376539075,0.0528215250371405,-0.0350124037901649
"final",0.109674391901159,0.0198769891145159,-0.0113351864901844,-0.0232307166826241,-0.0353475041730112,-0.0278792258094197,0.0612349040397399,0.0325461668726715,-0.0270102414585963,0.0104039487637117,-0.10064089387171,-0.069509377183111,0.017753231743415,0.0392146818722768,0.0377123627006146
"desk",-0.01580285450579,-0.0115001133344989,0.0135911512692832,-0.0245746362793885,0.0191262851320908,0.00375143288402001,-0.0246165358861209,-0.00442158446369821,0.0931064529083485,-0.00688861828517871,-0.0285855842745842,-0.0561659640015106,0.0236747191620232,0.0959937842967187,-0.0209828117419336
"lab",-0.0352056047568456,0.0684610519533527,0.0440572043577672,0.0109471179865417,0.0891335811317681,-0.0281604430399856,0.0187126392256448,-0.0331661605121886,-0.0905943310768964,0.0174123854342551,0.0375505094923549,0.0435548604337143,-0.0926330711074884,0.0522635643553017,-0.0920089612401743
"computer",-0.0114588224212939,0.0323074514718137,-0.0318994706365105,-0.0339148327500044,0.00902867036399546,0.00412342930238468,-0.0112563902483923,-0.00495795564399051,-0.0226765311611662,0.0341454274558306,0.00126967803712316,-0.0367454643503498,0.0596215566797366,0.119240718344721,0.00249157544835456
"phone",-0.0215959965322211,-0.00748872895591952,-0.0211077236863973,-0.0464748612907489,0.0881889195246275,0.0378282008801156,-0.0587641992840248,0.0805305101807191,0.0819628862068853,0.0330357499680145,-0.0196831339011929,0.00803565407115945,0.0571926663611745,-0.0399631215655103,-0.0233061914674061
"deal",-0.0174905428577807,0.00874596245047725,0.0207807135208847,-0.0319219856444796,-0.006164173006332,-0.00588526106183763,0.0276105092398878,0.0314188224727574,0.0602824585786233,-0.000134757216866656,-0.0325071860182103,0.0454094726627301,-0.00983777463952858,0.0223623802330798,-0.0330374135317142
"close",0.00419694940136691,0.0644746920082656,-0.000330866782533381,-0.00871189709488591,-0.0110563297268156,0.00223474344012835,-0.0359769787369428,0.00338386482788569,0.0877525415857864,0.0198263332988903,-0.0575501239808548,0.0322399851949291,0.0759065863529119,-0.0407634216044174,0.00152370821155561
"book",-0.00829648743393119,-0.0376556787200928,-0.0284759047885768,0.0227815674250517,-0.00246449329076839,0.000157250405455845,-0.0333552295218028,-0.0351542447487144,0.120806412331731,0.0194140585141571,0.0384634882526652,-0.0450620322747985,0.00863386388530268,0.0934592890673171,0.0540364143461857
"laptop",-0.0300918584954924,-0.0445246470935121,0.00312469846274336,-0.034061292996351,0.0206847600867688,0.00503939532422688,-0.000632821431815815,-0.00465749430112158,0.0452875095226409,0.149284985975076,-0.00429023578762128,-0.0610467215362953,0.0426194952574655,0.018010362411996,0.0293544394731077
"paper",0.00631707065491723,-0.0334676865891419,-0.034170975595298,-0.026404279442483,-0.0229809123847794,-0.0174200534183739,0.0473296575617378,-0.00780725087838392,0.00315431588489438,0.0527362488659792,0.0256700400731253,-0.046303742418921,-0.039477109310043,0.159555846854651,0.0257680415409662
"room",0.0504374805474824,-0.0193865938347407,0.0168621797454925,-0.0423219064379858,0.0347847209915612,-0.0374224175342011,-0.00734544080559682,0.0477516870660145,-0.0107490555394138,-0.0169875547024985,-0.0125916542002889,-0.0679119885263393,-0.0265351184850553,0.0380468818316611,0.193872221580432
"test",0.123884712969894,0.0118565468312537,-0.0317598111550095,-0.00403424394302724,-0.00580068268875359,-0.0342866005186707,-0.0330751039598575,0.0263749069188873,-0.0214378529400231,-0.00896605092519352,0.00383933923301808,0.0799116759580517,-0.0554705184992682,0.0132370984453076,0.00885246319235985
"morning",-0.00216905872403972,0.0404819140897121,0.110894444304388,0.0463873941884388,0.045118805974133,-0.0435322370121274,-0.0581648941886161,-0.0196079467395681,0.0073877472489922,0.0246966819025269,0.016483395803521,0.0069944932820219,-0.0301194093226774,0.0507237194852308,-0.0478629111575717
"fact",0.0433442599188235,-0.0312078839722013,0.0139614907089473,0.00765902589020484,-0.0236947269210033,-0.0192679644377466,0.0297608703619929,0.0192733889018931,0.0773112096571572,0.0166674328682309,-0.0350443036816423,0.00870828061319661,-0.0123070796494875,-0.00725949441129564,0.0179202774468945
"told",-0.0274577495184548,0.0653554965707218,-0.0112902336878497,-0.0750281719246154,0.118515348510669,0.0170933266437061,-0.000847986455530034,-0.0407167589789238,0.00939995594179465,0.00467483024006336,0.0076944454398879,0.0204889542866786,0.00339726985588931,-0.0484146084634869,0.0369626587657201
"people",-0.0336700320522991,-0.0140744511142875,-0.0184668365603946,0.0289954266087216,0.0037943573624177,-0.0230909996611931,0.0276467039389588,-0.000448176807893705,0.0966048442191099,0.151913307331856,0.0525268804563434,0.0418881355284786,-0.033335047388937,0.00843851776020929,-0.0322146445621146
"idea",-0.0035843397468226,-0.013057881609439,-0.000523666966817275,-0.0162443635263386,-0.0342802710476173,0.00541316737852166,0.11497399511071,0.0116962012659624,0.0207919827486775,-0.00919045501580261,0.0375355913597816,-0.019899511269578,-0.0182206086042431,0.0360444691639752,0.0155498537135094
"break.",-2.40140214801589e-05,0.126845481854515,-0.0234187050837185,0.0500836399579435,-0.0370142623293677,-0.00499322813912152,-0.0576113859380508,0.0138240967886067,0.000209908341542941,0.0254879631424153,0.0102017527773589,-0.0224117002500261,0.0461864731299623,0.0144359723923852,-0.0489461663101472
"eat",0.0110107729586328,-0.00755663809632276,-0.0288356438968105,0.279942151316778,-0.0260583997773433,-0.0367338859933964,0.00436192786777666,0.00652451948109687,0.00653524295242346,0.0290465807785169,0.000466837632065541,-0.021617330009143,0.00395429239126617,-0.039072234294137,-0.00268405025438873
"lunch",-0.00941539404900938,0.019394675817469,-0.0457426235908025,0.187350018188636,0.0218652859893385,0.0418179231280218,0.0247218852828028,0.0202798976180773,-0.0369307529594562,-0.00485509055035043,-0.00560130589426187,0.00540511747194144,0.0260815884855956,-0.0573697416804779,-0.00955877326123832
"wait",-0.00731540915096874,-0.0415883387562897,-0.008703277230802,0.0574927339222651,0.125548448852836,-0.0159608993832781,0.0414930949625366,-0.0118740835175984,8.19830890716485e-05,0.00840372442242215,-0.04980118020199,-0.0359032410650747,0.0274999225343295,-0.0355518328737619,-0.00518378785719038
"data",-0.0312836555046618,-0.0175422580626953,0.000445870343517268,-0.00550111688137707,0.0320626128122967,-0.0475304383665612,0.127883878514486,0.00657196342891006,-0.0504239813689451,-0.0320164222169241,0.00192105289973717,0.0361536035643357,-0.0701639349049411,0.101509677648515,-0.0400970280443188
"alone",0.0184966718063199,-0.0513373066969601,0.0126396688407742,0.0270104152351586,0.007224150927655,0.229867738624785,-0.0492585511908908,-0.0119588722186261,0.0481401681085847,-0.0167354929089779,-0.00191201050130961,-0.032620530998771,-0.0270187608040904,0.018336623361167,0.0549688932067303
"year",0.00933494720378683,0.00514725574016757,0.00139468214552474,-0.0150560226736473,-0.0506033701530515,-0.0520929348374788,0.121396141503021,-0.00128922355210364,0.103252383890066,-0.00563348223858319,-0.0105094232783402,-0.0511512996632218,-0.0213815100517867,0.0466401455450513,0.0443511928399055
"place",-0.0212733957457195,0.0173300894375085,-0.0017079151298546,0.0546003681985742,-0.047599341242369,-0.0154690215874239,0.0340094450463089,-0.0133250375670571,0.0727814913843237,-0.0184706921311764,-0.00911978623548804,0.0499295810939215,-0.00935172810535743,0.030229672335729,0.036064855169323
"interact",-0.0164624990007416,-0.0344415198538451,-0.00982464142097771,-0.00870902858376489,0.00449827317269173,0.220590459594779,0.0107725744079352,-0.0132928255844727,0.0146414830146224,-0.0052884344011256,0.0543721454934492,-0.0416136944998786,-0.00251091779250567,-0.044581983533079,-0.0047274963568716
"event",0.00926036425152404,0.00394159602418699,-0.00313284936311416,0.0188750544950303,-0.0108475659919179,0.0465200676579203,0.0195003786008206,0.00681329277202986,0.124376739470581,-0.000147649874586072,-0.0107380685864245,-0.0725676675903892,-0.00410798088864979,-0.0169424945788107,-0.0878004382766557
"remember",-0.00827459858460626,0.00472797226360605,0.00630257354677889,-0.0140836033357973,0.0209101776300667,-0.00185991730325155,0.0203819263142017,-0.00652805375374112,0.0334183895237105,0.00184482686248853,-0.0288171048060139,-0.0178706946776001,0.0411649005156436,-0.00135602365293763,0.00935276790114286
"decide",-0.01016012400917,0.0295103432449006,0.0269391841662674,0.0235460967756308,0.00847032687534085,0.0312830635231551,0.00258554161666085,0.0320636031649538,-0.0134358315376463,-0.0123592621171705,-0.0355250998301436,-0.00807971193462966,0.032093227802459,0.0283127906595783,0.0785438057896857
"hour",0.0310661727864003,-0.030413106758999,0.0423181640411436,0.0366835176260367,0.0193431414845974,-0.0374595912453539,0.0586568215130516,0.0223266530307559,0.0303168813764924,0.0216505958545246,-0.0394610369838356,-0.0173194605908272,0.0419931543385542,0.00784756601874998,-0.0342482993237084
"long",-0.0106335370255489,0.0386297730562033,0.0165401007440809,0.0371270985059599,-0.00046725452100654,-0.0260190626810041,0.0376901783982316,0.0432530997870169,-0.0243926156248283,0.024181229510433,-0.0073277587729198,0.0260041443409887,0.00229479336277856,0.0172088889117685,-0.0477591963015959
"project",-0.0211967933562362,-0.00221447217670904,-0.0255313840293544,-0.0320917470992248,-0.0201972085895472,0.0835826374490851,0.14084389212032,0.051770903329561,-0.120610679845524,-0.0275857610739538,-0.018013710159655,0.0331006877000772,-0.0241114035286769,0.0748143232933131,0.026981805676497
"issue",-0.00355010597319719,0.00247583470825692,0.018233849977103,0.00994824967098563,-0.0172154537639135,0.00565220491811522,0.040708819256049,0.0287558804185463,-0.0062874038603911,-0.0564425894120861,-0.0140440157968469,0.137763657479237,-0.0279686920446952,0.019475392834707,0.00157242909271804
"speak",0.0228695660687552,-0.0174048815481361,-0.00668338550939867,0.00114296924602816,-0.00431476529995114,0.0109877660602305,0.0256438408181592,0.0069968925677602,0.094963440364206,-0.0388791312759655,-0.0290636844769713,0.019489139836553,0.00673782148816063,-0.0221085319556215,0.0115427746685733
"continue",-0.0160547095503687,0.0143105551086159,-0.00975020829724215,0.0018926436633355,0.01532739709764,0.0430570193115241,-0.0520179279562253,0.0624191801464442,0.0397544330257199,-0.0217199632567623,0.0406755583504842,0.0272815273042025,0.0117630198191323,0.0217942684857937,-0.0178887040616188
"week",0.0329588809863321,0.123282515670357,0.0119878267137849,-0.0472264505926873,0.0341641557419909,-0.0153550808213131,-0.00161513918463948,-0.0173824792444287,-0.0333680094348035,0.00747182803354154,-0.00374087310692621,-0.0218056234692895,0.00829671028676645,0.0560940542415664,-0.0339645448803524
"annoy",-0.0380401737058723,-0.0204025168132733,0.0171096511730886,-0.0204752215279062,0.0386519391288681,-0.0692724972264684,0.0119665585613742,6.97979974848667e-05,-0.0323208953409049,0.0185003454699626,-0.00624458521236536,0.192476697005685,-0.0237215656511124,-0.00173278697645192,0.0501391248799073
"note",0.0597847029446461,-0.0329336816938554,-0.00570083155841265,0.00360710541326993,-0.00110189736198739,-0.0322735457043929,-0.0211487420591065,-0.0285401844555274,0.0161035374500122,-0.0174694592423382,0.104601386421286,-0.0284562695333088,0.0297998331581634,0.0810130369898844,0.0352368085355623
"rest",0.0117969903033061,-0.0162710827756108,0.115898657865652,-0.0098711670554588,-0.00695129150153313,-0.0361902966717506,0.0171627226348125,0.0164528397005473,0.0196531358547889,-0.0268927708845868,0.0271296902970958,-0.0141087456781788,-0.0295239417895902,0.025149597095628,0.0232450705266721
"stop",-0.0183400174168131,0.00164939718033989,-0.0063155501989404,-0.0311683614909841,0.113557892367983,0.000151108028162459,-0.0355891644643126,-0.0041957379196753,-0.015601214429957,0.0154742306549341,0.0282810603498974,0.0544080405936227,-0.00994154133631585,-0.0168519830436445,0.073683557825826
"understand",0.0413038468415215,0.00163387868123994,-0.017561480832203,0.0162143846931582,-0.0507669418543806,-0.00805336974661681,-0.0291754068006345,-0.0104337460585629,-0.00831166498562461,0.000755291862791376,0.0606400247216965,0.172416566443509,-0.00170582757312314,-0.0225169277686725,0.0437992608274704
"early",0.0126574684150906,-0.00911750695204519,0.0945391993774547,0.0212145861608757,0.101570311153359,-0.00367438417443681,-0.0239192716227895,0.013419706078895,-0.00176437388936274,-0.0192795260034177,0.0063669131446611,-0.0172236265494559,0.000584121802259645,0.00312136621079987,-0.0408569107860682
"worry",0.0506394718710384,0.0642022593378251,0.0120539874739768,-0.0269386749654292,0.00556145112055277,0.0366098667719073,-0.0353278472456613,-0.0298933153024261,-0.0146703546183136,-0.0243715710481487,-0.0335325537023002,0.0269891385277603,0.00144619210395684,0.00940320872031116,-0.00235080027332752
"minute",0.0257879900235845,-0.0524937572715433,0.00710217517944094,0.0102316094667862,0.125222862232516,-0.0118502445282695,-0.013801357212061,0.047524770446644,0.0203185909335978,-0.0109941067116329,0.0105627945883659,0.00923689766419955,0.0044136127319234,-0.00065453369861018,-0.000283613255217306
"consider",0.00560049061125915,-0.025706760330196,-0.00397675815355801,0.031359215282419,-0.014280419655118,-0.037684897929716,0.0619417457479753,0.0338768259212218,0.0179413644809908,-0.00538727033159005,-0.0125497850776875,0.00764155561501832,0.0881949498015216,0.0185445874614485,0.0628488901870472
"turn",0.0101930627225179,-0.00843075764551258,0.00104763503132214,-0.00512633119420868,0.0409430881917232,0.0198660230121703,-0.00905109047356007,0.046679098376038,0.0426779451336307,-0.00572270848933959,-0.041611733152197,0.0213090082134008,0.0376710819797518,0.00395122605294961,0.0082200383326853
"mind",-0.0038370370568434,-0.00354810180327196,-0.0178242300456279,-0.000114546519787115,0.00252180124457379,0.223598468445392,-0.022815434224098,0.00753746705061362,0.00673812815309862,-0.0332686399387275,0.0173740239193048,0.0237694766274351,0.0155420975486266,0.00187865871477386,0.0203235993411918
"expect",0.000629182410071674,-0.00758435269155984,-0.00399365421862695,0.00269054516138976,0.0192467589259842,-0.0172792490262525,-0.0154169883020891,-0.0177606065066454,0.0516100182136602,0.181031947625827,0.0158677133757004,-0.00719773352980436,-0.0261244551031557,-0.0153304669256207,-0.0634961832107833
"talk",-0.0256120250920562,0.107178029284166,-0.0310206639350299,-0.0348875414269703,0.0208879805987267,0.0164985860134153,0.0465766591442769,-0.0323444427364161,0.0382284820735126,0.0585064165013293,0.0804165591845134,0.0166753706448418,-0.0096558665554149,-0.153273658123884,0.00824254900313285
"play",-0.00503410865285113,-0.00724116873262134,-0.0368347270263643,-0.0708349829049895,0.0243634277942058,-0.00164856310055278,0.0458253548932769,0.216582266480053,-0.088815915874149,0.0422510527219934,-0.0132587807483917,0.00931213225446171,0.0164572070566658,-0.0164726879082643,0.0967335731140296
"end",0.0216980345693489,-0.00830801098444578,0.0193673356447398,0.0154187323089541,0.0160491300819002,-0.0179306330777538,0.0488195205249683,0.0313603629323548,0.0091912415323492,-0.00700694004849927,-0.00916512064440408,0.0291650329707891,0.0290823187686699,-0.00425218808612121,0.00397679508144181
"text",-0.0146926659843861,0.0418112759300788,0.0450401515947848,-0.0621478525916445,0.0182478764753861,-0.0265876220079211,-0.0150845642480287,-0.00293090678556257,0.0502414070786019,0.0348457657721204,-0.0165776544450889,-0.022400187775927,0.0526976098170375,-0.0256807861788864,0.0476733377245773
"nice",0.00478672701479526,0.0969015868633178,-0.046566077254358,0.0313226332412891,0.0360757104605516,-0.0322038152600606,-0.00347042315103406,-0.000636036657198303,0.0154939925853106,-0.0203083621537423,0.0359580263541203,-0.0447859615213317,-0.0319290157675309,0.0349937566088824,0.0139301245659144
"tire",-0.0122393877423608,-0.0168559185817326,0.201243610863429,-0.00916291403379267,-0.0437885835970103,-0.026241090039052,-0.0179652031685047,0.00681917659301188,-0.0116055827567674,-0.0103341868697771,0.0114739268045952,0.00734659995483897,0.00857722266144478,-0.00183647430216041,-0.0236673786184311
"focus",-0.00693000440667153,0.0212242779122625,-0.0142081532372586,0.0283723985940882,-0.0421778991153997,0.0423300157866232,-0.0297236165422835,-0.0222358445803616,-0.033328975884758,0.0259887782806897,0.110029147598755,0.0343018461604116,-0.000855926411788254,0.109365806664887,0.0160192250076372
"write",0.0373148938572742,-0.0440061276183891,-0.0269872705044905,-0.0206532681738982,-0.0287619134223692,-0.0496596449020151,0.0215701141045683,-0.00148536964285583,0.040302773939046,0.0209851766239186,0.00951486119123965,-0.0244898599365307,0.00701073850342432,0.16489422511727,0.0231637871726091
"interview",0.0171946542400967,0.00778219873495793,-0.0115699255311449,-0.0267378739146118,0.0337180824705246,0.152009784370559,0.00691763968245212,-0.0205541812446876,0.067035694124466,-0.0216681062724781,0.00575632458456223,-0.0464989195423721,-0.00531387931902362,-0.0487620739152191,-0.065882385986568
"news",-0.00566645867910862,-0.0255447310354699,-0.0178869134812945,-0.0178713335232024,0.0651756338063418,0.0313234317034722,-0.0525431125527174,0.0263404878513125,0.0691291553634217,0.0243243899493664,0.0390363686092088,-0.0247971690932839,-0.0313661198671337,0.0167928232187869,-0.0322328318733624
"hear",-0.0331688181053425,0.077910325202006,-0.0149263199270197,-0.0405744992358385,0.0433147411605454,0.0152573827687708,-0.0123291225428453,-0.0354726899670811,0.0212157565652112,0.00114895766333618,0.0721393036451347,0.0312610223984178,-0.0544517789775391,-0.0325627507089664,0.00445835811361689
"interest",-0.0483355848545589,-0.00908614003198891,0.0245187149664549,-0.00117836631488183,-0.0319078714478404,0.00914021181573323,0.0972145928760413,0.00969434549805639,0.0406745408070568,-0.0126322944499976,0.171222919333706,-0.0262551891878881,-0.0269432025016373,0.057457303930063,-0.041239082576382
"reason",0.000698937520345448,-0.00961488652695515,0.00849515535216234,0.0217703659852617,-0.0252143716409024,0.0282332646006863,0.0145909108000932,-0.018192470236795,0.0881042286394746,0.00153252951738501,-0.0392623441220697,0.0306659200552681,0.0143666321092343,0.0128111112234881,-0.0123814786811577
"review",0.0908504642673868,-0.0633945542082822,0.00187288644588916,0.0234220134137901,0.0069510881352529,-0.0106972093803108,0.04384900446734,0.0125443609188685,0.00212755476563547,-0.019246594994738,-0.0192433974080079,-0.00302907170684222,-0.00694279254673947,0.0275596371541781,0.000691504123497491
"suppose",-0.0162020364541095,-0.0292075336690361,-0.00665089782308479,-0.0267563940835616,0.0257000667583507,-0.0198544988368801,0.0214863957192494,0.0203654354242353,-0.0170495096011595,0.249345903773509,-0.0148343021635287,0.0238694797231704,0.00352476906187261,-0.0262447672607619,-0.0389334113135899
"fall",-0.018156507417983,-0.025631261098822,0.110798029785862,-0.0336988318618867,-0.0415679678095619,0.00696862326614883,0.0853742631557755,-0.022459504417033,0.0267707193748338,-0.0122705654268949,-0.0156771113604043,-0.0313688740995216,0.0446233453850225,-0.0196832196012479,0.0432656313847527
"ready",0.0278056068685055,-0.00916701557545684,0.0517163541739786,0.0261462722435733,0.0482391177502947,-0.0405321680677298,0.0116922506304922,0.00596385940825649,-0.0393922750826858,-0.0502562960693373,0.0152337087185765,-0.00458000309487236,-0.0700274333637945,0.0483241301758574,0.0389264713612982
"semester",0.0580734078468151,0.00672965851202076,-0.0156722076519474,-0.00558746242672968,-0.00305170138110049,0.0135809709491119,0.132264117044281,-0.00525017336616453,0.0068724347386463,-0.0110146082720178,-0.0573298876155989,-0.0750106976475173,0.0822818007658793,-0.028460731603565,0.0280422499370255
"arrive",-0.0148397091793555,-0.0277748972338682,-0.0197366984615646,0.0220838320039227,0.172079818705943,0.00110896866573195,-0.0268767014133393,-0.0163412585497102,-0.00615364755103249,-0.0107362668506106,0.0112410831278026,-0.0138454576724095,-0.0228556977410948,0.000884179102211723,0.0044822967836082
"person",0.00957496637142758,-0.0331593553639724,0.000332642478523503,-0.0262145463595161,0.0204886886052075,-0.0103150073297826,0.0122743732946393,0.00900679058927245,0.117615655915238,0.0147182157813095,-0.00632918865089689,0.0373892023684616,-0.0272936778195313,-0.00641254502143161,-0.0127668852366118
"order",-0.00223982593757338,0.0199248296532667,-0.0274733757784388,0.0845819376385207,0.0117548789445966,-0.0102861471594918,-0.033745975601154,-0.0132239034333596,0.00477615581235069,-0.0210087004644184,-0.0363523143912597,0.052279553940198,0.033054745102898,0.0374015684705199,-0.00740054613443663
"finish",0.0263530287169734,-0.0171637760167386,0.0140568834519749,0.0537939498749937,0.00168794736324395,0.0202481060459614,0.0307863328492654,0.0838533384410484,-0.0694144619300123,0.133767870713972,-0.0106689555533487,-0.0244917901331848,-0.0145681344761778,0.0184872043408589,-0.0200504475928503
"outside",-0.00641302476616378,-0.00898767340142429,-0.017444565906265,0.000252434859186295,0.116164544504991,0.0280482651976215,-0.0142274257894408,-0.0129183556183184,0.0126741141567205,0.0155093231861171,0.02389240264131,-0.0385556433137531,0.0239242227919753,-0.0218626911797148,0.0179776074384577
"table",-0.0159311275594699,-0.039806704716544,-0.0263404216503349,0.027181659958645,0.00205640082707316,-0.0457628353455577,-0.00518643978213126,0.00335373985346874,-0.00932952955024549,0.274471539284408,0.0316166453632014,-0.0242666772299268,-0.0118953029696505,0.0184263688690396,0.00301452170308591
"experience",-0.0178935592006515,0.032484664795858,0.0167979683580799,0.0264093344852803,-0.033228031912764,-0.0131742851948074,0.0763805722296142,-0.00807927304033984,0.0330315815384815,-0.0254816719686416,0.0406154872981593,0.0285904843707824,-0.0405071443036479,-0.000154889785173017,-0.0359849849411682
"live",-0.00985140202896681,0.035875970094221,-0.0188215494423034,0.0187337202456609,-0.0393324794275543,0.0068472094393899,-0.00385085917005015,-0.0344914829708636,0.10465501961267,-0.00833722702475109,0.0403970361541462,-0.00670182535156616,-0.0203782892773516,-0.0103804962722795,0.115378203773263
"open",-0.0020623399879245,-0.0395912613798635,0.0061623072406847,-0.0333543023903281,0.0569099847517389,0.00891937379131039,-0.00503898998218861,-0.0159144211896563,0.0957026627660958,0.0204968635583661,0.00301065120992507,-0.0425508493506084,0.0116014240338797,0.0145152313825899,0.051825941018993
"school",0.00289798086107881,0.0482460929131348,0.00407723623531667,0.0440550878957868,-0.0606290218322519,-0.044652071738046,0.0381036617530634,0.031698810735264,0.0457691345683897,-0.034652185314682,0.00487347136387008,-0.0227531900952762,0.0204577994782114,0.0400479344701481,-0.00487281163796539
"quick",0.027687666965222,0.0214146056051911,0.00525893534125906,-0.0279017451075598,0.0869938846677321,-0.0129910400879388,-0.0485445526804316,-0.0331202809935379,-0.00316414420246779,0.0138477291860561,-0.00429246026991022,0.00138591027655561,-0.00985643748880153,-0.00697671238014256,0.0264125804816728
"stuff",-0.00351626950564816,-0.00924845699840718,-0.00793535550029855,-0.00905779846322784,0.00925229679163922,0.0125229943753349,0.0308492461938754,-0.0241349122086371,-0.0315111435909071,0.00790776372287659,-0.00998019087072224,-0.00103368020484484,0.00343127440037644,0.0126327547568705,0.0968610743966719
"explain",0.0223765531428649,-0.00377410668220518,-0.0357040453414029,0.0137086647167842,0.0181039985292425,0.00232208857920018,0.0260521912902763,0.047456120119603,0.00501287380290632,-0.0224000809252677,0.0172549225343815,0.127573304739397,-0.00989606950585973,-0.0662072409014563,-0.0227552918956119
"apartment",-0.0250662308725777,-0.00476144705739901,-0.0156992168111837,0.0164499946918515,0.0202238030142461,-0.0113327797745488,-0.0455824031624342,-0.056766128208838,0.0299692199590791,-0.0130507128653122,0.0511071421154279,0.0322626145596726,-0.0247022616105392,0.0314434041536362,0.212084775135099
"productive",-0.0153807458092631,0.0204734384716388,0.0344293913680722,-0.0154515006385379,-0.0473414509534648,-0.0248570459730875,-0.0112017884979796,-0.0149333223480711,0.00669565537618454,0.00550628005998771,0.0328955781897845,-0.0213899779326453,-0.0185100603404392,0.1435312412066,0.0323666301293233
"together",0.00329881613067079,0.105108583684876,-0.0256880393147542,0.00600403397340778,-0.0381556123513106,-0.0248001411271679,0.0600390797329019,-0.0345511900125685,-0.0180296717697934,-0.0111673594222486,-0.0306867761206927,0.0110218228227056,0.0182094977272181,-0.0277341711628418,0.0286823732636545
"realize",0.00802830240617827,0.0194470065803442,0.0198575960739581,-0.0201277838916035,0.0304457267284401,-0.0115023351547968,-0.0138466231737723,-0.0253614331016908,-0.00035769368635099,-0.00595192260775597,-0.0379652156906953,0.0388723926399074,0.0485032401973173,0.0433028497849013,0.0585329956142066
"care",-0.0187649163160771,0.0286483161163196,-0.0163362071035427,-0.0199178705336125,0.0254002299966356,0.0138153212894179,-0.0423082567863688,-0.0142275394097626,0.0224977369163427,-0.013809442547296,0.0239654641584274,0.0528673066895795,0.0208727405648181,0.0235851140009083,0.0767739521186849
"walk",0.0351415616179143,-0.0124157328057577,-0.0211144149894061,0.0055890263960388,0.176974413803546,-0.0112236752764649,-0.0423656759897497,-0.0303440369108158,-0.00665288085859788,-0.00756114461910105,-0.0409712143336499,-0.0474390521416171,-0.00527305859226778,-0.0388181678262003,0.0439007187066173
"group",-0.00230105910107342,0.000570130902346169,-0.00659740569297751,-0.0213368221856302,-0.0221094143905449,-0.0205102731008494,0.138646044281389,0.0070796747284239,-0.0287170171397996,0.0213908182737663,0.00818715552783928,0.0100787999729784,-0.0150026485880542,-0.0260353652265177,0.0469622586068435
"surprise",0.0138307127704636,0.0329509699878737,-0.0175348036825277,-0.0432665253174883,0.0390588411202795,0.00820016314119921,-0.0369005612667138,-0.0109531801121497,0.0935424530853006,0.0111179182535602,-0.00517082639586192,-0.0235456066338466,0.0195222295464337,-0.0249895000315989,0.00132765301061692
"easy",0.050356163861197,0.00707149324832008,-0.0311540543763312,0.0270394302326968,-0.0190378620556261,0.00358423572340817,-0.016937019475335,0.0195715911960921,0.0316423507171961,-0.0301958349586654,-0.0118204872548544,0.0154609313696327,0.00611906143204149,0.0811438930891016,-0.00109044035020825
"class",0.119060447788676,-0.0367992702991332,0.0407797974663899,-0.0173801452269219,0.018212082132834,-0.0388439340468176,0.0388546758990658,0.0127841660834132,-0.0142907899948584,0.0108347882571416,0.0767332493742969,-0.0783034809483352,0.105639684304171,-0.0561262828789999,0.0146027103823527
"funny",-0.0234294053302161,0.0597497542458374,0.00426006744521356,-0.0115397949466871,0.0245106932054751,-0.011481605070344,-0.0687368037467689,0.0663489596494746,0.0432634254945675,-0.0243601793584578,0.0874106835773016,0.0329752719817085,-0.0516006581679904,-0.0150614053368477,-0.0338465037781155
"house",0.00233414393511418,-0.0123503358614541,0.00283141541210473,0.0204610563059077,0.00540709196805052,0.04690539553636,0.0242043701981413,-0.0174837882816786,0.00262027038993454,-0.0426326021189886,-0.0289694373395737,0.0422139680728801,0.00353457603075098,-0.0493348652273514,0.142480154965217
"spend",-0.00323621891367062,0.118668074090561,-0.0134471572182095,0.0238727464091196,-0.0457539325679371,0.00146552352075473,-0.0185307670591307,-0.0224614796194302,0.000429015444949955,-0.0360021217193853,0.00230622870020702,0.0173651792533194,0.0250759619870563,0.0415410104798707,0.0291830237394965
"life",-0.00383936342348598,0.0535656501248726,-0.00514462542571843,0.0287110076998368,-0.0878088300791074,0.0107194345143407,0.00808360210360512,-0.00565838468065454,0.106827407554216,-0.0105874718413414,0.0296841954354782,0.0457452163597184,-0.0253829799315042,-0.0137530145364657,0.0212303288071237
"fill",0.0066607166174943,-0.00895500670402527,-0.0172162861987715,0.0418836289580569,0.0217186726175745,0.0187299022885849,0.032331735526192,0.0256436987063832,0.015371824433061,-0.00669714751228819,-0.00365530357551155,-0.0191016898616959,0.069018325880228,-0.0379462027082495,-0.0322814356744046
"chat",-0.000167765049820769,0.0974800001270932,-0.00167887630477517,0.00610631766922333,-0.0130759336220071,-0.034968179444645,-0.0117335051134645,-0.0170826044679332,0.0065024056246998,0.00990573438037081,-0.00455152888415485,0.000630132204815114,0.00171022002708936,-0.0361685165244907,-0.00913207223790573
"hard",0.0362411580739061,0.0496477524778229,0.0163064581133118,-0.000455694936169033,-0.0371633307203308,0.00918899246622231,-0.0606673461411582,0.00173548166210296,0.00949347769865564,-0.00846200777461355,0.0198054741231917,0.077647611113412,0.0383024268134352,0.0356281704826232,0.0247655824605863
"lecture",0.00810543521519163,-0.0384684740234385,0.024840357965568,0.0156661420571164,0.00796637427409683,0.00124732827918243,0.0408477178563774,-0.0295167326219741,-0.0345123272705829,0.0118759179704249,0.171038202915621,-0.0172202616219412,0.116653023493865,-0.0171593712076806,0.00721478088966476
"night",0.00457218760282032,0.05193326164719,0.153127277297208,-0.0177211828557517,-0.0311586399253084,0.0135627747847177,0.0206545894460433,-0.0135265648040247,-0.0360259689492161,0.0069326007716152,0.00265900480956514,0.051937203400063,0.00392656937050591,-0.0486826042165117,0.0222462312895228
"video",-0.00933797463053606,-0.0259645754009099,0.00234438042348017,0.00167793541028151,-0.0316362000438138,0.0191511755716151,-0.00223946461851824,0.22872669082941,-0.0155264232493052,-0.00869735382855295,0.0111986813756356,0.0190358240332078,0.00390422590087798,-0.00637269639434931,-0.0215673374258491
"sad",-0.00646682643761984,0.0232410672412091,0.00411447770822326,-0.0280111360864386,-0.0496227268845813,-0.00191402404329942,-0.0459459922527756,-0.000545567625385663,0.112791275099861,0.129522574392532,0.00672145821573018,0.000979476346933164,-0.00343820476935621,-0.02952499146143,-0.0116734318838457
"past",0.00277364623535548,0.0343704534290182,0.0297697958721671,0.0148032580471347,-0.00596370940335248,-0.0147835522950718,0.0262962547103146,-0.0171935742756306,0.07352377786309,-0.0316055747512188,-0.0192725109214427,-0.0196282617307572,0.0204981677420921,0.020604430005542,-0.05873799717001
"clean",-0.0142869947963573,-0.051797710837097,-0.00189325625338041,0.0483399028883193,0.00814278113414292,-0.036602675881744,-0.0187379310417328,0.0234071362667204,0.00190706617861594,-0.0287043670932725,0.00306090553716939,0.0553688397742321,-0.0251768278526911,0.0577343866429343,0.138708896913951
"content",-0.00934414187002901,0.0172362314793124,0.0112669729251603,0.0229808075069447,-0.0174784406754918,0.0142778472803748,-0.015689450439327,0.00224986057389701,-5.99481681818897e-05,-0.0139900756615577,0.102641386899865,-0.0257256382667346,0.00756733515224778,0.0111505097482186,0.0184657774826847
"emotion",0.0133962678163814,0.00913730170274591,-0.00968935216508113,0.00142451774229279,-0.0143235966148705,0.18250125376361,-0.0206420551526276,0.0521635478177379,0.0315769283628814,-0.0369045881129988,0.0223656087385936,0.0142935168593472,0.00632108831795989,-0.0407589164140567,-0.00818727536713391
"mood",0.0132042350492741,0.111997053243319,0.00964836490950077,-0.000446802706143641,0.0355828234254874,0.00442835605008605,-0.0448534777939928,0.00903263642384896,-0.0566644468727571,-0.0466516796385697,0.119944019341759,0.0283582797349139,-0.104121141361735,0.00496833263565476,-0.0487608543288924
"problem",0.0457077775029539,-0.000718342044895541,-0.00638221813490403,0.00572726413426929,-0.0428583655195167,0.0381698125781759,-0.0462394772658573,-0.0103862982762694,-0.0115859726866808,0.0141305395930828,-0.0116691569321406,0.168764333742747,0.0152936698474289,-0.0377543593181868,0.0448224590003677
"calm",0.0408467965337772,-0.00196929316340915,-0.0106495155807793,-0.0188928627698362,0.0208861529066416,0.0932859811185757,-0.0728485774113476,0.0393990848884651,0.0306154651638527,-0.0100689984876238,0.0374671674035144,-0.0728076570886708,-0.0569180237596302,0.0696705907170503,0.0224584302229156
"sleep",-0.0406223083952735,-0.00312327236416592,0.239601789559123,-0.00581647791566508,-0.0575513479916638,0.0364335739673087,0.0140285368963942,-0.036770230521915,-0.032332656400884,0.01761010644633,0.0381411165898353,0.0534627014839162,-0.00477107238884442,-0.0325480450322057,-0.0275788520402304
"coffee",-0.0161812259378174,0.0449621846473272,0.0337210509757813,0.0424953807201782,0.0618240493434204,-0.020837783792326,-0.0419765756231152,-0.0207997163259639,0.00769534611000984,-0.0258769365665833,0.0140324040908077,0.00889651551607273,-0.0261385010968593,0.0087735416882327,-0.0555970535405945
"couple",-0.00395197527904023,0.0725355081987853,-0.00985488331970236,0.008195506072524,-0.0114778076984905,-0.0346495773792859,-0.0105202455167655,0.00989088368586055,0.0304524829921099,-0.0207098539338294,-0.0208268956086866,-0.0375105893740764,0.0723071295745635,0.0733630443884157,-0.0262084897970527
"topic",0.0126801661000781,-0.0232665922547074,0.0179262600846358,0.018796279549168,-0.0715184470314435,-0.000866609993658833,0.119344906470187,0.00453937781823078,0.0164360103550418,0.000992075441857914,0.0986266354963406,0.0422381007256463,-0.0121757662933119,-0.0373893215462378,0.0212665411301304
"listen",-0.0490847174366376,0.015437212208765,-0.00530725240629882,-0.03945103354751,0.0410609600386239,0.0592380719369036,0.0273000609352448,-0.0225275012879563,-0.0755687183725903,0.0472794501334194,0.219055747122623,-0.0360362782838109,-0.00398149615356166,-0.0224766481046725,0.0210335659091782
"angry",-0.0192155726278408,-0.0507358603896189,0.0211916125426699,-0.00227839921186994,-0.00437200786063109,-0.0174208232279475,-0.0227558651724518,-0.00957831192743785,0.0855989262187109,0.107586823839128,-0.048842007312857,0.129404506682298,0.00820002670545415,-0.0442706004619892,0.00488386676867349
"bore",-0.0361074848670884,-0.00841583168226334,0.0276744114095119,-0.0523911473763195,0.0118798116641333,0.0601830504698146,0.0230418138415276,0.0352123866699171,-0.0707168717309425,0.0155156002728162,0.117795550385342,-0.0233897249770347,0.035270210103328,-0.0186464055347751,0.0249992543549526
"game",-0.0021462445870367,-0.00919040631545958,-0.0434512977437157,-0.0569952383300292,0.0128495761217444,-0.0314484029934627,0.0525020249935626,0.22705304358219,-0.107320007558083,0.0285903865904907,-0.0607639913630946,0.048675957750541,0.0406998749050131,0.00534473133886012,0.0571992111267998
"confident",0.0889155173420182,-0.00659420897526136,-0.0376075560526482,-0.0175890020525737,-0.000432083530057996,0.075224175754471,-0.00255695446465572,0.0190701259804057,-0.0221900780280256,0.0124389873946514,-0.00119055974461356,0.0160991463060807,-0.0332402190233436,-0.0197146301346252,0.000815083313630913
"pay",-0.0622407367462213,0.0509772724468912,-0.0167130823532646,0.000821334144080912,0.00751119681237265,0.00144834355836966,-0.0792441698882927,-0.00298057628730135,-0.0292264782279794,-0.0157496771019284,0.0208225364589943,0.0296626234896921,0.356676395947612,0.0332294779845215,-0.0418027702308253
"attention",-0.0573867651492113,0.0417569789686716,-0.0193650782194409,0.000303774817616087,0.0128673409107534,0.00106521979649755,-0.0875030020129742,0.0214362220684672,-0.0339895053649036,-0.0163773849405038,0.045944360007644,0.0320575651773656,0.341579404820949,0.0384002331915983,-0.056215485666226
"material",0.128084836252052,-0.0133996877128994,-0.0058383590047452,0.0258311499307393,-0.0310212321700212,-0.0224256604537618,-0.0279410141654455,-0.00898577894049276,-9.66865601271235e-05,-0.0378580867972827,0.081677157970408,0.042820685649125,0.0108913137154256,0.00304169066056177,-0.00741539648647436
"food",-0.0226989809209033,0.0094536832733519,-0.0473318299084204,0.251767937438993,-0.00145880481328011,-0.00715063131471159,-0.0201910107476876,-0.0318889581824877,-0.0168550562674052,-0.0152324712419731,0.0320418116868194,0.0243483563987013,0.0141282491356235,-0.0262165952191267,0.0193001176020775
"laugh",-0.0220548762288803,0.0681782838607367,0.0137268564470465,-0.0244362597276878,0.0015591261862398,-0.0111460764992198,-0.0408083908171703,0.0485719595242714,0.0556559786240708,-0.0197668103790568,0.0578328859971287,0.0287593260565912,-0.0248694326075539,-0.0569597854585532,0.00778400846600914
"wear",-0.0266418185403411,-0.0278735679473403,0.0991344025929036,-0.0293076289888216,0.0380179213752453,0.0211529176887734,-0.0188573265639902,-0.00295106051557336,0.00772758874665085,0.0198260478259293,0.0275136345690195,-0.0035821015782852,0.00280605472369336,-0.0172503622729904,0.0189410756298049
"dinner",-0.00067856656538159,0.0224579283051306,-0.0109404508080016,0.0901421227796749,-0.00834708136937518,-0.0221402162608827,-0.0180165590614158,0.0274421874430324,-0.0459795998647025,-0.0502842342179388,-0.0154221356312352,0.0610016542443421,0.00843479951154721,-0.0222749612647806,0.0809929481988545
"professor",0.0878454127278456,-0.067539676224557,0.00447294217561859,-0.0120920633073449,0.0257795583829644,-0.0156644069385249,0.0768675470162647,0.0165802342130374,-0.0120964300458618,0.00566750935725043,0.137542512348214,-0.0154003108372778,0.0806847919475805,-0.0625881365393932,-0.0242223783840358
"upset",0.0115798916187013,0.0379325169775625,-0.00588960327842072,-0.00910150423262365,-0.0200337667126743,-0.00391935214194167,-0.0824318620548765,-0.0184754893960971,0.0753969148864726,0.0501852594619095,-0.0455149476634329,0.095625037953402,0.0236716291837551,-0.0319618577446326,0.0252136160931743
"confuse",0.00920347330836597,-0.028587921379494,0.0134205179342812,-0.00890421063946066,0.0167924001454179,-0.0120213904083902,-0.00219331335240139,-0.0164284254349346,0.00151673818650315,0.00852071389357396,0.0223051895566078,0.067464024558672,0.0431713483853332,-0.0550597356095192,0.0167913320619318
"shop",-0.0307006723224151,0.044049828957048,-0.0114733744831583,0.0093123930836537,0.00951359205934576,0.00284978450040671,-0.0547968518864655,-0.0242901900901387,0.0056816477357642,-0.00603485871621029,-0.00542867535658378,0.00740843795696748,0.0310608529442174,0.0318187294542996,0.0191062543566953
"homework",0.0338146668004983,0.0470823499702625,-0.0127364292873446,-0.0276824763808295,-0.0414150293417161,-0.0208490384119492,-0.0561228607643011,0.0291758362245386,-0.0896580445760979,0.195986949165814,-0.0315974685491694,0.0415563209331456,0.0221874740112332,-0.00345979008653192,0.0394877067361049
"hungry",-0.0218139962383049,-0.0750064466934639,-0.000205329861283864,0.258166159388445,-0.00167271667841013,0.0398436713084786,0.0199713375003547,-0.0246883104788146,-0.00982405324716486,0.0459744913018693,0.0225659307003565,0.00483269169947996,0.012654583643938,-0.0378571749941968,-0.0234125113336961
"relax",0.0521060858537605,0.046309244670107,0.028289191343479,0.0203139893795536,-0.0152945424567841,0.0311195729606833,-0.0699642082866014,0.151658479789467,-0.0185069874904131,-0.0123860723995657,0.0112078933135081,-0.0704289223350738,-0.0586620159115957,0.0252502945318245,0.00284923900700215
"neutral",0.00432448963499624,0.00240897278725883,-0.0165236111309259,-0.0273586213461158,-0.0159026770673,0.098242230753825,-0.0323797990065062,-0.0424551570031588,-0.00448650260977928,0.00477964563479652,0.0379505524794049,-0.0449348014634633,-0.014275205343069,0.00619457639205093,0.00996505371182706
"music",-0.0212017445212025,0.0223676251241729,-0.0099835857130911,-0.0695614294940588,0.0732636436115428,0.0771687316370979,0.00595394681530914,0.0285206010586584,-0.109755550240625,0.0563074212207631,0.126238127173757,-0.0516750189902435,-0.0488416547417605,-0.00800107306974571,0.0823669326384803
"grade",0.135330656620855,0.00188546855490483,-0.00424387659423337,-0.00226084971866845,-0.0278616037891987,0.0352734319251889,0.00678112289521831,-0.0397212700351544,-0.00836339970696447,0.00698525490234781,-0.0425920948913381,0.00448175058146388,-0.00131304276285328,-0.017327616693704,0.00105371259060119
"midterm",0.0987384285895913,0.0608690589582413,-0.0124993326301843,-0.0116406370323831,0.00488241424757171,0.0130506790139761,-0.0219978485585212,-0.0226098667036156,-0.0256494165662225,-0.0243935154885379,0.0823471439641483,-0.0301967279032953,-0.0630744538826556,-0.0301144860124498,-0.0460009035121329
"wake",-0.0211047531746623,-0.0151994018227149,0.246870861284651,-0.0249815652259108,-0.00819296953607544,-0.0378171208218189,0.00625861542294312,-0.021834956749301,0.0119920925727171,-0.0151044347812599,0.00107263218272,-0.00529107459392701,-0.017589729079782,-0.0227592053695788,0.00629587014888488
"roommate",-0.0246456136035964,0.0126546753453299,0.0134093674870564,-0.0108856603264749,-0.00371135131649613,0.0272556252008562,-0.00779238603485004,-0.0192285516930913,-0.00091543068585344,-0.034804867515021,0.0205564459854017,0.0395834394950679,-0.0106168552000703,-0.0325243904096474,0.219832161825475
"love",-0.00936376830640235,0.0649303276972593,0.00995751674646368,0.0163822324483047,-0.0536933867141491,-0.0137531300870293,0.0158987194130696,0.0369808894370876,0.0783569592556505,-0.0255658606259276,0.017111504762648,0.00789758100644084,-0.0214187847963902,-0.0357370039952705,-0.0358653671252863
"hand",0.0305989383862284,-0.0361590189138199,-0.0193837556739454,0.0232896397843791,-0.000338606037889234,0.0426877930059882,0.0138618528003462,0.0129779999024142,0.0181749837712572,-0.057075230551022,0.0130785687834256,0.0386963890726684,-0.0241665041510534,0.0488732370065547,0.0559716494143026
"library",-0.0136094203199307,-0.0214715349280421,0.00210507627798802,0.0148317089384431,-0.0237468311272632,0.212187488572251,0.0172142969986184,-0.0668589741623087,-0.0371278903350682,0.106538119710244,-0.00528147667971694,-0.00648582401595272,0.0125041244756233,-0.013396882843275,0.0145829194777122
"assignment",0.00886501592733426,0.018655752662854,0.0453043129257876,0.0455165523765831,-0.0911303246558934,0.0756109001859522,0.0347164704732762,-0.0381042432807981,-0.0459905839612209,0.024731537835938,-0.0766758378675482,0.0609088155200623,0.0615031401075605,0.0487707811233793,0.0310342667847192
"movie",-0.0100323401725593,-0.00416576180985248,0.0250075585265551,0.0167488033338125,-0.0445568247089805,-0.00951600863034879,-0.0266701757997136,0.0911673593507314,0.0818866145258973,0.028398989964947,0.0215977759664611,-0.0107162459664521,-0.0306621213690723,-0.00719217973814904,-0.0497449082462307
"exam",0.184777039653531,0.0328666167988172,-0.0112382960858088,-0.0111779284588375,-0.046516632036462,-0.028467770679953,-0.0636638429745293,-0.0200967089367908,0.0189862505240072,0.00984705612404342,-0.0510571636626815,-0.0204027148198615,0.0110021338723638,-0.0178708524353854,0.0241078799685312
"bed",-0.011670868368707,-0.0172931911180185,0.169614518561812,-0.0385412818828317,-0.0154168808047646,-0.0447493032103771,-0.0407225050678796,0.068305939599133,0.0617081508298925,-0.0458707825455578,0.00568512055642212,-0.0179868416718889,-0.00990710721286424,0.0139727215588289,0.0422767720583083
"quiz",0.138861078544254,0.0158403918469711,0.0066457702602573,-0.0251570237852561,0.0381010210230079,0.00221375279555725,-0.0782267813481716,0.00266459142948844,0.00373242069756195,-0.0156855242554417,0.0475670571704288,0.0281570252493904,-0.0943413046150628,-0.0547249749653898,-0.0392817312690161
"nap",-0.0119520029104202,-0.0271371237999524,0.205573066949272,-0.0722490524590999,-0.0234481196610384,0.0137896411462152,-0.00269771472730679,0.00284147761275998,0.0355901229585254,0.0244195574590858,-0.0124232780115914,-0.0254022351477179,-0.0234314744365515,-0.0596507380731512,-0.00476219479382661
"dorm",0.06061398230809,-0.0255500965102444,0.0109155316809063,0.00327943884695184,0.0507175775575218,-0.025801177815495,0.0372753352924404,0.0463629935023866,-0.0344839143719369,0.00934749712001937,-0.0670494316876391,-0.0481140672907303,0.0136382509397562,-0.0774825145869645,0.092654732648661
