"","RC2","RC3","RC6","RC1","RC4","RC10","RC7","RC8","RC14","RC5","RC9","RC11","RC15","RC12","RC13"
"place",-0.0215627935781654,0.092101996200886,-0.0215959848028868,-0.00733506586817701,0.0130753360579934,-0.034966364122372,0.0378275608230861,-0.0157925528464213,-0.00735305866227727,0.00481896057012631,-0.0108559447557627,0.0259641969435703,0.0653920355163223,-0.0354461894219187,0.0392787663252147
"relieve",0.0451092014750567,-0.031582824180172,-0.0285215853871441,-0.0128066687646053,0.0124521687716214,0.0433917874133794,-0.0171224223696721,0.0299644225416558,0.0213588725506236,0.039353193406162,0.0270271138710412,0.00660700745720173,0.00304798439568162,0.0164594933066849,-0.0805798779359395
"frustrate",-0.00128725406139194,0.00697965581388541,-0.0415771247346622,-0.000806470317256423,-0.0208987584535092,0.0193952504675268,-0.0201020745067413,-0.0185883280461619,-0.0172272925288901,-0.0157526930984015,0.0602111711976239,0.0432143858932947,0.218615265382379,-0.0484954633279758,-0.0189594760134885
"long",-0.00796498826306159,0.00407414247465502,0.000233214596314288,0.0114840603320576,0.0548360853863392,-0.000639085090231573,0.0243178927738612,-0.0231986650109045,0.0271526487435418,0.0355952640013521,0.0293294297909674,-0.0205650620795579,0.0188555313183142,-0.00213770327051126,-0.0390140073260406
"happy",-0.0090698177144985,0.0372712770899233,-0.00171239675075302,-0.0475997154296948,0.075741257831515,0.0197232490372314,0.0196036969371483,0.0396586240903248,0.0162900988923614,0.0191800540302776,0.0307548817161041,-0.00632944404895306,-0.0967420132962569,0.102333175625297,-0.0683977162258154
"issue",-0.00451745355618335,0.00673393846119327,-0.024302126949308,0.0139148129898178,0.00571536476624006,-0.0170609616669387,0.000196047831350103,0.0103747375584135,0.0690234482518769,0.00867255967464544,-0.048408915431405,0.0120607567365911,0.128340308533422,0.0281209310151266,-0.0298457136264334
"work",-0.0223178448951164,-0.0779536498034249,-0.0326882019331624,-0.0343776545521062,0.172160251735745,-0.0451329588845195,-0.0123629782835604,0.0252095537456552,0.0838844819353559,-0.0172314991263624,0.073432129720723,0.0150417037593346,0.039260298912782,-0.00553282657138968,0.0255589863251016
"email",-0.0325425896963708,-0.0379995934002379,0.00492467357424104,-0.0350408050546033,0.0928756193098717,0.076011705236324,-0.0235379712596367,0.00252138636874033,0.029851050463008,0.0173430435626307,-0.0350176829010533,-0.0586045683762703,-0.0364754182425579,-0.0579305889643749,0.0939556583343615
"lunch",-0.0132663695163032,-0.00349079531019932,0.0161411048353294,-0.0445168397626666,-0.00627791534623801,0.0156001689770948,0.19528319649076,0.0322127421969397,0.0267535420259596,0.00961580404279878,-0.0101640177183894,-0.0094579558462027,-0.0118736637862046,0.00666202506406738,-0.0758440647836099
"class",0.104293563570157,-0.00846497073152308,0.146271811681192,0.0492518171933521,-0.0608483948057478,0.0326985083991988,-0.0114947319621117,-0.0339198091068229,0.0027805224811331,-0.0190811668923536,-0.00145412864465681,0.0298254438631569,-0.0799649594264758,0.00749026802097809,-0.0117338285958271
"call",-0.00387723794345453,0.0605760933075985,-0.0318300060535187,-0.0206757819642581,-0.0225398034365508,0.11451930500185,-0.0357056866500704,0.0793733786359098,-0.0396441023970303,0.0616753137364184,-0.0103316128668833,-0.0296829848014502,0.0417557787170836,-0.0567361676667882,-0.043803231002712
"study",0.132544299811722,-0.0126734566597844,-0.0352528451092041,-0.00394011457323414,0.0455091537689171,-0.04902015143954,0.012988545078679,-0.0155138883735274,-0.0611604585590681,-0.00846960919057313,0.113441659780463,-0.0379100257573895,0.016146278489554,0.0339136116792423,-0.00772380792138985
"enjoy",-0.0132178672343123,0.0217628935122008,0.0480859896169104,-0.0183912423540552,0.0118567892498958,-0.0134653296554728,0.0873167584232351,-0.00865232223777848,0.0349950517064393,0.0816562043657184,-0.0266549959133462,-0.033025371505675,-0.0408886020434232,0.0648776802783823,-0.00248760214985877
"thought",-0.0184103044585426,0.0315051505658397,-0.00629812451543387,0.0401998915273529,-0.00998964442509279,0.0338990732281893,-0.0183436341256224,0.0336774827149488,-0.0201006923987721,-0.0140572810326436,-0.00330088661296851,-0.00204654149681295,0.0611858153596499,0.0658331276836653,0.111064695723916
"learn",0.028689946271037,0.0307363785563433,0.0650176946835477,-0.0108763004193857,-0.00101056050624375,-0.0675247952739772,0.0323411514077472,-0.0297839749489923,0.0299275021009698,0.0150045487364075,-0.00845572962741137,-0.0498424505394727,0.0765375622632896,0.0541434273528964,-0.0159012371612247
"process",0.00356527605359963,0.0154904098765099,-0.00226027150098393,-0.00909322395634127,0.0304235648070689,-0.00865679415811987,0.0158310640074344,0.0142938895695495,0.0384882486788225,0.0281219330112381,-0.0450781316066472,-0.0248055623502163,0.0588512000944595,-0.0460344349562765,-0.00946156947921435
"question",0.103434531307336,-0.030305108840446,0.00463477884747439,-0.0483714756986324,-0.0716977884087927,0.0912175843086657,-0.000471170429955276,0.00778218786114148,0.0646865234642432,0.0429215878798865,-0.016767784024789,-0.0475923338186239,0.0861536393822768,0.0159748588010273,-0.0487798379400998
"move",-0.00644693574095006,0.0155055005835102,-0.0127499705699585,-0.00435621602214501,-0.00481745023033369,0.0295189342031234,-0.0161558458470892,-0.0539192387306976,0.0518841408982827,0.0143952131783876,-0.0268778347141346,0.080460969630122,0.0578330621518012,-0.0136434218868032,0.0759290416812668
"answer",0.0505539759165799,-0.0443645184386732,0.00993380233196949,-0.052068809121887,-0.0590093818145474,0.186184530390872,-0.00931604656014176,0.0236724175823537,0.0287664854274003,0.0719143122694258,-0.0214477853031042,-0.0581499271096408,0.0436361595787863,-0.0292376521976488,-0.0502367441581051
"discuss",-0.000957753384706261,0.139027985825588,0.0192982192016438,0.014078727493222,-0.0714210836787182,-0.070627892791246,0.0178894082849061,-0.0100786827576481,0.108757907903641,-0.0364944059128812,-0.0110289013348791,-0.00422255410054994,0.00886304111521804,-0.00993959240947278,-0.0400004348875094
"prepare",0.109710617192973,0.0137147846636264,-0.0345339689944315,-0.0229275379095439,-0.0444872968958278,0.0301164767140041,0.0671510418774162,0.0403522869964176,-0.0190955450217657,0.00471736798811188,-0.0323126739266739,0.0254660815790208,0.00401081791603007,-0.0497679277225544,0.028893137012858
"tomorrow",0.0535264096963128,-0.00871621473817251,-0.018650776469571,-0.0187527167497631,0.089471795585192,-0.0181582785108476,-0.0274097233770418,-0.00598990001547592,-0.0249610417230439,-0.014950239217746,-0.00199379574460468,0.0503245419191665,0.00851892150974034,0.0131975797657987,-0.0420020615026318
"plan",-0.0199074412368886,0.0820101809398568,-0.00277985978921068,-0.00227106424581673,0.12481081950552,-0.00108471148815656,-0.0361620504942299,0.0426185588403185,-0.0278156320987296,-0.06012611164454,-0.0301398844479813,0.0553769395563703,-0.0544238033360333,-0.0593874693849643,-0.0376097534918429
"complete",-0.0135199671674786,-0.0296091972344931,-0.0186862612772587,0.0188246288758102,0.0381562629003021,-0.0073624249342202,0.00585527837195237,0.128582929111718,0.0765415756701484,0.0327471878688269,-0.0421725306031771,0.0220819423810952,0.0851496271229321,-0.0163393839778543,-0.0204372008104928
"task",-0.0253723217995697,-0.0582928472933136,-0.0291218447368473,-0.0160569078857386,0.0353511093474403,0.00785153450216949,-0.00608832250945914,0.0764159300543984,0.0995049211838979,0.0173837344866883,-0.0583103315085947,0.0271757015475491,0.0535880156286308,0.00960414795481509,0.0667655700765862
"train",-0.0483177371909686,-0.0512812198590128,-0.0246952778928687,0.00843102000544897,0.0728524234869761,0.100678351375417,-0.00673150149708245,-0.0358240817785321,0.0220850910899843,-0.0184636782380883,-0.0185555530183372,-0.0521750012948925,0.0334259063909666,0.0310533001114184,0.00127110249526994
"session",-0.00558925951844068,-0.00999788169892975,0.0109526841370089,0.0752797238723433,-0.0155619889904487,0.0369237106399003,0.00894738536573863,0.0237126498443509,0.0324061522345231,-0.00772180748621999,0.000148957810589986,-0.0675437780520559,-0.0135380609888207,-0.0322856816003844,-0.0310140818303749
"day",0.0196734583613281,-0.00436122661004043,-0.0266480812201559,0.0660460046285468,0.0998563830717208,0.045517348303209,0.0146343799537528,0.0284313161238543,0.0286962816404984,0.0232545778304397,-0.0524466931270906,-0.0241110808138167,-0.0345540478663434,0.0155708514317405,0.0309471759782693
"busy",-0.0303242814004347,-0.0139530846315014,-0.000287256659474125,-0.0205822783382417,0.142778397382347,0.0493844259749436,-0.0261571770742054,-0.00706646099415046,-0.0201581790373436,0.0263234051060956,-0.0127571431633975,-0.0550392910638475,-0.00716134855551532,-0.0220499973085119,-0.00793165009658782
"start",0.0279804414563268,0.00503292749410672,-0.00770519893790612,0.0353173153903834,0.0127080568513304,0.0219237132559187,0.00531192250273407,0.0279169222900961,0.0475052172271851,0.0155367725898789,0.00287677397001025,0.0558459696352628,-0.0177378702342103,0.0196306487515037,0.0589955333375498
"fun",-0.0201252649176885,0.0687165702066208,0.0160812734844547,0.00258103238105618,0.0364947132033902,-0.0523350764148859,0.00581111044321887,-0.0213631704168474,0.0466787774407866,0.025790422975827,-0.01017202094816,-0.0116561826999516,-0.00101027272316696,0.0791277865641818,-0.0651184505952741
"conversation",-0.0314993195521406,0.0735961207948158,0.00717599283880978,-0.0316218440917332,0.0162656499668567,0.0180301083217612,0.00578916224981008,0.0135400803287584,0.0083794540792244,-0.019592658008799,0.00634984801214806,-0.0383044257276681,0.0316835062039669,0.0920294597761947,-0.0523301561622734
"friend",0.00140620248097139,0.154611302922259,0.0169046330246776,-0.00862136631191287,0.011885955947781,-0.0185227566748285,-0.0116500452049913,0.0318626008745009,-0.0778185736842723,-0.0492652878495607,0.056092156019728,0.072689792117238,-0.0176915292407864,0.0283211916592487,-0.10221815009664
"weekend",0.0157626771588759,0.0153107940822604,-0.0170073470165558,0.0133108505942275,0.156676221482537,-0.0129864421524872,-0.0533248016143183,-0.0311998885856978,-0.0434872593010845,-0.0233642030736877,0.00355260842193994,0.0160837054874103,-0.0578009939401323,0.0273845430141213,-0.0261413910770074
"stay",-0.0322191650261505,0.0390275385856587,0.0638142542306468,0.03312164419287,0.0374669385154228,-0.0434543415365285,0.0272684880816141,-0.0150547844817417,-0.0133381543177362,0.00459996983634559,-0.0269095960536582,0.0496353724947072,0.0586971421914813,-0.0391418382782573,0.0377090412905414
"excite",-0.0179145681018986,0.0815361816089182,0.0275082113616154,-0.00198598175255165,0.0388779351354575,0.00518055732517205,-0.000737278313556189,-0.0181954961063071,0.0560278057715847,-0.0147737712648853,0.0226466420813019,0.0217846823488831,-0.150772375587151,-0.0205140677976671,-0.0531344198085323
"schedule",-0.00784190490341215,0.033953748261322,0.0187257825715746,0.056862512340432,0.0743465567796047,-0.00269539835201853,0.00733165263621397,0.025487717283857,0.0139143805654954,-0.0116331727869713,-0.0156887511472762,-0.0657125016543491,-0.0233861920127681,-0.103400123329901,-0.0350188006636007
"watch",0.011415976456702,0.00263073656584598,-0.0157254954318266,0.0116027945275081,-0.0220550208681241,-0.0595559519034825,0.00548444533251702,-0.0216018076383067,-0.0183889899114277,0.325961549582414,0.0161479599975976,-0.012159006921114,0.00849770798060034,-0.00578471176719102,-0.0129685063181167
"late",0.0146556411491389,0.000929977127445126,-0.0251991399434481,0.128646238644534,-0.0413314734603386,0.0462433839774778,0.0403762320346647,-0.0229792532633353,0.0298560801458812,0.00300015523339796,-0.00805136605062095,-0.0434551046261394,0.0302027237968471,-0.0315364564977368,-0.0386616061412203
"job",-0.0166680104761391,0.083264178229321,-0.0129562339401352,-0.00509912130692983,0.0255292342795587,0.0165045138748893,-0.0240098233371487,0.0299334873158909,0.027781965875988,0.0392470927422151,-0.00175010740699747,-0.0799536590420738,0.0134856526935702,-0.101818819702998,-0.00194107554711801
"nervous",0.130710782083953,0.0483476923626546,-0.0396790930859368,0.00752925656016949,-0.0573873534214805,0.0462646792422649,-0.0343067067748438,0.0155138618957265,0.00971273240506682,0.0200892550597848,-0.00520432125327114,-0.0357211924740937,-0.0657588266156948,-0.0608088308363102,0.0106141145361538
"begin",0.0397749631394696,0.018930630813854,0.0250260700507256,-0.00290935408885803,-0.0372573714862154,0.00603103273636821,0.0222713606455772,-0.0203991256212935,0.0476918736535842,0.0159875742496701,-0.0324588964632015,0.0477420819685674,0.0239322762632943,0.00804679634810068,0.0477680053549117
"meet",-0.00954065045452218,0.0630621217562557,-0.0223951453062219,-0.0122265719749669,0.0264411461230836,0.0296098595846682,0.0120980957268295,-0.013290575469078,0.118328661359347,-0.0467727384939375,0.00313877337633725,-0.0300712085679345,-0.0683523012120228,-0.0288782408705899,-0.0465862294556355
"great",0.0317125333750612,0.0754328240442003,-0.0238826224383662,-0.0130401568238222,0.0536143339949929,-0.0453258087912693,-0.00541764750480146,-0.00883576609622922,-0.00604939994023861,0.0419941994138285,-0.0333621897296425,0.00556321745866288,0.0151515003513974,0.00407069328460859,-0.0147343441483457
"research",-0.0247349768351727,0.0342642314785429,0.00861251551420328,0.0215790293646186,0.0300077732029867,-0.00615937183193412,-0.0213055852568751,0.00797686247995354,0.030187766742466,-0.026827119321375,0.0752324271635092,-0.034359312292686,-0.0349374720391522,-0.0446927421770331,0.0416352876676774
"show",0.0057759365280403,0.0439745441928741,0.00890195278497039,0.0151294109910625,0.00880376139319647,-0.0056574520474759,0.00228256516185147,-0.0380193883842729,0.0144181549250453,0.237571298485402,-0.00576704929769674,-0.0604749143835359,-0.019671960391976,-0.0733075771451175,-0.00604426914538864
"hallway",0.0130781802799672,-0.00121975877880967,0.014754167001654,-0.0112686662761997,-0.0178680240528555,0.0610843893817418,0.0622725559453344,-0.0248364868955091,0.0217631255351853,-0.0425819694773323,0.0302630397615255,0.0591716619219098,-0.0608475737108349,-0.0336494547174638,-0.0507276222443877
"stress",0.0954874308084884,0.00317162655850642,-0.0477326054849798,-0.011055213171107,0.109368109375071,-0.0321080660992324,-0.00120300776970335,0.00608288006000186,-0.0637352783930332,0.0034246550269069,-0.0442735600410669,-0.021078055784885,0.0432556000096312,0.0128081400074893,0.0222810974367784
"left",-0.00641909040363027,-0.0381864967273422,-0.00434134134240473,0.00613020302626189,-0.0052054885417577,0.129466823250167,0.0056253695401671,0.0150675147476983,0.00255456987376669,-0.0626997123517736,0.0190600282729791,0.0806138091450167,-0.0394097773395595,-0.0368533093125531,0.00391313436076378
"student",-0.0137349650642216,0.0468673891154127,0.0427990295741484,0.016914608314407,-0.0370459271326495,0.00492745556813192,0.0268166334111438,-0.0150842357435959,0.125314263101201,-0.00525011530145982,-0.00216427092358519,-0.0381064923712651,0.0116918165925296,-0.0727836325040451,0.0100950023977747
"office",-0.0109344940501606,0.0107508216809946,-0.0283940281280338,-0.00298114445045188,0.0540278100147119,0.0754897974341297,-0.0128797143028254,-0.0273034348990186,0.0541278494245966,0.0254668171474554,-0.0303978750653683,-0.103894136554562,0.0163003336900314,-0.0334004646654567,-0.00620438305254002
"breakfast",0.00424030642580009,-0.0194915030223332,-0.0193148240105272,0.0268487552444699,-0.0258499117503134,0.000951554781196879,0.189794373286923,-0.00489533460318206,0.00652506537336283,-0.00388363444107835,-0.041025541851012,0.0131233105721054,-0.00202309439527384,0.00878042738585694,0.0450408523804129
"hope",0.0452200739004656,0.0503480877613875,-0.0261715408116131,0.0152146032978496,0.0152584732747775,0.0148313383072813,-0.00503058589534047,0.0119687525341065,-0.0280164098710537,-0.0121001522267675,-0.00685563070342262,-0.0504613663444276,0.0252125139819702,-0.022738627767039,-0.0303575419100069
"read",0.000111755220370867,0.0172568406936932,0.00834885410131481,-0.0140701220436161,-0.0528976260424597,0.00746244607466765,-0.00540318808327919,-0.010806379545696,-0.020827279106372,0.00281007661241013,0.060372497874676,-0.0162792437347788,-0.0399938263894364,0.043509752516687,0.287841985663356
"due",0.0307527222676081,-0.0134944371710523,-0.028868510350837,0.0018222501562467,0.0647714125140554,-0.0566385088576389,-0.0331651506475102,-0.00416279758607042,-0.00634084027615847,0.0256999790829108,0.131806356688819,0.0172318035471247,0.0162315628201216,-0.0615236499669508,0.054715311265682
"anxious",0.0961454679481916,0.0355107255429176,-0.0522494116566065,0.0200683991510103,-0.0423779921527224,0.0447059786085382,-0.0255680669181105,-0.0121784556960604,-0.013951357823707,0.0167997974221431,-0.00789134652676242,-0.0233861787258004,-0.0196216831848271,-0.0433298457680235,0.0453843812244968
"book",-0.0147466378680964,0.0368242028038427,0.00875030657786281,-0.0296719621747605,-0.0141269228750459,0.0104473534549735,0.0162783458905583,0.00692663190923981,-0.0452465307535068,-0.00885080847309503,0.0169319881166891,0.0213986702898269,-0.00732421578683951,-0.0135098130503904,0.178355148041085
"laptop",-0.0360064764359687,0.0126132218336557,0.0247771466210387,0.00402851427937599,-0.0321290186060092,0.030449775385691,-0.0294881255859342,0.00478417717872446,-0.0337616603671094,0.00114331542016445,0.147457992932198,0.0286942825921512,-0.0368552344091156,-0.0528781425224027,0.0552055204890755
"desk",-0.0217867313962403,-0.0028280529663485,-0.018105993625149,0.0143846265134802,0.0250633539413962,0.0396882134518772,-0.0320541322153752,0.013514011991067,-0.00323548076727865,0.00484966184552068,-0.0150997672522268,-0.0188290305185078,-0.0348939502387646,-0.0145063916532675,0.114889627339897
"leave",-0.0337074230471453,-0.0190654264942202,0.0152637907314271,0.0279104854448144,-0.00821482405990603,0.0842909243653496,0.00234297118789026,-0.0221156612971426,0.0163782382298119,-0.0425239982408843,0.0136436640112314,0.0885846609147218,0.0119425988474835,-0.0379098354862123,-0.00295201914669268
"paper",0.00599846028655809,-0.040312650534698,-0.0137438551257651,-0.0291020390769496,0.00609844946140311,-0.0449742525911456,-0.0223893979460644,-0.00588840000514101,0.108322825195528,-0.0312865226286411,0.0535865576578828,0.0309708792582259,-0.0502684976089378,0.0204396121685086,0.155963533507576
"room",0.0366903151845241,-0.0296767087677385,-0.0210480106842667,0.0145911313639352,-0.0181925596707646,0.0439654488736537,-0.0310819186007027,-0.022127918254757,-0.00489122253830124,-0.00239797962623003,-0.0219145302202637,0.206209564030007,-0.0575642072401774,0.00903544199174197,0.0528131185159889
"break.",0.000717123917191518,0.0123127158766516,0.0223060785181895,-0.0323880275441698,0.115065792188058,-0.0421274178961484,0.0472292454511341,-0.00906191619705914,-0.0514156759241259,0.0208829336649032,0.0145329948785716,-0.0345049869203903,-0.020031434487593,0.0534041866013066,-0.0188672930734481
"eat",0.00529117927134625,0.0106652036164568,0.00473094777019263,-0.0270913524518425,-0.0366086261832328,-0.0241451324700654,0.281896200511453,-0.0300778194913531,0.00167156803132269,0.0107716077313176,0.0188807518110481,-0.00240506023838628,-0.0231695560190498,-0.00284309975917523,-0.0181758322030334
"close",-0.00627596845919404,0.0676457758805663,0.00757670182829496,0.00490318917829771,0.0285840441720382,0.0314833306108308,-0.0211357646596449,0.0019980924472183,-0.0578308761462883,0.00172716344559512,0.0029506779434594,0.0136217520859761,0.0262641458454731,-0.00287711655193851,-0.0125716988976186
"test",0.12960372562702,-0.032188015510172,-0.0287817861486321,-0.0378396809893684,0.0118258035139697,-0.016369841578609,-0.00409131271285971,-0.0372550107288741,0.0062417666479664,0.0275452570142841,-0.00495376809610252,0.0124360260301569,0.0697760377979038,0.0260823346586645,-0.0149277028779963
"morning",0.000610659948227303,-0.0328568444427042,-0.0210671185573276,0.109047342445728,0.0657206486720443,0.0247236902811712,0.0502586404870655,-0.0484343594114601,-0.0167756337097567,0.0017050759777839,0.0346789456619042,-0.0619609618904818,-0.000871101298876933,0.0180497436543127,0.0430705603173036
"lab",-0.0207868963855036,-0.0694476358788169,-0.0432733458928506,0.0462936007268039,0.0782624189399084,0.0329461730874332,0.0361213814423327,-0.0328521898807771,0.104909620016819,-0.0492428931802161,0.0293586090299928,-0.0982206050522919,0.00911792750215769,0.0961150911644673,-0.0204967691734691
"fact",0.0429664792563375,0.0493281211032726,-0.0303170789555809,0.0204008260348505,-0.0581195753994746,0.00301523052471916,-0.00342224012524602,-0.0143744451715563,0.0195388197760896,0.0199163360277238,0.0165482254547571,0.0246286409401163,0.00663009744888933,-0.0170035274284774,0.0299471829847983
"told",-0.0228152876705783,0.0284959716439498,-0.00658477135991359,-0.00845826047605141,0.0314266932449546,0.122151796821922,-0.053182449264667,0.00785119288655705,-0.0260750404517735,-0.0459451370180437,-8.17717285102328e-05,0.0111439623930368,0.0216866753334213,0.0485075524322572,-0.0260133719307436
"people",-0.0253810842402518,0.0721646091975652,-0.000125861945281803,-0.0153163315026753,-0.0399164715386637,0.010957468829114,0.0202093456250345,-0.0220220670159183,0.0111330701206791,0.0199509569803496,0.163523591117399,-0.057228588417222,0.0378059826712287,0.0173175507750526,0.0536400154611143
"idea",0.000334247354218049,0.056004338509945,0.0166517220183203,0.000369845751507244,-0.0346429378805424,-0.0402543257406833,-0.0140969640775334,0.00684326326129179,0.102991243883252,0.00307507078509279,-0.00924685458077229,0.0211771335618387,-0.0215681721452661,0.00306148848718677,0.0345116886348988
"present",-0.00383229169088964,-0.00494307511179588,0.00881334627676442,-0.00335432685231031,-0.042405546050926,0.00444851020270409,0.0324959077131383,-0.0188577440323179,0.18141391987063,0.00536560629675414,-0.0236662386865227,-0.0402477625400808,-0.0234056105943704,0.0203088251168113,0.0272630850807281
"today",-0.0130359996662742,-0.0376040372849231,0.020760852064562,0.0129011460075076,0.0802932468050029,0.0453288696213481,0.0286491240744449,0.0183006427140663,0.0244480841004374,0.00838964162945917,0.0507371421663275,-0.0451655553249475,0.00949161281385467,-0.0177249573750328,-0.00673647811280597
"final",0.0992130684228455,0.00409733119508717,-0.0296586025897852,-0.00505038415183795,0.0299819428208188,-0.0368452453616604,-0.0319808824587298,-0.0300236378085531,0.0631230594930161,-0.000732668101755994,0.00135930167560215,0.085052812655486,-0.0871190139790304,-0.0595176998720222,-0.0116203390877318
"computer",-0.0188602615981893,-0.0394878561808881,0.0353638786544872,-0.034304182453548,0.0931586350008915,-0.00680796622899909,-0.0364762034635698,0.00199280714692092,0.016948625774694,0.00093101566843188,0.0315731808205893,0.0172231860107013,-0.0274369534191386,-0.0227542299734683,0.0799055736965764
"phone",-0.0254914938657262,-0.00411760808211527,0.00953705069135244,-0.0221672119303572,-0.0182448741759857,0.132105474343454,-0.0486949428010436,0.0442028654072968,-0.0548788731877903,0.0645178960479229,0.021880020840988,-0.00895058417551405,0.0219881063620697,0.0286264260619706,-0.00324550638476668
"deal",-0.015353696165395,0.0336049947797268,-0.0334120614994011,0.0235679192751563,0.00157543350103037,0.00883954866119459,-0.0429461267960259,0.0018157922751637,0.0429008988727391,0.0218303641456398,-0.00145567966141276,-0.01870307548752,0.0415898693968768,0.0224783564058151,0.0171559185623724
"data",-0.0219300892263552,-0.0184251320173553,-0.0384803710208772,0.00157693832000043,0.0136495781826223,-0.00614614884157592,-9.85107003957283e-05,-0.0549838528370596,0.184708681959995,-0.00258306550037315,-0.0170296847229144,-0.0291936450500252,0.0207289267242449,-0.0140644055685804,0.0187104247547835
"realize",0.000102511907284441,-0.0204613447153844,0.00182756398567996,0.0220861808539923,0.0409126844627084,0.0301761502146293,-0.0119470310738063,-0.0100238657835595,0.00339889147928092,-0.0351924552885275,-0.0218380585096551,0.0634777579050365,0.0606239736247792,0.00818939412732589,0.0324421884182275
"decide",-0.0206905695414085,-0.00595670687632648,-0.00165167950945572,0.0263340059860211,0.0401019397276351,0.0162565058092908,0.0187886464858089,0.0335330692618355,0.00245154842946255,0.0116717765731599,-0.0137504196199819,0.0987219131778653,-0.00805820049186626,-0.0153063512125714,-0.00160782134967355
"year",0.00845277320584513,0.134630759087825,-0.0201768128899843,0.0024977510817704,-0.0166498506411764,-0.0310394666119378,-0.0361694233330101,-0.0540175503993681,0.048518971016355,0.00124326681647589,0.0034777860105167,0.0486428960806702,-0.0506809427383057,-0.0556740949029197,0.0772608816596302
"project",-0.0291801280850287,-0.0447178655607734,-0.00133868523984609,-0.0206441325545966,0.022982957936357,-0.0495619227121026,-0.0295705004709963,0.0851710426674107,0.210683707532292,-0.0174504116343926,-0.0211030528841855,0.067278398437756,-0.0155054639999578,0.00126376168057646,-0.0488975849370713
"interact",-0.0159697636269794,0.0157841637806277,0.0338217394519852,-0.00723540892257954,-0.0585000106174694,0.0131695509862577,-0.00156383956211738,0.233904208073537,-0.00539958230182496,-0.0183993785232116,-0.00497076560787544,-0.0238770663467488,-0.044371146960352,0.0141098755785435,-0.0119865784038863
"speak",0.0193768918026307,0.0755616611622165,-0.0150157399587449,-0.00190116829550887,-0.0403238620752599,0.0248460108842928,-0.00988220448973784,0.0122576573418788,-0.0022667952873236,0.010142394069321,-0.0371646148963104,0.000980799216744223,0.0201746779056908,-0.0249053807085466,0.0271850779310221
"continue",-0.0109184053363622,-0.00320217842147733,0.01258131159436,-0.0157407585927226,0.0267319450456044,0.0205799518985867,-0.00239204853598536,0.0415699139226403,-0.0296861916548047,0.0880568591275332,-0.0233447504859059,-0.0288619544791584,0.0417456178274771,0.0283609043904353,0.0317816225462912
"week",0.034030137656871,0.00227074959073908,-0.000916854611587081,0.00125872776214128,0.146771803112235,0.0225228724796245,-0.0500279228738357,-0.0276979151095449,-0.00709274856204953,-0.00754804240484432,0.0164125235152639,-0.0199877987568347,-0.0404361565213145,-0.00662722502690664,-0.0152467791039955
"annoy",-0.0367568389759921,-0.0307663409085573,-0.0192361277143682,0.0135932381821068,-0.0154009746764701,0.0411284323954402,-0.0165288381569903,-0.0659561511654168,0.0523330724954448,-0.0168791408127491,0.0250985569786595,0.0409952086939469,0.188797019198573,0.039986369491038,-0.029699196473774
"note",0.0523015530271402,-0.0299522594156377,0.0910584799092754,-0.00621148076870902,-0.00679334252416667,-0.0217126722058895,0.00615158681320844,-0.0218912406353139,3.63653739602346e-05,-0.0243746309337667,-0.0160883082428528,0.0178108119786346,-0.0137448687996897,0.0305854850774833,0.116498622315591
"rest",0.00825338206619586,0.00333310225540525,-0.00088581566232665,0.121360827565686,-0.0189628583011773,-0.00918849166367053,-0.0139062938300287,-0.0286004855316408,0.0272487829117382,0.00822128413432974,-0.0227221151543714,0.0184645117218987,-0.0244022548768699,0.0168172774653609,0.034727832330539
"wait",-0.0134465403096917,-0.00594295316411571,-0.0049736273830808,0.008551892650568,-0.0274656210286778,0.127923815003954,0.059690947394449,-0.0168728358651168,0.0172807885678758,-0.0262570445707309,0.00457472930720909,0.00193595409135428,-0.0337662675480878,-0.0538008515956992,-0.0234560657773721
"alone",0.0128497167099474,-0.0148738156876991,-0.0301937090639696,0.0149180791064287,-0.040354968427431,0.018259819870046,0.0264805659344524,0.243051426931214,-0.0380089978419609,-0.0079629539959145,-0.0200727659790183,0.0322724839206457,-0.0156289640002194,-0.00112135829943806,0.0586426281547932
"event",0.0126463287833382,0.0970523385971299,-0.0162869479380126,0.000776762506923039,-0.0198301283480033,0.0206389257047807,-0.000947106962783498,0.0421456604679606,-0.0186586368513226,0.0373867312370016,0.00885373663136437,-0.0941800127559841,-0.0892851525392513,-0.0556826772949983,0.0316437415709953
"remember",-0.0137529424872048,0.0291070076416017,0.0102948958496592,0.0142238173198769,0.000636391105208115,0.0365323924774115,-0.0194644525959935,0.00210628306164986,0.0031696590341419,-0.0158821856914044,-0.00141349851840343,0.016387305913431,-0.0181598455216852,-0.0178379905503524,0.0102976748347007
"hour",0.0253986818765534,0.0172721721935721,0.0120585144480722,0.0445824756897696,-0.00353105315210562,0.036195149605558,0.0260557714192599,-0.0410043249410139,0.0290898113965659,0.028501320716701,0.0204928595792533,-0.0185868794924751,-0.0162321955378855,-0.0638504897656716,0.00761873976522451
"expect",0.00596652051590245,0.011342176572436,-0.0111360525256133,-0.002644500061158,-0.0267175775220749,0.0331755881162201,0.00284551947088338,-0.0121429875047733,-0.0244094350931429,-0.0155803313572477,0.187066108739767,-0.0662608520848512,-0.0158583060208036,0.0115335864343497,0.0160554686205221
"stop",-0.0185648816632781,-0.0336012705355796,0.00270158270789864,-0.00923667995651468,-6.40498535268768e-05,0.115775001527071,-0.0170572590793099,-0.000744188806440909,-0.0286731211299256,-0.0154579581176367,0.021870904419463,0.05266849916524,0.0597674574710641,0.035773824630589,-0.00615693513125491
"understand",0.0448428490047887,0.0053119005362369,0.0354660803815603,-0.0287980938882835,-0.0163467943220434,-0.0531189392828301,0.0112390829110057,-0.0091503305728706,-0.0244554610691706,-0.00522431648779392,0.00423431458378809,0.0296765320091461,0.185879602651014,0.0511099924168241,-0.0180242134895414
"early",0.0118199076686827,-0.0446024797231155,-0.000833720311092423,0.102215261647745,0.0150371706620114,0.0877907155422517,0.0293907468299905,-0.00908915265425387,0.00303733118921213,0.0142586722648181,-0.0152104185406489,-0.045480138139764,-0.0200668964801497,0.00368165655689785,0.00353552058877731
"worry",0.0531737002944949,0.000586577376073787,-0.0226399450525276,0.00846483321354505,0.0728223679918549,0.000880684978723567,-0.0275538450205312,0.0309369065539645,-0.0293643864427019,-0.0174993960688031,-0.0249755876479768,-0.00145083234750916,0.0220302090502187,-0.00813687019577514,-0.0219487998945125
"minute",0.0269583201969325,-0.048251524859577,0.00287506166116237,0.0214263797271021,-0.0414611498503152,0.122030118280877,0.022009334848724,-0.0100375068931146,0.0250248588745487,0.0340669504952215,-0.0157143178316432,0.00168514351132626,0.0195208780650823,0.0221817732025009,0.0187892046777591
"consider",-0.0132784517196168,0.0323800288236135,0.0676064983193521,-0.00340571205829732,-0.00754023916863249,0.0116092093940592,0.0133719398296756,-0.0350778037232784,0.0237466681010157,0.0150467828837251,-0.00697093726427448,0.0845902973698704,0.00474477109842545,-0.0666511274793822,0.00923169970727851
"turn",0.0091358680197356,0.0158963085293938,-0.008474960236076,0.00347688512071268,0.00589267764778107,0.0504323569928117,-0.0109219872121602,0.0091433565120428,-0.0142826554567561,0.0702091514215837,-0.00886001450068017,0.00991750910184147,0.0315415627709112,-0.0411777531338988,0.0143254192258144
"mind",-0.00666713094095717,-0.009103083985986,0.013478144792621,-0.0189564748785326,-0.00395045684562382,0.00691865361221825,0.00597448750294106,0.227796936930556,-0.00112228783344102,-0.000191110891383014,-0.0417657960050236,0.0126322715785592,0.0259427783130173,0.0168250594407995,0.00308653341659975
"talk",-0.0111136143400509,0.130505820495364,0.0364592097653743,-0.0308517458247413,-0.0225720398824877,0.0307402779372275,-0.0135688844538858,0.0113924900165369,-0.0345968350982516,-0.0465250468527706,0.0538915011095718,-0.0222014716023614,0.00563221872608807,0.118886463533195,-0.0905260593019518
"interview",0.0252307184512338,0.0638819432026951,-0.0085913793715347,-0.0157726257175213,-0.00661812946569584,0.0561609351339466,-0.0333627968053987,0.147701044256065,-0.0523373174208485,0.00963557484511235,-0.0133203194683226,-0.0829326341462007,-0.0467936711648349,-0.0461630844962273,-0.0193851826016514
"news",0.00509356356796983,0.000543513224003776,-0.0164823674164575,-0.015627656081838,-0.0187811932187787,0.0614425552427002,-0.0185960948094525,0.0225984024809406,-0.0357139186104024,0.0683963557876216,0.034530910397461,-0.0564071624005884,-0.0218088653160515,-0.0032971930408729,0.0681652333486362
"hear",-0.0202258373198218,0.0436390763212243,-0.00780151252688049,-0.0215800746883568,0.0283572876281889,0.0476369025870115,-0.0303718103000036,0.0151400339359084,-0.0263418015163254,-0.0349201448838715,0.013060560090146,-0.0293024656813997,0.017866980830614,0.0892899462145098,-0.0118752368107831
"interest",-0.0353277713577666,0.0571909952361921,0.0834053517941725,0.0242359276692468,-0.0428097054544223,-0.0526953813371922,0.00644957574541422,0.0142796737313849,0.109411870884789,0.016178391902926,-0.000571742730855954,-0.0705620819399878,-0.0344699351027947,0.0866781046494041,0.0863461186706025
"focus",-0.00505273563033218,-0.0496219476329696,0.0603804704322271,-0.0257427940390384,0.0493329633123764,-0.0781915959983742,0.038223707394964,0.0501159822747057,0.0347911335905479,-0.0219912256430294,0.0247309345315388,0.00460200882604712,0.0372512894022742,0.0668751895208603,0.0859662474304473
"reason",-0.000960978012077755,0.0631398851590712,-0.0236632169910533,0.0114454933185705,-0.0149357482494046,0.00130906247817487,0.00702876295205206,0.0277167608768666,-0.00338409336997842,0.00429706991690205,-0.00097383228331858,-0.0222715981129812,0.0353359709256415,-0.0385157685784329,0.0443292884285944
"review",0.08758606475221,-0.0185519568933288,-0.00569738144697638,0.0072481364350085,-0.041745014135254,0.0056336333904872,0.018926978908623,-0.00936646341972888,0.0501939818140017,0.00493066278532091,-0.0176774748321723,0.0128046130059944,0.000113272236412604,-0.0434234420585488,0.0250555629552311
"play",-0.0271039964892669,-0.0533890050636113,0.0392451783312265,-0.0368192965556162,-0.0187048181220193,0.0408748056823323,-0.0836602828161801,0.00787689887931899,0.0960771716663869,0.105247498285532,0.0614758695307865,0.171395012289379,-0.0547985783185616,0.00350984535822344,-0.12435024070851
"end",0.0148206101903419,0.0109619001346366,0.0226624492547496,0.0276351378270021,-0.0126857792719845,0.0350242472190668,0.00436265640109881,-0.0167436406228472,0.0384007527339204,0.00639780194436899,-0.00738891165436319,0.0241348062325103,0.0170271783196673,-0.0128953403605956,-0.0178404338462562
"text",-0.0192322244158029,0.0372756146131432,0.0135597836692328,0.0513567206763085,0.00562747293689233,0.0378147313819813,-0.0555978190026649,-0.0240609842040279,-0.0388495485705685,-0.0133678021663439,0.0136140644926736,0.0449130933297455,-0.0131530921328233,0.04101488213527,0.0151535899594124
"nice",0.00532755665226311,0.0250044285725434,-0.00866883184339259,-0.0482726572485769,0.0695407252459867,0.0332639485893865,0.0359652303475636,-0.0295471813757549,0.0153229662422015,-0.0192631469917397,-0.0149854698623293,0.0124023832046893,-0.0643920082165479,0.07152654504622,0.024221383326222
"suppose",-0.0148528309630107,-0.0167652352369841,0.00194624746826988,-0.00870993299278126,-0.0223388040885938,0.0264527964401683,-0.0267130428364957,-0.0276805339094701,-0.0083947243991983,0.0146948873192003,0.258472915624707,-0.0253332561993822,0.0227910086100079,-0.031726893561069,-0.0431256826193963
"ready",0.034630022754278,-0.043894878937941,-0.0349403724329779,0.055229482420821,0.00364281664945462,0.0180087343232974,0.0302142642219653,-0.036382155077932,0.0438515147133138,-0.00544295030683081,-0.0385145735354964,0.0391835999207631,-0.00585767862900267,0.0301516012819063,0.0266865439948317
"quick",0.0253279388773321,-0.0422376593319617,-0.0168446230675546,0.0053529155312763,0.019885047601075,0.0989357123214859,-0.0129000951406669,-0.00565122513738288,-0.035039768977226,-0.0464259415164955,0.00631274205009043,0.0248616576046895,0.00920904304579737,0.0432273170566606,0.00619185728545764
"tire",-0.0154123028011057,-0.0187337719545631,0.0208063159976464,0.199644898101904,-0.00409589823753366,-0.0543445435981304,-0.014488220799762,-0.0169318236558907,-0.00381932505936733,0.000991441184215138,-0.0116669060108212,-0.0108995551896913,0.00410740308686171,0.00832175979388806,-0.00371391226710605
"write",0.0298781197247964,-0.0317692731729431,0.0113359231329848,-0.0207079576214556,0.00734341334028528,-0.0373483248969389,-0.0287203672151851,-0.0336576481662871,0.0804872018171641,-0.0150915439507461,0.0166573787094483,0.0359211305771256,-0.0215105676053075,0.00330080405421638,0.172828586172507
"person",0.013128713588685,0.0616658131394054,-0.0309973427882606,0.00724136463302913,-0.0589296316240643,0.0434639675021264,-0.033732417272631,-0.00209935630810205,0.00736598724427346,0.0165993775309524,0.0163179158750289,-0.0259604671874816,0.0403262990753196,0.0143865429644558,0.0559416831604772
"order",-0.00889950441265141,-0.0128049165845054,-0.001947593872964,-0.0329147782510706,0.0599237107917064,0.0238325012857345,0.0734916074255791,-0.00602728311120206,-0.0178160133133774,-0.00152519738424391,-0.0205616012359785,0.00290075680860081,0.0488738667484085,-0.0376302971219378,0.00793175321580348
"finish",0.021702505925175,-0.067094279962985,-0.00120370839869493,0.015007630526323,0.00116813976509236,-0.0177199138950793,0.0548581421962011,0.0228870129291819,0.0653983770063594,0.0361174785199226,0.131561528207228,0.023583433965853,-0.045383551285122,0.00677770223775376,-0.0397705011414262
"outside",-0.00719480628236285,-0.0139560639398815,0.0235118329727298,-0.00695797198103521,-0.0157322479966795,0.106745667314197,0.0206293390182532,0.0243166816552558,-0.0127850217898,-0.0174691757318283,0.00828933713082279,0.00100613390706301,-0.0280412536821704,0.0249352881593484,0.0144009433054952
"table",-0.016583502501583,-0.0269776775941846,0.0173054592222296,-0.0277504973764335,-0.031233029845526,-0.0153190936609808,0.0346801362006797,-0.0466605575303268,-0.0173474455499775,0.0018618124076118,0.276583956631706,0.00660990863548537,-0.01272808286276,-0.00794903552065549,0.0324035045032885
"experience",-0.00925229847154751,0.0798053910020455,-3.51739649152273e-05,0.0153188319711975,-0.00329045046386433,-0.0383568938701206,0.0204007682437773,-0.0159372325684773,0.0649993642496015,0.00152831108510856,-0.0109213285354001,-0.043555021517747,0.00766789158857308,0.0163073348395714,-0.00848088504755867
"live",-0.0087780833952827,0.120865744679092,-0.00588432326226587,-0.0237552157205303,-0.0147384828991045,-0.0176717932587479,0.0126840578903559,0.00768260778107694,-0.070512261297971,-0.0129600671438215,-0.00447396297681777,0.0757522073818844,0.00581435990181764,0.00125025179767553,0.0620606995532627
"open",-0.0026923235606258,0.046195830868337,-0.00357991438490605,0.0138891757174939,-0.0408951247930349,0.0648690182776567,-0.028952665585156,0.00442932968523976,-0.0310060706442033,0.01014703137993,0.0173726814357074,0.0214643442965053,-0.0168974779285476,-0.0335232459272224,0.0868091245309022
"school",0.000826805337014852,0.0735504643369913,0.0169645841555834,-0.004531952076224,0.0538871417003374,-0.051926087245266,0.0208990911352143,-0.0457030242055025,0.00142192747590504,0.0470924264752351,-0.027201964566834,0.0101888295230327,-0.0279914621082849,-0.0311906684916397,0.0304842269041407
"fall",-0.027168248453956,0.0638203145769553,0.0331418995888415,0.11430130153089,-0.0431804252137563,-0.0247541099719886,-0.0370278996417826,0.0065131889225741,0.0361776109579742,-0.034995916918762,-0.0188826579985566,0.0469780729101286,-0.0385983824926325,-0.0574920024264663,-0.00281933089166776
"semester",0.04973723348594,0.0767113013114252,0.038979160018365,-0.00455954224946567,-0.0108258635774315,0.00784649377226334,-0.00959558043017919,0.0060997979421633,0.0546803756604384,-0.028349418532006,-0.0259405945727124,0.0524710013297269,-0.0794027179760952,-0.0756934100927022,-0.0362191799186923
"laugh",-0.015234286261859,0.027582167326631,-0.00226206934974051,0.0199236384638966,-0.0240118630948836,0.0135675965592879,-0.00749021369626622,0.00451618330497914,-0.00780243371509244,0.00182805367558544,-0.0453648848323856,0.00232515034106626,0.0372642512433963,0.212704744665066,0.002283451597839
"apartment",-0.0275867181491962,0.0280496124948734,-0.00513509558769273,-0.0227983255268256,-0.0104748131645632,0.0133540714022409,0.0313989873294718,-0.0102867720338996,-0.0773694958531321,-0.0311133724144364,-0.0147674521658121,0.155594476287942,0.0757490783038097,0.0150294993163218,0.0972145120826291
"productive",-0.0217094916276126,-0.0315326199687223,0.00338125834010185,0.0244163091488242,0.0661778236033762,-0.0561845865578394,-0.0216752798660144,-0.0109796083162697,0.047791952390045,-0.0176513966099235,0.00865366339136303,0.0340016693000518,-0.0308017361128461,0.0186905758685124,0.110803148264253
"together",0.00333712081317417,0.069633778635865,-0.00279645917077614,-0.0263699878264452,0.0545449067319962,-0.0389138170783205,0.0154551357853777,-0.0317344368568167,0.035930830725121,-0.0557940880402731,-0.0252307197958997,0.0396993478018251,-0.00286375783766262,0.0351772762560955,-0.0506721476532598
"stuff",-0.00744519890588842,0.0045424522223212,0.000253953636422297,-0.00737335087978209,-0.00083848551933817,0.00289172797154251,-0.00240293203793309,0.00896727663533572,0.00960762523020933,-0.0184798189130982,0.00737781008936798,0.0884292313106146,0.00795274023365797,-0.0350828945694002,0.00804979989929363
"explain",0.0238936741215881,0.0162476438340613,0.0111191412564729,-0.036845447065192,-0.0413357350429182,0.0358091798479725,0.0104608788426738,0.00432813270482561,0.0379309265012085,0.0214225328867892,-0.0184827921838584,-0.0144009014995672,0.11151814377209,0.046817201484654,-0.0730304488484392
"walk",0.0316364115769305,-0.0551114140649874,-0.0330140028973017,-0.00532806041551029,-0.0145538216416436,0.177540156359287,0.0320758454512788,-0.0101685008932539,-0.0245303919969483,-0.0480998037097478,-0.0181759274613934,0.037053990330005,-0.0385500116872527,0.0187419230728197,-0.00423728125066592
"easy",0.0474721647045756,0.000105381999470974,-0.00617681646842072,-0.0320663898852921,0.0412620950350099,-0.0207933670924727,0.0133358416817939,0.00512885829955339,0.0138237557840427,0.0329883793802019,-0.0258282051986951,0.00392804176091672,0.0121564348879194,-0.0244278089904024,0.0629907971497267
"spend",-0.005939757909015,0.0498923022912621,0.00795626802119813,-0.0239762034681933,0.115211901314437,-0.0544031370733341,0.0189025343561206,-0.00931500963670492,-0.0243875946705678,-0.00862687949869041,-0.0378838765389512,0.0243918334897075,0.0135921791849097,0.00763051225478712,0.00813483168388615
"funny",-0.0113786810332658,-0.0194020577846985,-0.00660455826031991,0.0142451632694988,-0.0177044613351572,0.0168491462672679,0.00596025312136249,0.00707122638397104,0.0111176498424076,0.0272875364370897,-0.0439212181503845,-0.0423702195321397,0.0403952120908312,0.253320608440458,0.0306274755561643
"house",-0.00725612519297155,0.0547064451547967,-0.00885874173251385,-0.00266158759365688,-0.0199957106071847,0.0116529264379167,0.0174363335160803,0.0377263789399954,-0.0419021413924539,-0.00826954081110427,-0.0398531372037106,0.120541489179116,0.0556766227142186,-0.0661297352437261,-0.0278588661137037
"group",-0.00174453133116996,0.046655998562739,0.00925662150728311,0.00336070944144956,-0.0603274225657995,-0.0374755694079001,-0.00450074515855015,-0.021223560393514,0.138306345014886,-0.0444317492161876,0.011639528684675,0.0588873931711354,-0.00489056941403157,0.049032231994464,-0.0387081502360417
"surprise",0.014115293589411,0.0489317904209468,-0.00561413116547768,-0.0176592300268564,0.00532826005752108,0.0740102412803573,-0.0409508366102256,0.0128482346350087,-0.064595078864522,-0.00651739505243181,0.000396537443976791,-0.00805273109134887,-0.00958774590447213,0.0271900061456084,0.0361361690729983
"chat",0.00193565655082275,0.0397201644791472,-0.0118756575983472,-0.00700242846079261,0.0576796416424292,-0.0111111635489296,0.00727009925712598,-0.0347348016402188,-0.0397691042927286,-0.0319600865063885,0.00231209411202953,-0.00128838899980567,0.0104903662386471,0.070755892541835,-0.0395937763102821
"life",-0.00254835516451829,0.126187210636794,-0.0075922970723488,-0.00862285929531387,-0.00748643006188062,-0.0625724269784401,0.00921410311171488,0.0140956845569295,-0.0187257208812884,0.00313599566900025,-0.00202742449350332,0.000130613295928128,0.0242699023683669,0.0205227637230443,0.0199722513041246
"lecture",-0.00218910620857891,-0.00451392986135595,0.207743219684122,0.0232179116451325,-0.0340877641683405,-0.00578531748476203,0.0220330073838679,0.00419420958101577,0.00126674724970854,-0.0302856493876562,0.0174616722018456,-0.0130175403388033,-0.0175058742217457,0.00940554214095571,0.00780711367488105
"fill",0.000830186436478191,0.0297156022561395,0.0502150908415047,-0.0172392145347331,-0.000881953753189831,0.0380135859494648,0.0328314332006033,0.0166560158385246,-0.0146056261902917,0.0282055679284977,-0.0101581273279046,-0.0190537933779524,-0.0112536635342261,-0.0487903089730704,-0.0369306825222837
"pick",-0.0140864072974145,-0.00811607608338924,0.012269829204483,-0.0521793676691832,0.015936104317376,0.0970222546114877,0.0308889950731936,-0.00513042515999526,-0.0315491141769747,-0.0157576371890949,-0.015447580525838,0.0272477057661395,-0.0171998192374404,-0.00728259476484289,0.011256679608754
"emotion",0.010524086984772,0.0311819313485782,0.0198102776994684,-0.0103447308555091,-0.0132729429045688,0.00621430533176237,-0.00898185770624942,0.18831056389269,-0.0148364448012838,0.0435784047806135,-0.0320421027086375,-0.00898547516813338,-0.0133282099573447,-0.00127645856208034,-0.0379773493655778
"hard",0.0288107260073056,-0.0158213070623028,0.0347807274610765,0.0150625106462194,0.0451774743946624,-0.0384855948167152,-0.00235032596460746,0.0183323274679611,-0.0114479513473658,-0.0123169752332274,-0.0191020447395733,0.0292803771073958,0.0686260317929457,0.0648186821374613,0.0205112045693449
"problem",0.0412045971007651,-0.0126603483049098,0.00504494560209009,-0.0135744642119175,-0.0073128373422371,-0.032849245842627,-0.00103953259871021,0.0420840341673174,-0.04107672897334,-0.0231663294489228,0.00745583150916781,0.04757451869695,0.181859358524365,0.0340268324872113,-0.0434876371894395
"content",-0.010143534765884,0.00386349974650181,0.0666468280833347,0.00833011351208901,-0.00150316939565129,-0.038454939401917,0.0336108813410528,0.019098562911414,-0.00590381560843171,-0.012809500734897,-0.00786247126286838,0.00441700856012332,-0.0176330749348353,0.0827000330636666,0.0358276895767196
"amuse",-0.0202849258111737,-0.0084076894321474,0.00429931478118956,0.0297544883418849,-0.0321633888845481,0.00405282014631674,-0.0137824806889324,0.00461245182059635,0.017660975790215,-0.00499502171381371,-0.0107562527719084,-0.018704624897814,0.0148872112151501,0.212133583984258,0.0329888189323915
"mood",0.0267394696129298,-0.0294778779906547,-0.00373083697384044,-0.00211238597557944,0.0812781413243576,0.00375869036385004,0.00715533679383253,0.00292965635921789,0.013601675325145,0.0046428397931904,-0.0211987064295642,-0.0677159824665596,-0.0132996206723342,0.146568650229562,-0.0287602551755057
"night",0.00372413816807704,0.026245046271167,0.0106162752553209,0.150898164798616,0.0218828959159466,-0.0439592971699789,-0.0112936514744586,0.00137282602563403,3.57794250024062e-06,-0.0185597701129778,0.0036291805924422,0.0142622587451923,0.0374259817508247,0.0191989186332686,-0.0669374430929376
"video",-0.0121369301367999,-0.0309868208114364,0.0190306298010908,-0.000987635729438221,-0.0233875698569074,-0.0215505234704041,-0.019381220897937,0.0257977885846872,0.0413076966228151,0.185035818442739,-0.00159400570168003,0.0396219398676985,0.0084663964307461,0.0323080286959527,-0.0655979795997461
"sad",-0.00621079310342227,0.0864051756667022,-0.00237543552849971,-0.00133862582328187,-0.0122244249244588,-0.0122077953434033,-0.0487518235600544,0.000959713676747013,-0.0861372195893964,0.0166789153523858,0.141105483483946,-0.0223871546644718,-0.0183117437192339,-0.0206872162429685,0.021566075021984
"past",0.00369755993431289,0.0711078449939395,-0.00245940495583362,0.0281108396094355,0.0385244087304135,0.0157710730267579,-0.000225309799672407,-0.0237023021631379,-0.00703951077855925,0.0155867934067544,-0.0216767742773936,-0.0682487127171378,-0.0303793055593438,-0.0516277040929668,0.0290727162858951
"clean",-0.018603380114272,-0.0175458146747788,-0.0221036897970829,-0.00930513539319243,-0.0125122878757828,0.00214855525771499,0.046316340084314,-0.0325759068623049,-0.0143308370973166,0.0370275026245793,-0.0248642276178862,0.124462797382706,0.0876990349102057,-0.028624324135613,0.0674030250965935
"calm",0.0440706915882934,-0.0562773773134163,-0.0322160381116971,-0.00883899788001535,0.00638253997383205,0.00338306733038725,-0.00661493296918304,0.102772855160792,-0.00357562458965757,0.0290925781278091,-0.0226814273909999,0.0160682147921853,-0.0606424282576115,0.0952725603832375,0.114042236309971
"angry",-0.0209957719118247,0.0373458702346548,-0.0269207786638863,0.0225331276973003,-0.0648246129222981,0.0299648680849311,-0.0136347999510811,-0.0175742419311259,-0.0231209956089722,0.0103482151140101,0.109903189035282,-0.0113167432419838,0.118378446799169,-0.0402774118791137,0.00168695961686738
"sleep",-0.0381519951322172,0.00971625578809939,0.0311019010844076,0.232297526826869,-0.00626138167599413,-0.0732199209999964,-0.00930676941950525,0.0370450858877125,-0.00932253127337959,-0.0219142611349308,0.0284645840769953,-0.0406149809963897,0.040942111151442,-0.00668369956981957,-0.0513881303283699
"coffee",-0.0155023953773445,-0.0125191852302708,-0.0148932434487732,0.0311114980775049,0.0513132060528534,0.0381314833244942,0.0430771992093847,-0.0188990530572352,-0.0120140197419406,-0.0218134533076524,-0.0161477268875925,-0.0550976413665395,-0.00546934291823887,0.0396488017632279,0.0124314999608017
"couple",-0.0112321356085263,0.0244029352197637,0.0263356709494347,-0.0121074489114824,0.105234820617469,-0.0102554036813397,-0.00227155635586303,-0.0422979191103543,-0.011485946846057,0.0204263748130109,-0.0234014811474304,-0.0143482845863074,-0.0342132402911372,-0.0224786321544155,0.0482820430323726
"game",-0.0253183899563046,-0.0669594741203552,0.0308949456458953,-0.0438294412602616,0.0109125634639273,0.0285051133214543,-0.0784162905472025,-0.0252544300080991,0.113714332846747,0.127008283364347,0.0472119222851768,0.150448882416114,-0.0145259812318859,-0.0386428545104916,-0.138762092284484
"topic",0.0202270669788209,0.092928094135167,0.068987477232051,0.0140128978991789,-0.0814375941926622,-0.0762298464309384,0.0215053048681583,-0.00539242085992049,0.0690367495366985,0.00554228024495464,0.00931939823234769,0.000268959936434062,0.0356815395771086,0.0200454954029188,-0.0116399462982256
"listen",-0.0482875170800335,-0.0247211156444482,0.154925324152035,-0.0112417464252536,-0.0222006780114606,0.0230576799345559,-0.0254967818454358,0.0673690968977379,0.0330896016179873,-0.0515303123725108,0.0742304832446582,-0.00501360709036728,-0.0898617046913466,0.0796832204928119,-0.0185694327072701
"food",-0.0256866340158187,0.00514785679126371,0.0267405719360404,-0.0449352558879473,-0.00480502102563625,-0.00635685843363113,0.256258977881772,-0.00123695752707455,-0.0155805206079758,-0.0184428355559367,-0.0183013376293015,0.00173840800656805,0.0253781502634697,0.00618096880512501,-0.00598638963616811
"confident",0.0946507311480509,-0.0152367592374746,-0.0168910507531465,-0.0380899925128505,-0.0199605193069532,-0.0018512478111844,-0.014820451984207,0.0734948417687936,0.00900506453882848,0.00625150419716396,0.0139365120463214,0.00729987143325019,0.00600463817493941,0.00392972763962849,-0.0344708094102519
"bore",-0.0378126035816483,-0.0341782035835513,0.107785774313785,0.0251139295507933,-0.0241911572950084,-0.00121564766200096,-0.0447450711688497,0.0617505133216077,0.0232014745511793,0.00274566662685107,0.021339874850433,0.0276648082095313,-0.0283873516270342,0.0534226678570083,-0.0301130673900091
"wear",-0.0251593382910998,-0.013701269219633,0.0133494796375526,0.101581640400776,-0.0277368347640635,0.0356282221935019,-0.0254812626495621,0.0252876758138864,-0.0368192781163713,-0.0028687163728291,0.0188905306857625,0.00796379993360892,0.0136271105995725,0.0245888856563433,0.0138919588449635
"pay",-0.0984990189371566,-0.0290724153306511,0.274189970627839,-0.0234838275708676,0.145382111015867,0.0259454386730807,-0.00629410458182983,-0.00793103476842248,-0.0884819751625522,0.0277420308296156,-0.0453229434208317,-0.0191756614694476,0.049623099813114,-0.103615840011682,-0.00598661478632789
"attention",-0.0911392751436875,-0.0487747013307968,0.27816077549957,-0.0277567429212396,0.137191818019494,0.029690968864978,-0.00543425004577329,-0.00510072149833877,-0.081975673315177,0.0479228975959617,-0.0441035394987682,-0.029364342372968,0.0537426954277663,-0.0778070565298236,-0.00242063789063966
"dinner",-0.0058752089917229,-0.0133553833938583,-0.00422882426620263,-0.0096756937030307,0.0144235219558409,-0.0134396928746505,0.0909343849597993,-0.0212672085795956,-0.00529012911641499,0.00767137549822922,-0.0602681182435806,0.08920726252543,0.0650318995964337,0.02832553942157,-0.0389604177051133
"professor",0.0807171796532539,0.0079626037438752,0.173486283833091,0.0097119837014458,-0.0903027952409834,0.0311101581468094,-0.0083442656383113,-0.0128296351852636,0.0400030856783533,-0.00329324730349887,0.00881390369003795,-0.0266262076850797,-0.029253443306902,0.00700152851323345,-0.0266063279135551
"material",0.130480117528079,-0.0096885497807592,0.0683521392686716,-0.0119349641506308,-0.0172113945058788,-0.0383665677840317,0.025727050326834,-0.0238832133908595,-0.0144436598705256,0.00792215878781996,-0.0356429655123825,-0.0184300807441194,0.045016213653569,0.0202372492380071,0.0176480554406906
"confuse",0.00720268850316156,0.00751198987701303,0.0473760126639358,0.014589755427569,-0.0372831285292482,0.0201220678016667,-0.00697854318414382,-0.0156517686354731,-0.0273807735278369,-0.00837629851647413,0.00734140547823513,0.0098191238033907,0.0845848252357901,-0.000256027128488973,-0.0293978235226964
"relax",0.0513008326562466,-0.0565217877976783,-0.0374583581497253,0.0292440784719617,0.0377258943260272,-0.0323981450576583,0.0175272715979658,0.0358414274650462,-0.00267833426494281,0.118730898241532,-0.0134411361496624,0.0377658303716049,-0.0846548395033212,0.0886762534547583,-0.00243721997306227
"hungry",-0.0233750972268617,-0.0085995045714306,0.0261044928992063,0.00699359401309579,-0.0734161685761768,-0.00691801160613034,0.259709693442029,0.0422609050378249,0.00805174834008266,-0.00649010427583186,0.0429469057443692,-0.0386782408453055,0.0116646819559873,-0.0427944096545869,-0.00716621425951396
"shop",-0.0342800126059919,-0.000816848183268051,0.00574799724607933,-0.0221629992636662,0.0787963896799073,0.0126945433276274,0.00395438863391635,-0.00101267982567498,-0.0621468135835865,-0.00304525768826775,-0.00420036197588142,0.0114373457424993,0.0198064188614249,-0.0181808602256959,0.0257395488171512
"library",-0.0147952791728735,-0.00214516417502721,0.00723500607127027,0.000823058033016797,-0.00592638910044295,-0.0364641693631456,0.019547146960555,0.211258355926094,-0.0268918698004582,-0.0670266830624266,0.104500498425048,0.00176619525704418,0.0149451810001416,-0.0398509502004316,-0.0286823335885408
"music",-0.0287164973987483,-0.0672584955299555,0.0659052822260652,-0.0128598904448775,0.00267233714926057,0.056721362307315,-0.0573936319750925,0.0820710499894586,0.0380121823595715,-0.0296999865240723,0.0835345371611751,0.0752750287120302,-0.119276538395912,0.0551119961325011,-0.0456313686744246
"movie",0.00086959627072069,0.0400590066956843,-0.0229672989550376,0.0202250136984903,-0.0223425042288427,-0.0375705509319717,0.00455510019397259,-0.00977627706931033,-0.0284519948686065,0.111120398104961,0.0252188455188444,-0.0459952578936347,-0.000569186241363195,0.0288824484884192,0.0270318753984375
"homework",0.0267152011927267,-0.0662278522791651,-0.000425068263388545,-0.0219154696102608,0.0605195965306692,-0.0591401711665075,-0.0259642136898404,-0.0273325508210212,-0.0558350182994936,-0.00278139169958103,0.181011854541986,0.0738114746028941,0.0549325325649722,0.0327209398321307,-0.0484458125223145
"grade",0.138406117944362,0.00714348361200962,-0.0175819222515949,-0.00164849090686452,0.000460353255787679,-0.0348020296332658,-0.00219928612240935,0.0293112788348709,-0.0114852706216124,-0.0299751897956723,-0.00364394073679591,-0.00138883485063292,0.00363332574380888,-0.0277607163433413,-0.0173613822933634
"neutral",0.00798252622744494,-0.0186051805682267,0.00993723578347389,-0.0129893920727605,-0.0116144913117823,-0.024882016896558,-0.0109812845922645,0.104943883798015,-0.0124539328720929,-0.0381259976826523,-0.00225938756582718,-0.0175393709103137,-0.0372512061350173,0.073772002722054,0.0352407981672198
"love",-0.00442934288848379,0.104581119623772,-0.00640720966254018,0.00635279674905014,0.00879227116576007,-0.032381716395595,0.00228712670468098,-0.0125690221839792,-0.00544597257844682,0.0409097607905444,-0.0151152908353336,-0.0382199509396786,-0.0209341436151488,0.0277451848732972,-0.0177589670598614
"bed",-0.0160143286410032,0.00293000656926844,-0.0132934719562063,0.16729709738188,-0.0232559851555321,-0.00618230574544635,-0.042165216335329,-0.0360227791296926,-0.0315829948551132,0.06316305838405,-0.0528750164214224,0.0439472299713863,-0.000294464657117133,0.0378461694970837,0.0490993591647976
"wake",-0.0221850763851335,0.00381239674138912,-0.00974967061590554,0.250072629958137,-0.0287537932801273,-0.00448227204577668,-0.0211388925099838,-0.0339713538035976,-0.0103633194822026,-0.0228483498776928,-0.0154059665011235,0.000908232086628094,-0.00552302318765253,0.00552417766390315,-0.00511578984676873
"hand",0.0243638032936066,-0.0167664474042317,-0.0067540447066785,-0.0165025484152782,-0.0321588756386252,0.00370081115943546,0.0207728645093358,0.056301241980187,0.0635988050538548,-0.0132431389556893,-0.0570476434249354,0.0547643514740712,0.0290349808445156,0.0259637824692529,0.0603951307827029
"midterm",0.116906235932255,0.00739876455667233,0.00659812986444183,-0.0245032512970552,0.0316325627486953,-6.14927258678734e-06,-0.0112296219698913,0.00605078872249561,-0.0436434598629348,-0.00375354942304492,-0.00531283927040355,-0.0596976594554139,-0.0507717503242856,0.0291086393187949,-0.0389071318801094
"roommate",-0.0278756493510227,0.0499043187188716,-0.00434017412424048,0.00294500092876721,-0.0165391820435951,-0.00140334309693198,-0.000901714166230493,0.0248524328897775,-0.0677937233103785,-0.00936777690450295,-0.038192211674501,0.18102947659852,0.0732324684773202,0.00709352233444999,0.00490512719457049
"exam",0.185904496695135,0.00862377374564856,-0.019586524088097,-0.011114636908552,0.0188954329187456,-0.0390273167632477,-0.0142023617719093,-0.030050328678303,-0.0827311208173601,-0.00719299758596348,-0.00475838947408668,0.0328123669399147,-0.00813988622057981,-0.0124661696699585,0.000124402406008133
"assignment",-0.000882192788517774,0.00847875701484036,-0.00796885604531324,0.0353618541630203,0.0745471905780022,-0.120571598484103,0.0327017462264896,0.0619165311187261,-0.00466481426643419,-0.0217910745786073,0.00760508375121304,0.0424617597693322,0.101916047815673,-0.0736720762597946,-0.0193165721978667
"quiz",0.151878302551752,-0.031871543573294,-0.039010477385774,-0.000697504132017817,-0.0187823187383081,0.0338208796029985,-0.0184255538882271,-0.00247070753122905,-0.059573530287913,0.01647535211564,-0.0056182628598195,-0.0534991581949865,0.021907588505023,0.0655640846621168,-0.0256200141518569
"nap",-0.00866328290364815,0.0216737537967856,-0.023890291750149,0.205387870449776,-0.05478624446275,-0.0037756412808436,-0.0689692009079882,0.014610641700463,-0.0402417875513496,0.00528540807817658,0.0192363572140698,-0.00699336788503119,-0.0194752899962598,-0.00250212042731962,-0.0228656881325863
"television",0.0191017138789216,0.00376394307114815,-0.0145681348087064,-0.0169811353713266,0.0140482781799828,-0.0254857874768925,0.019794483894943,-0.0245529974998086,-0.0421087236649795,0.258602493467644,0.00181315786455399,-0.0120269494197916,0.0136403962170022,-0.0420703020618977,0.0271637524862863
"dorm",0.0477246998803573,-0.0287502324449368,-0.0170997356527205,0.014219708108435,-0.056985018975404,0.0791588474399306,0.0154393409092629,-0.018605691826629,0.0107075004352544,-0.0140811163405606,-0.00661752784003627,0.12729151552941,-0.0510052153435452,0.00135130656161886,-0.0687001593037154
