"","RC6","RC2","RC7","RC3","RC9","RC8","RC10","RC12","RC5","RC1","RC14","RC4","RC13","RC15","RC11"
"relieve",0.0476129909980433,-0.0237735867158889,-0.0118961056483624,0.0419329843264024,0.00833894748525971,-0.00544766106873071,0.0360338104027152,0.0385507454950128,0.0501247617955468,0.00714489479309958,-0.010764861106162,0.00141958505837139,-0.0280729196484712,-0.0883215298352585,0.0249464742263579
"frustrate",0.0172450155413312,-0.0347509084123267,-0.0178228356196834,-0.0107573279052662,-0.0469066491846115,0.00344606284276016,-0.00193073696164231,0.0268324122053541,0.00559996914591986,-0.000541882295686967,0.0118589087725793,0.230665615332413,-0.0153275357793691,0.0339606007839719,-0.0355896016936135
"long",-0.0135571879294284,0.00172756286543899,0.0247618042064572,0.0176220718326354,0.0273728957680881,0.0484856933778567,-0.0307411467677711,-0.0345405374821154,0.0409921709955401,0.065702966496646,0.0442802273566986,0.0123332951960394,-0.00148308024332371,-0.0198560704803097,-0.0191387387062823
"happy",0.0174325748325106,-0.0390844010709043,0.0451743009319769,0.129256633007673,0.0779738535080983,-0.0444695829448736,0.0144121121872918,-0.00920763411164809,0.0474477994691206,0.021811668301836,-0.0075577962203443,-0.0788134312897869,0.00940233073341081,-0.0512606357173152,0.0909830402899784
"issue",0.0054731728324268,0.00333817078818972,-0.018933871385217,-0.00214679799422655,0.0131022580718409,-0.0126551227455153,0.0486277851105732,-0.0334815564396057,0.0263655821031693,0.0626460921334608,-0.0308250370131122,0.106515602789319,-0.00592301254243844,0.00594379853061916,-0.00072941102075712
"place",-0.00320179291482212,-0.0258353955524113,0.034268243860065,0.00755268290959037,0.0361017859666847,-0.00439591288970275,-0.00555016435966273,-0.0678873700242035,0.010308826870865,0.0240690134894495,-0.00611985304629379,0.0736752395349276,0.0272324252176745,0.13219285255298,-0.055479815956458
"work",0.0201343151799405,-0.100134688054611,-0.00775972539360526,-0.0405065254269353,0.0457828513642431,-0.0314772805365478,0.0378428876211648,-0.0388956653843924,-0.00590439059415677,0.108435513682481,0.186706991706065,0.0382719126662473,0.0467278263643878,-0.0490619484031673,0.0662475663901987
"email",-0.0532885897737094,-0.00683769430942361,-0.0254730469613428,-0.00546214254573403,0.00815773185470577,-0.0617793508830873,0.0260768924426492,0.0423059819974403,0.00238132115005957,0.0935704136057918,0.110799640556883,-0.086776744292967,0.06540243770857,-0.0675029240767961,-0.10591516355146
"lunch",-0.0127345850448076,0.0102035746096662,0.217324976429067,-0.00666984808031428,0.0304950517360708,-0.0725492042522697,0.0276723484781738,0.0090997344942475,0.0223429808183653,0.0104680606392155,-0.0600520696433853,0.00921394614338713,0.00799265399653556,-0.0439906540111365,0.0225572267087065
"class",0.0484924720539952,0.178256310248255,-0.0108932970382817,-0.0283411554551164,0.0421399869686739,0.0581325744875022,-0.062622332297169,0.0921189634191282,0.00209015107030227,-0.0911524155430079,0.00456902477844561,-0.0595523399323897,0.0090227060508313,-0.0442469377637911,0.0215958954688399
"call",-0.0165886264141626,-0.0157845499289651,-0.0215636895984713,0.138151311005811,-0.0160612754551854,-0.023665768276648,0.114605275144322,0.0486727271401815,0.0464258405870321,-0.00916596711132093,-0.0600812652687026,0.0102402371387728,-0.000511081373468211,-0.0677933665623383,-0.103339890882442
"study",0.193411887653965,-0.0505014778129458,0.0411434271886495,0.0370654251047724,-0.0501999850141692,0.0055349433768849,-0.0306695454450015,-0.0319815181556795,-0.00941790385880482,-0.021243682901589,0.0473820660433115,0.04453827626234,-0.0249168665060244,-0.0244399039077681,0.0271949953871797
"enjoy",-0.0291722045344995,0.0842340364857058,0.0923167154421263,0.0549941766484451,-0.00750121224220266,-0.0257084030968723,-0.000526368693339086,-0.0373385474547849,0.0876705789067736,0.0428766991237803,-0.00260197858004511,-0.0585881183772813,-0.0174244216822857,-0.0147803888122992,0.00101517916923407
"thought",-0.0184849635047705,-0.0028720315237737,-0.0224965098780702,0.0759155870883499,-0.0750381486255395,0.0286946330017801,0.0374865923397032,0.0382868457055913,-0.0353421041456202,-0.0114834718156374,0.0862327624517654,0.0320303838042512,0.0106297139627304,0.0861282277484297,-0.026638499571055
"learn",0.038504125460633,0.0922054770728979,0.0279672594823803,-0.00841087916541747,-0.0105129431080193,-0.0122908709657977,-0.0258928894090389,-0.0818338295308921,0.0172959113440296,0.0217884902212078,-0.0232982985531609,0.0996955466214683,-0.00187620733637993,0.0423646307302254,0.0265286783544655
"question",0.0862887055867722,0.0998998243734051,-0.011294444240464,0.0322430424906017,-0.0716762975144977,-0.0872179131949536,0.0348011628129433,0.0418498611310216,0.0633444975348848,0.0635139007055242,-0.0641186021983288,0.0897049232386442,-0.0751077964236199,-0.0796861375678612,-0.0518286338732101
"move",-0.0194916049446382,0.0437192817619546,-0.047319700219507,-0.0739201503031201,-0.0106332062936338,-0.0209291519972042,-0.00754102623845528,0.0229118456694598,0.0241289715817982,0.088102789527885,-0.000939969707322785,0.0610011111192467,-0.0305108641657294,0.207578650147016,-0.033457653667243
"answer",0.0204194951648403,0.0752353668312143,-0.0160113931312473,0.0508096547228215,-0.0802734779444548,-0.0910935521560133,0.0673253216998785,0.123504246605147,0.0704383220255535,0.0721612658761271,-0.0845518259683438,0.036017745732133,-0.0318993781980574,-0.107956691554196,-0.0940051953983872
"discuss",-0.0392784183008971,0.107280827406356,0.00779304235699962,0.0247175559869211,0.161566184698368,0.00736335014831432,0.0293616022317047,-0.115944373983337,-0.0261797396153462,0.00315570975284606,-0.084511566049169,0.0403392230484642,-0.0576113960349311,0.0443197336284822,-0.0489865898601267
"prepare",0.110440739259029,0.0273073501544335,0.0628981000240751,-0.0625793925095514,-0.0232662415401733,-0.0629493321828357,0.0727138482755486,0.0270922217430344,-0.0133576611620324,0.0127498980219368,-0.0596054510833973,-0.0190375089359427,-0.0365035272040715,0.0843681326516971,-0.0478963463848712
"plan",0.0031368612672714,-0.065650055039545,-0.0343777152894313,0.0137812316724035,0.179163260255693,0.0167823714761287,0.0519961469435469,-0.0119056507388038,-0.0562451307978181,0.0102162685989597,-0.0396809898052155,-0.0576218548918629,0.0662450242680855,0.0450293097478847,-0.00398212626772772
"complete",-0.0249985993268309,-0.00615563544871483,-0.0114142024430478,-0.0461532874813651,0.0267942914835688,0.0116238708818689,0.197051943921596,-0.00224281011912812,0.0364730167666712,0.0281554473704095,-0.0138679243512897,0.0644709583710776,0.00605763247324001,-0.000871472641649726,-0.00933883247584088
"task",-0.0417320498440709,0.000589014473772162,-0.0306221355794103,-0.0635804010833551,-0.00519813972969176,-0.056501293233215,0.149632100903267,0.00796280793096401,0.0149602187893606,0.0781219840353168,0.0388716285982015,0.000203345486189124,0.00771514967254382,0.0355494843196692,-0.0206555013651906
"train",-0.0299320379932651,-0.0361325344596332,-0.0309865953647462,-0.019666747646134,-0.0386722392445984,-0.00832890820998817,-0.0266602427410617,0.0341439925304192,-0.0337072604281417,0.193537387290381,-0.0124925525517091,0.0326599547298887,0.0253174435198222,0.0396983145899083,0.0206440936654508
"day",0.0261671414421735,-0.0115172076799977,0.00143450945276697,-0.0124019189388981,0.0416683770455918,0.067964055685995,0.0427174158614356,0.00837323819438735,0.0184235074659564,0.132591412482025,0.0090752615553172,-0.0700064901720044,0.0109222633602097,0.0184811631085615,-0.0294590530917198
"start",0.0157922559470778,0.0252846057912186,-0.00482522524196844,-0.0347133339865516,0.0493298435401967,0.0234764281730299,0.0569956217234014,0.045965526027733,0.0228665605387454,0.0173953703000001,0.0326336124169023,-0.027256256417647,-0.0179907481793835,0.0745083883387204,-0.0103285785461447
"conversation",-0.0176643234926829,0.0183229746954411,0.00981429287234662,0.176629542689043,0.0366095109589293,-0.030308830562521,0.0304617591594724,-0.0393435331478533,-0.019413016477985,0.0334616905814931,-0.0436687290883084,-0.0202700337359517,-0.0020004131825174,-0.0565993511446987,-0.00822099501991717
"friend",0.0257409864517606,-0.0629968575342855,0.0185921905663783,0.145360002917122,0.146476690760816,0.0277126288916017,-0.0238287258784045,0.0208755711893747,-0.0194798220611263,-0.16552328425588,-0.0340854229354819,0.0363139622895359,0.0394839922726936,0.0278235720696905,0.0253303923864171
"weekend",0.0723789150473334,-0.0750336742043507,-0.0403788152397189,0.0194293357188389,0.0887105423530896,0.033235338038873,-0.0502116337912516,-0.0406352178526801,-0.00954292065986058,0.0812797792194625,-0.00420908439953067,-0.0569194101651481,0.0410371269480393,0.0287110961035148,0.0796159013801704
"stay",-0.0227752122426642,0.022536453811991,0.0211502907331057,-0.032412493735929,0.0325103226644921,0.0419994262184431,0.00390183736288127,-0.0173800243800744,0.00197714919579757,-0.0161002643627093,0.0149076948867684,0.0297786157542245,0.0915717748752189,0.0925745625230058,-0.0279748926265789
"excite",-0.037936659988856,0.0314734631998057,0.0142206831238096,0.00668380651143558,0.166749505516964,0.0044553645261405,-0.0475078739783851,-0.00142300511363715,0.0207338063315691,0.0138419800882511,-0.00488598137051146,-0.0694601486790227,-0.021084818488862,-0.00024445655444478,0.0512484407712369
"schedule",-0.0253272004157137,0.00358496393867078,0.0184279541570121,-0.0204958984949726,0.103666096921687,0.0799741113464967,0.0324434205570208,-0.0126684622649899,-0.0273915834559348,0.00782546606700051,-0.0105739202536433,0.018024459184306,0.0364415404674561,-0.0850954159151418,-0.0803761416934324
"watch",0.0104668432952112,0.00560510639601808,0.0282815954353883,0.0323151425102001,-0.0742676751843,0.0531747347352408,-0.0086321529327899,-0.102297816589377,0.318023336346356,-0.0281434390763783,0.0100197037408537,-0.0311372211164405,-0.0108529314951903,0.0108841387127977,-0.0968345932385275
"late",-0.0288228477551782,0.023642946240761,0.0263363869592388,-0.0386097927249759,0.0175940481509444,0.132578548615156,-0.0291669533621728,0.062985107623458,0.00429148879100245,0.0205867662399045,-0.0278857985761939,0.0648614783719817,-0.0467743763710307,-0.0476362424830419,-0.0809783790072647
"job",-0.0282183612904791,0.0129404096636003,-0.00808434761372883,0.0260178404376255,0.0595881022844876,-0.00708867815488615,0.0428789710483073,-0.0638670646406361,0.024324029836874,0.0616327438154886,-0.0116698718012661,0.058165613312316,0.00674402039477391,-0.0251970633988318,-0.0803611596444066
"nervous",0.089849441006006,0.0307360949170635,-0.0359431972534959,0.0110064435716007,0.0489261710723997,-0.0115940637894012,0.0278144025094487,0.0541883137227742,0.0102197051794716,-0.046737131120511,0.000830529357605408,-0.0724032794702633,-0.0557057263275671,-0.063578833422002,-0.136382891885696
"begin",0.0145850142810389,0.0754426305147563,-7.42366021307805e-05,-0.0592482249610508,0.0168646314790757,-0.0151176245477412,-0.000927290096747959,0.0149436766279008,0.0227267480240762,0.0180472114187156,-0.00516852197631,0.0283288156166236,-0.0135220794324656,0.115863334154928,-0.026399853096553
"show",-0.0213248319771126,0.0299239458700088,0.0127623647992689,0.0157058751671763,0.0156870655080386,0.0394723875810932,-0.0169783613903054,-0.0530447050416602,0.20399801982409,0.0173576415475218,0.0114640655892521,-0.0308531865255928,0.0263190203734598,-0.0132728306234317,-0.141422642976238
"hallway",-0.0133126346787065,-0.0129833785098878,0.0705235048420225,0.00769962979310599,0.0771964335735704,-0.0201233082816325,-0.0598261405447005,0.133038504036141,-0.0107604807272201,-0.0880244536862132,0.0281188342352202,0.0105885693107134,-0.00223534296760879,-0.0810070815392849,0.0127249758111915
"stress",0.160987522003647,-0.0863810180988459,-0.0129807588435196,0.0448311972706455,-0.0151030538597143,0.000115145761248306,0.0094514262029188,-0.0507200980248947,-0.0261220723090695,0.0381188247899696,0.0370647393164885,-0.0530967923609785,0.0510118570985881,0.00253267133421414,-0.0558600502122802
"left",-0.0376602655501914,-0.0286882554656975,-0.00786136803860798,-0.0106956228285672,0.0177712302791239,0.00707290267416113,0.0133074448662097,0.198591872524857,-0.0526845104080344,-0.0382903140556069,0.0213018819048654,-0.000363959915045044,0.00468739390871614,-0.0145278674711966,0.0236046824847546
"student",-0.076329446081398,0.103039317876761,0.0181389919456456,-0.0184587074988215,0.0935525850513718,0.00553390145173931,0.0178501571589552,0.00381538660509302,0.00221481739549361,-0.00348654446134177,0.0297761896816633,0.0640423906209352,-0.0204434316637673,-0.0573394090161219,-0.0990774925330477
"meet",-0.0429399091467371,0.0160112631883285,-0.00231899367044227,0.00391797726027922,0.181790881688553,-0.0213841548627408,0.0116533834208045,0.00852869635220032,-0.032834801676611,0.0608013223614647,-0.0303131798078455,-0.0225949227880592,-0.0291174257224656,-0.0478067424577441,-0.0658052758316664
"great",0.0767507670346936,-0.048930606261974,-0.000141817532947132,0.0321903446370378,0.0391933421183826,-0.0268983269506146,-0.0152629165335032,-0.0652667313237509,0.053312272120407,0.0346922341222228,-0.0122396028477991,0.0145033960577714,0.0299951820424564,0.0541372780041377,-0.00964721802952833
"read",-0.0471955426852797,0.0820457213693391,-0.00728427060240788,0.0277198340966411,-0.0968514029671734,-0.0134941965017415,-0.0108287568084783,0.0176180833058437,-0.0245559965742965,-0.0387021741967985,0.207232395914157,-0.0569471362544249,-0.051788901569035,0.116080514581809,-0.0789832057073257
"due",0.0348865807608233,-0.0518805517849976,-0.00709203901793778,-0.01393171811613,0.0186696145311295,0.0337776145867278,-0.00697663182041841,-0.0215134509785014,0.0257072031413026,-0.0352227557407344,0.183199849477718,0.0444808815615351,-0.00890822628004068,-0.043137144699297,0.00164450474221627
"anxious",0.0760125291273013,0.00149182746570293,-0.0328049548598069,0.0270434002902726,-0.0029200712946638,0.00575693896210972,0.0160394651454526,0.0606497897392391,-0.00176900646885457,-0.0361243263758613,0.0163887856275881,-0.0626490791356925,-0.0394645028791251,-0.034359297479885,-0.145993012963529
"office",-0.0176339134606148,0.0172956558818827,-0.0143190929116502,0.0393521581566122,0.0125915185419331,-0.0183019285966208,-0.0119129695669891,-0.0147183896767635,0.0273547816973733,0.165884813462613,-0.0247744094446085,0.0294993790512495,-0.0240247500542448,-0.0928072440464575,-0.0671439940120358
"laptop",-0.0386074883778293,-0.0237053397179541,0.0117054415665451,0.0265780040900231,-0.0114163617090259,0.0201816108401136,-0.0203176064800189,0.0612771320478963,0.0169079395314237,-0.0911162797143377,0.0931984494350571,0.0560886384916428,0.0159419361432606,-0.0209905219814131,0.0344156895018218
"breakfast",-0.00663805155631333,0.0112546122825636,0.182063242016802,-0.0680378239620065,-0.0259130045045582,0.00296856222691456,0.0152172975615817,0.0264343446786087,-0.00924969506518706,0.0167660685436643,-0.0283881614993628,-0.0245506554826811,-0.0114261271317091,0.0652440528411167,-0.0303542196207409
"hope",0.0435708479749896,0.0180305866330085,0.00503259256624384,0.00601091375173314,0.0193807062788252,0.0232391786927165,0.011488139217132,-0.00151180802126128,-0.0248096003051777,0.0191495469971796,-0.0787751787233221,0.084387630377291,-0.0532608255440851,0.0012746433730529,0.0106075674542966
"leave",-0.0516032400638997,0.0107919382882834,-0.0155874228259526,-0.0541100751629125,0.0268879525186033,0.0307574261996168,-0.00716439239170968,0.108042509081606,-0.0277077414273572,0.0342041571420819,-0.0223378270168876,0.0287218086336675,0.00791973239780829,0.0727761816073517,0.0262252249188059
"today",-0.00469179738122846,0.0166109750077742,0.0401057883705484,-0.0261134634616125,-0.00741422475054834,0.0235296246175312,0.0126038874528796,0.00249072910743996,2.46579565113729e-05,0.117201185485231,0.0340472011859547,0.0514581178522778,0.0114825328310889,-0.0082434790068057,0.0556548283521753
"final",0.0890500031369626,-0.025503738759568,-0.0323299392266954,-0.100010500978289,0.15128501166734,-0.0235510009152049,-0.0262003933974767,0.0149908890781056,0.0405311236282866,-0.0278266069787938,0.035153850003956,-0.0400006593712567,-0.0162035500115506,-0.00762056638989372,0.00816697873587245
"lab",-0.00176037822097646,-0.0245250317774484,0.0202082780244785,0.0180752454106114,-0.00252385544599229,0.0328617878651278,-0.0350949540278773,-0.023772792075938,-0.0437278602557984,0.201925546561509,0.0432772216376658,0.00141547226368843,-0.0248991536331888,-0.0827703398729701,0.0424031673190258
"computer",-0.0130068339092728,-0.0150639533042824,-0.0313185033897524,-0.0269570823734317,0.0166850393590327,-0.0335826714644224,0.00275540392360117,-5.89749793514805e-05,-0.000737338388217259,0.0418375548023782,0.149018395219671,-0.06474231759074,0.0758493856300405,-0.00408935818687814,0.0108023387018452
"phone",-0.0177032306298238,-0.0221246801234621,-0.0320504099157298,0.145565559752452,-0.0835668207707284,-0.0219465162857397,0.0507347899823826,0.098953906360615,0.070698577455293,-0.0203167268477649,-0.0135876803385596,-0.0146811244814983,0.0402443239998406,-0.0621375872085957,-0.0442455117298146
"close",0.0121267436283293,-0.0565382144403141,-0.000933385755838741,0.081609332658465,0.011699985824242,0.00917755990878714,-0.03055718648782,0.067538987619249,0.00797607035794545,-0.079965254617681,0.0127599998641301,0.0698371124734386,0.0633401638474724,0.0213630605385359,-0.0169745501585082
"room",0.0300071997381893,-0.0151865725897125,-0.0519414043818787,-0.0626904555383056,0.00695591956020196,-0.00386429894365243,0.000262615569893455,0.134401328850901,0.0340041627315867,-0.040361185355497,0.0158053456460044,-0.0905906858027896,-0.0317063467140483,0.146332456506962,0.0740300243051
"paper",-0.0357374765633558,0.0230817190847827,-0.0322824499487864,-0.0573824604288667,0.0101860382637277,-0.0589782207398595,0.0136991511006967,0.0117884083981875,-0.0215638522124502,-0.00509274781067715,0.238703659898047,-0.0685891361403815,-0.0326854449300465,0.0278735127499526,-0.0289041156007162
"break.",0.0479870900485238,-0.0439839504776704,0.074338473847984,0.0710010647436418,0.0210713297189203,-0.0110376396949273,-0.0323586692719043,-0.0616261737040774,0.0199268138102517,0.0150162390313582,0.0338601375377633,-0.0414013377069028,0.0662054674415625,-0.0342005949737443,0.0339809767898708
"eat",0.00330701177149209,0.0129384778618121,0.303169739465789,-0.0146439400939746,-0.00743288334002874,-0.048916610350649,-0.042119359231892,-0.00238419339656155,0.0151302062372364,-0.022414558497494,-0.0119198129620744,-0.00731292924257692,-0.0102357790506732,-0.00129769471732005,-0.0118130368327169
"test",0.172911032997106,-0.00253823620613742,-0.00941695743894419,-0.0402579097835974,-0.0370569278461551,-0.0655700281536435,-0.0158159220474759,-0.0216109501301245,0.03898357761547,0.0498554152553604,-0.0359840113070912,0.0612772839271951,-0.0190995265765904,0.0334443791521648,0.0115346411331504
"morning",0.0245049982035422,-0.0157643435035638,0.0592657578621693,0.00655822013109933,-0.0484299989981829,0.114512356779773,-0.0591921886853347,-0.00970503346273117,-0.00238544339067983,0.135921518015909,0.0274341804329502,-0.00337204386161266,0.00469434969210689,-0.0223638455579126,0.00872526238143767
"told",-0.00574051171012711,-0.0288946065772873,-0.0593067182447813,0.134192320488649,0.0156339272660569,-0.0121845738825578,0.0142673395343756,0.0759860855201052,-0.0488218137994747,0.0537310844941523,-0.0406943035507627,-0.00739790960854867,0.0256009874579031,-0.0102999178907613,0.00447222225046656
"people",-0.0526290434195449,0.0323894229115948,0.0509082114820174,0.113668544225134,-0.0453913034266975,0.0100834993694954,-0.0693565509705186,-0.0135105437931305,0.0125970051471471,-0.0149699159067764,0.171529380579975,0.111906240243355,-0.0569952824429888,0.00480328525631982,-0.0128380514454769
"decide",-0.00179627595051787,-0.0504003936786679,0.0228462739963174,-0.0273295414184267,0.036335676793375,0.0176316401900428,0.0474369609939443,0.0533058724728618,0.039910670327817,-0.00771875941974296,-0.0148598680194477,0.00110721187020679,0.0438105464283667,0.0577934078012176,0.0600693093928288
"year",-0.0320013208172282,0.0385888576120219,-0.035730997287391,0.00190139795845121,0.0934515164527993,-0.00369186407174463,-0.0634891972154593,-0.0231186252546279,0.0129744294472905,-0.0268064298933472,0.0991839341703101,-0.00101402256172739,-0.0660343154908094,0.13592495445806,-0.0694340478509403
"project",-0.0608644110014219,0.0149951416488729,-0.0518728181170689,-0.118641953347145,0.154443390377572,-0.0554277539248826,0.130888808464643,-0.0199505764169325,0.0296946387874352,0.0478500264660492,0.0341047992929212,0.00579207639795894,-0.0139390490177217,-0.0414947171533312,0.0708877082656904
"continue",0.0115957165197898,0.0140063529761887,-0.00546881312837058,0.0906702208971795,-0.0754399052773849,-0.000587860308428476,0.0835413795513701,-0.0394803444578696,0.0595634304279628,0.0357572078617836,-0.0176351944953454,-0.0382272076813816,0.0294321967205531,0.0100811303192182,-0.0467833051079445
"week",0.0669963972870185,-0.0221979292497934,-0.0378475345596845,0.0262376544910628,0.062434869318286,0.020109377859019,-0.0308112939687223,-0.011550015796368,-0.00483760703332475,0.106121438708774,0.0194892067600631,-0.0234554304440539,0.0126335875028143,-0.0299399480927451,0.0508831184311387
"annoy",-0.0314740414830435,0.00803391129068009,-0.0378210736930509,-0.0109399061860727,-0.0459940507746636,0.0140742287446047,-0.0457831221991065,0.0338267237931853,0.0108695577242865,0.0853723009345587,-0.000758179559575437,0.17762589717157,-0.0257427415285849,0.0388900915380612,0.0143107279931415
"note",0.0427994914409152,0.109728301304512,-0.0104724706247138,-0.039253079872901,-0.0395420754205925,-0.00968814503619957,-0.0243577898853008,-0.0133827292820665,-0.0327115157765787,0.00939036037554436,0.0834571624603918,-0.0741512792754714,0.0380764826282346,0.0658569150365674,-0.00797378369423426
"rest",-0.017676507149141,0.055267575852242,-0.0342544093909449,-0.0352299428153782,0.00976201618811578,0.13123302620362,-0.0128793744125706,0.00240666529018288,0.00538360347261967,0.0439557497432216,-0.0103730820689449,-0.0503555553099298,-0.0416603569840209,0.0554029070281999,-0.00643429107455084
"wait",-0.0582583172954697,0.011577655198337,0.0435549228438942,-0.029970041293514,0.0405346242851698,0.014598781894842,-0.0303452481180714,0.121830598333413,-0.0169870086932231,0.0296172584657108,-0.0198708824964378,0.00383749887151894,-0.0123093403125139,-0.0152511009049042,-0.0654891783591099
"realize",0.00914587108390788,-0.0435640812302988,-0.029815545714588,-0.0104486858166089,0.0106875576259249,0.018326757569594,-0.00376516970877048,0.0868426893564308,-0.0279639903652018,-0.0209977316944781,0.0597466583177491,0.0348303687977569,0.0567225355260858,0.0334004184142198,-0.0101063777112607
"alone",0.00399913630186663,-0.00549196021757765,0.024231492148347,0.00736666763115768,-0.0592390625177133,0.0289290596990829,0.269630038508181,0.0424484150385729,-0.0413123257858883,-0.0936063912842477,-0.0245027099116667,-0.0448841729490366,-0.0492323146267945,0.0321612126177298,0.00762261689143364
"hour",-0.00831499870036083,0.0410446685575451,0.026258570115313,0.000165367421682171,0.0279085646713882,0.0539955242432307,-0.0401195793804451,0.0449984598495916,0.026120890027061,0.00686107801356119,0.0533762470981554,0.00320594875672928,-0.0218033499062779,-0.0548757741176354,-0.0725457619935506
"stop",-0.0107434174147279,-0.0112997056947556,-0.0271858794090303,0.0276233391359711,-0.0685164589115083,-0.0138596016608714,0.0199106248126577,0.126457224488347,-0.00862853554859855,0.0255530857789393,-0.0388919484575912,0.0764685732673288,0.00574844292055956,0.065453496148809,0.0327793036515187
"understand",0.0806820792302058,0.0343576774232578,0.00683200915311994,0.021536760760725,-0.0727571258742536,-0.0281169678826067,-0.00341028196801073,-0.0455508666008501,-0.00222624828187769,-0.0195960086728873,-0.0101649896221325,0.160608242643789,0.0104121227764528,0.0587088130732583,0.0454756009019793
"early",-0.0107905082718239,0.0215392681961313,0.0199455547781853,0.00542202151481017,-0.0371356877671995,0.106872206106398,-0.00663771356140573,0.0867130876668168,0.00194512545953337,0.0683953092333286,-0.018363260822565,-0.0139105026573954,-0.00591683295861622,-0.0583479742037018,-0.0159196532997938
"worry",0.102360661362219,-0.062447747617081,-0.0314826731102995,0.012331208724703,0.00857457798385765,0.00567144869991549,0.0387656743677978,-0.0177078111221402,-0.0304123178832765,0.0452238590841299,-0.0292259144997115,-0.00825569606153907,0.048030513892344,0.0161791476354998,0.0125986937692815
"minute",-0.012292266784276,0.034146754939353,0.000916909740381767,-0.000464012305186849,-0.0612341083190096,0.0133482960063232,0.000223723172321078,0.142793823761467,0.037631904618924,0.0122933217011545,0.0166499756905275,0.0116231419001074,-0.0143661783879543,-0.00507988158565525,-0.0747414226944746
"expect",0.0014516325331331,-0.0109714134454278,0.0468299716803436,0.113378875678981,-0.0617807252740575,0.0112932664581676,-0.0602663964127476,0.0212730009243267,-0.0179641450717473,-0.0298639059690686,0.15401192166632,0.0443999584487904,-0.0484366119039359,-0.0877633361459904,0.0137758916636034
"turn",-0.000887183805110352,-0.016118919316171,-0.00427881777067928,0.0196402637346744,0.00173879083887878,-0.00329255397562202,0.0137468267046391,0.0570039860871479,0.0571136574292551,-0.0133956703323396,0.0134185926233032,0.0444014132019497,0.020407667203297,-0.0206432340122636,-0.0242222617247934
"mind",0.00633892092832305,-0.0096405057843865,0.00102327240569014,0.0394814202753639,-0.0296599310159606,-0.0140280916984641,0.242381085235316,-0.0124990132082941,-0.0179803950644568,-0.0359402346554253,-0.0250018308436616,-0.0303491246498719,0.0332488686162255,-0.00151307278902944,-0.00773787014391831
"talk",0.00378545862769985,0.0387156778971806,0.00867709490494168,0.244742292425229,0.0472990965255305,-0.00989527620842918,-0.0247760898212953,-0.0272098125485719,-0.0405264266139056,-0.0370420830047652,-0.0421866171046256,0.00369514083259062,-0.0178514340552788,-0.0270780761601303,0.0377635200406639
"hear",-0.00484070154620714,0.0125365627258305,-0.0220989674108052,0.141741491729461,-0.0362444220398873,-0.0174758198287801,0.0136476393599328,0.00251172546631274,-0.0468144615577736,0.0442045559867767,-0.0232331223299073,0.0182300440329114,-0.0376365756836809,0.0133047871061265,0.0644482512104669
"interest",-0.0929897239568545,0.172405076905462,-0.0024710233367411,0.0582808919429342,0.0112590888488843,0.0299785819820366,0.0222038639935121,-0.0807490096685548,-0.00188010445725473,0.0171911636638958,0.0830963872149361,-0.0373722047723442,-0.0448486505822927,0.024914270976027,-0.00765794051322652
"focus",0.00922411571996715,0.0335038072227442,0.0323593791208948,-0.0135752253477604,-0.0396773977631774,-0.0260200308248348,0.0636118811378795,-0.056337673692179,-0.040420670713462,0.0107583325524816,0.124712048942571,-0.00841650004771152,0.0519180902658992,0.0290686621922006,0.0665293703938168
"ready",0.0356131978165079,0.0206093203663883,0.00586165716648715,-0.114698074460355,0.0112726253498093,0.0227138468431003,0.00190764424795934,0.0224783478389663,0.00335970824363778,0.108518556846508,-0.0492663651782825,-0.0378589210291582,-0.0320170891434834,0.100609483886124,0.0123785655987818
"quick",0.0359202794677477,-0.035680473760728,-0.0249542091051072,0.0363485946214546,-0.0563379962244704,0.00641618310121053,-0.0265428409641382,0.127823540984167,-0.0537311337118516,0.0118840769640302,0.0225544657467209,0.0062549692573926,-0.00229369471513806,0.00680946059272882,0.0422322210470843
"play",-0.0257091605493082,-0.00935034701229663,-0.0432538515078574,-0.0699948765402888,0.0562279071354843,-0.084306513176949,0.00233552355242945,0.106870307679006,0.243098678463014,-0.0503505867318445,-0.0261652162518515,0.100851136275862,-0.00557097875081491,-0.00646914675603922,0.184739670237458
"end",-0.00273838782715398,0.0422887229542611,-0.00111665231456861,-0.0243085537089578,0.0361795212845643,0.0110306807564488,0.00684601896328794,0.0380401835859082,0.0238250943103175,0.0169862803525992,-0.0198918603899056,0.0213013805312627,0.0144586361289282,0.0326546784695352,-0.026962047936315
"text",-0.013482243374035,-0.0205344155865987,-0.0517417694047749,0.0715696719174147,0.0293788603847786,0.0645397283918391,-0.0399176544087131,0.0557581493833849,-0.00671374035650454,-0.0329408360814588,0.0134287037990369,-0.0337978638834953,0.0411301881974654,0.0224367475896888,0.00605263144538109
"nice",0.027009053883406,-0.00741151070830675,0.0376679072063066,0.0499283624090018,0.0336856703608559,-0.0730424590278725,-0.0392999947245065,0.0158871599430404,0.00101822226631219,0.0756032778020107,0.0191383956810994,-0.0581131894308878,-0.016995625243575,0.0356808095456273,0.0577860969467518
"tire",-0.0154027576064651,0.0167087595288923,-0.0303192787354869,-0.043377186467209,-0.0130400597845781,0.237030177702827,-0.0250362051807486,-0.0342512093934772,-0.00468823025054862,0.0240699751127746,-0.0119782314954225,-0.0235373312224347,0.0148841620640241,0.00347201114264314,0.000541126145042248
"write",-0.019350404353212,0.0415709994336629,-0.0470477195571871,-0.064840007527122,-0.00498873330966712,-0.0516530000763598,-0.027152813023828,0.034456682971871,-0.00633092845319295,-0.0199055953183293,0.255715073200895,-0.0540411705209955,-0.00510397202020379,0.0399740888100308,-0.0612909552964092
"person",-0.0163662200020404,0.0250027623088718,-0.034999804603282,0.0603098132545251,-0.0199491103037573,-0.0125834955094138,-0.00348567854956242,0.0214343104155044,0.0155076801493703,0.00884559545735711,0.045306320080174,0.0249938658685546,-0.0392974438199324,0.027012550287666,-0.0945419539649936
"order",0.0153759229633155,-0.0481771941726093,0.0710623843300149,-0.0415802714839207,-0.00815022961314403,-0.0438150789390821,-0.00268691989411449,0.018396612011445,-0.00142165957829955,0.0491310283446406,0.00675389986797631,0.0599864541573803,0.0620842566017249,0.0401340640106808,-0.0191694692655667
"finish",0.00697208978899027,-0.00178296661023843,0.0821922030082191,-0.0153288900176749,0.0173428133190444,0.0250703318555753,0.00265595177703832,0.0175204516644201,0.0758543759603624,-0.0246489620496225,0.129783351435404,-0.0094503321057573,-0.0466891276621902,-0.117183253285263,0.0558731981010823
"semester",0.0165268981215933,0.0525770004050477,-0.0054587983862924,-0.0353132698121177,0.183608464271366,-0.0231001507206662,0.0174562282269157,0.0255627651010683,-0.00141984056885977,-0.0485461462143999,-0.0416911012009627,-0.0393435026439761,0.0152286145919322,-0.00507888820473873,-0.0528998648506133
"outside",-0.0327157452028933,0.0135826283016898,0.0118318732791319,0.0454944755829104,-0.0293204469834551,0.005053638161901,0.00612498763723921,0.138889118300193,-0.0210782466179188,-0.0311068247823963,0.0132574440922446,-0.00852098361643607,0.00610791265866657,-0.0165091858793107,-0.011698176657476
"live",-0.00299244958763462,-8.62294416887122e-05,0.0193207254679031,0.0561114293360683,-0.00116394284038031,-0.0111078186488644,-0.0109633548428757,-0.00760935949582175,-0.0247707115822557,-0.0690702488872896,0.0214576611147612,0.00858237868812428,-0.020008076356873,0.20078593860426,-0.00951648916207451
"school",0.00599298372769768,0.012649896794923,0.0232661051980468,-0.012813687461948,0.0518271015506236,-0.00371435297531872,-0.0616743794047022,-0.0668120131792539,0.0455306399078725,0.0323908754933334,0.0576021116644193,-0.0324263203857567,0.0196940518710463,0.0860073222534576,-0.0146740334640064
"laugh",-0.00198869845729179,-0.0117823257096536,-0.0291456240942725,0.121166591595487,-0.00805071165273495,0.0251153791183633,-0.0157095469197092,0.00342562695637121,0.0299434249704532,-0.00784674282768289,-0.0324270376369676,-0.0274200470486106,0.0159658508342095,0.0246863841241436,-0.0136814785097612
"together",0.0181833468273072,-0.0304353933769692,0.00372420151654813,0.0258304745598931,0.143055906082034,-0.0285848898496503,-0.0403386454321851,-0.0193808074306827,-0.0314781202607851,-0.00908152244757218,-0.012855356348246,0.00023688328479454,0.0242616207844448,0.025455833203741,0.00745984128184538
"apartment",0.00176230146201885,-0.0158439678619726,0.0132107885866629,-0.0169240461019703,-0.0495004398486217,-0.0167036895761879,0.0333780997674088,0.0353460934953441,-0.0411984552307178,-0.00493830021698002,-0.0470631901516202,0.0159063230242411,0.026018978640734,0.260136828266257,0.0169043773604905
"walk",0.0178413326136517,-0.0322938947635452,0.0108482763168045,0.0107946501093494,-0.0318602945854665,-0.027906773948532,-0.00297727400016887,0.215837856168532,-0.0499731814696934,0.0110056062745227,-0.041228799582014,-0.0417663168120023,-0.0148298286799863,-0.00322673358954707,-0.00240789719149694
"group",-0.062904728445686,0.0571914649237455,-0.0245180332867024,-0.016272455913929,0.14736722319923,-0.00688250839563955,-0.0240163266111031,0.0124582267209085,0.00459909555462755,-0.0489711085033988,0.0435751859578637,0.0293812427664004,-0.0494859538017534,-0.0116780223387972,0.00838415159806832
"surprise",0.0172116093937649,-0.0091639615525841,-0.0346115244451191,0.120872790780353,-0.0227961206409637,-0.00647850688470736,0.00175292036867198,0.0548175023565907,-0.0193796449375128,-0.0300160277261858,0.00821919418713449,-0.0249660393073541,0.00591610596730932,0.00206114785399925,-0.0177139785877029
"life",0.0101026098907595,0.00616827076328324,0.0193362609983874,0.0672779314384218,0.0114580830405785,-0.000262256044816462,-0.00726826627697989,-0.0886233021693706,-0.00123195390727115,-0.0292773009162917,0.0209556457461601,0.0582860911783888,-0.0279844418783836,0.130915418205039,0.00203237175258427
"lecture",-0.0371017179302848,0.211605530652337,0.0323252458554439,-0.011585324114624,0.00107500140111294,0.0429619000350187,-0.0179881068927275,-0.00541549387201561,-0.0408124074627675,-0.0322953962832291,0.00466824587357129,-0.00752600921147954,0.065644861608854,-0.0141425465853396,0.0736710022593628
"emotion",0.0255055046265896,0.0270652383800451,0.00129138846015237,0.0560534218034554,-0.0204962769000269,-0.0111463644747683,0.206730134287899,-0.0377905682759311,0.029342805475056,-0.0229712718946247,-0.0874543842541576,-0.0359110319035528,0.000968186433776015,0.0113024852446681,0.0295408774227
"hard",0.0661824415431352,-0.0120606951464988,-0.0131468647911807,0.0288864266841688,-0.027917135821794,0.0149482120627381,0.0132227781563813,-0.0183959149546575,-0.00703139544623646,-7.36535204030206e-05,0.0455992392070327,0.0255001560743457,0.0591029434215018,0.0162238037811919,0.0494270052108513
"night",0.00936301784105875,-0.00251877307834341,-0.0182298976499616,0.0167623814218215,0.051478081062991,0.197131595815005,-0.0194004813833216,-0.0210165981990555,-0.00866366634761109,-0.00705292304283118,-0.0300053372604193,0.0514999782705029,0.00539839506404466,-0.0219738243626266,0.0213954303747765
"problem",0.0811534549302041,-0.0202635717846325,-0.00312223530329564,0.012188215812861,-0.061193302341224,-0.0067058544080441,0.0481526011927977,-0.000187674972675379,-0.00743636735377028,-0.0663283295906036,-0.0174827570848366,0.171586452422007,0.0115830202643628,0.0283123828011067,0.028056460218959
"mood",0.0695096125968939,0.0266425006608277,0.00673391788630872,0.0421287673666039,-0.0270091715712563,-0.00249886788872839,-0.0133651437409681,-0.0793980955333117,-0.000952730865540138,0.177603709098689,-0.0622903905187007,-0.0288297605234318,-0.0334480036675219,0.00751497049062178,0.151291859933134
"video",-0.013172385086309,0.0176992564789069,-0.00114056704970899,-0.00913063917853928,-0.0295139105211348,0.0129561330597546,0.0174709173434535,-0.0361591197198723,0.260250362414374,-0.0249329749061799,-0.0180434615747491,0.0240667420166831,-0.00649546332659992,-0.0189620360901376,0.00462580416563664
"sad",0.0280044708535714,-0.027774047415348,0.0105220161339645,0.0995705101893467,-0.0335969880811459,0.0172215682765307,-0.0497367473347452,-0.0557189431857696,0.0110163709921557,-0.0573154844337608,0.0724103796981456,0.0647659369834904,-0.016327730945284,0.0472188098556117,0.0571466658837416
"calm",0.0415266088386886,0.000233160285904061,-0.0263812379981016,0.0394729512203364,-0.0634359564964251,-0.00919266378044625,0.125534733270322,-0.000265227996638235,-0.00185603154048483,0.0178866697202326,0.0901579790125202,-0.216432381298695,-0.0211042127441026,0.0116364375894447,-0.0296361939290279
"sleep",-0.0265546097200334,0.020164373639752,-0.00280414266796022,-0.0168021448307929,-0.00984907917202088,0.270408282019569,0.0218726758818929,-0.0549994410124614,-0.0320221285708998,-0.000402065203098991,-0.0385672261380494,0.0776771749827023,-0.00266302795747719,-0.0315529504427324,0.0460282408127346
"topic",-0.0133917083109931,0.15767589007317,0.0203344162017993,0.0301967815619923,0.0599752514131969,0.0135316530399264,0.0281074656088121,-0.101355662271027,0.00320294026707644,-0.0258794055346576,-0.0324393578555904,0.0351773814556104,-0.0536063893284445,0.0405710683435356,-0.00905496859928409
"listen",-0.0646145705104099,0.17818859520036,0.00148165198769878,0.0826311240130099,-0.0413080942437638,-0.00882521599130004,0.0433541033805819,-0.0200382546827203,-0.0752645410155625,0.0569161597281843,0.0157966494060854,-0.0712148367978172,-0.0266119963801454,-0.048631875367669,0.266875997696731
"bore",-0.059180222353693,0.111374745163498,-0.0390745261822481,-0.0214129626031191,0.00228913041848803,0.0589625198001943,0.0479357841393707,-0.000366614543785948,0.0175817969424668,-0.0168856573726037,-0.0382755920962255,-0.00302713879916409,0.00666507205170547,0.0047790446518199,0.117423898917427
"pay",-0.0165444355640031,-0.000713753122917863,0.00805850115315918,0.0125615193866731,0.000352673868948822,-0.0170984696721974,-0.00646573330487517,0.00805230023146495,0.00967043972645886,-0.00528816342651678,-0.0158592672970715,-0.00147784938296266,0.442123319975013,-0.0227735495039147,-0.0152390329035832
"attention",-0.0119811765918959,0.0147312473223722,0.00783328966651472,0.0153921335451017,-0.0233823262288447,-0.0245089383221363,-0.000862370902217246,0.00577185173838072,0.0273510009247205,0.000265355948110754,-0.00609929621682616,-0.0100480842268535,0.432720292402864,-0.0277882841047185,-0.00973236075877021
"coffee",0.0167350727951508,-0.0247684184439322,0.0344204653819549,-0.0191230862987696,-0.015544021877021,0.019746539866973,-0.0234081210946265,-0.0158271108061572,-0.0224983294598726,0.141166177539561,-0.0478873220481227,-0.00845929087077217,0.0258825033397383,0.0439523510288564,0.00277063996723232
"game",-0.014440430167731,-0.0377724581865558,-0.044809574540447,-0.112981501580766,0.0625641960866813,-0.0970199727576344,-0.0253447926502153,0.0892228594775189,0.260095793070954,-0.0134838260041249,-0.0163916451091134,0.132355225143878,0.0358085338795304,-0.0161124790358632,0.141631686061814
"food",-0.0160097850679705,0.0155477932031658,0.257712628203227,-0.00615467428555257,-0.0323278138847513,-0.0559036883857931,-0.00323042243237856,-0.0115006140701631,-0.0363518730092648,0.0227583037887158,-0.0192628904300524,-0.0062186882439405,0.0357042918737558,0.044125276992131,-0.00411839502933363
"wear",-0.041292290438905,0.0169944862843327,-0.0354676555104244,0.0102839834934076,-0.0412086735061603,0.140266153525807,0.0157703487792622,0.0485514406634463,-0.011995767803693,-0.0154008981222114,-0.00184739467386191,-0.0103482764796748,-0.00261330660096016,0.0192275327934682,-0.0108241292925391
"material",0.14410720827316,0.0978571005135826,0.0131698461870168,-0.0405981849014799,-0.0384922392789451,-0.0205406981189842,-0.0209623200416555,-0.045297485837051,-0.00291272787570983,0.013818865476767,-0.0326879039490552,0.0178874417416723,0.0204101362854199,0.0374692171888191,0.00153956505772575
"professor",0.0146619836799921,0.239509375529361,-0.00305000515430983,-0.00670225069132525,0.0209031506226132,0.00591445727372758,-0.0237457414822936,0.0371987096984885,0.0092872897881191,-0.0501706580879249,-0.0236243594592663,0.0051614263005766,-0.00418883067871785,-0.0649410820583575,0.019823685736787
"relax",0.0763095795250954,-0.0238014284703396,0.0167358432807439,0.00384845468917513,-0.0177118741801477,0.0434988565565994,0.0442557493499893,-0.04306195886525,0.133924010612632,0.0449542784338451,-0.0061649267392209,-0.182824959110168,-0.0276676772329171,0.00764579700442629,0.041021050349241
"hungry",-0.0484829621373163,0.0449384150187052,0.28015834646112,-0.0454622272241797,-0.043637247103662,-0.00186700898697451,0.0286980267102731,0.0117907990218551,-0.0212577536426669,-0.0393109309812595,0.00380837297610731,0.0413914449650629,-0.00650843393512699,-0.0196717706347779,-0.0324883527735723
"shop",0.00984975569774151,-0.0505694492272961,0.0103075165184925,0.0160996602100572,-0.0284217987568786,-0.00859019366190867,0.00930794205058272,-0.014053484702747,-0.023444814804145,0.0488338892374651,-0.0113129216543475,-0.00835094659214873,0.066709431267215,0.0571991768155544,0.0266561136444688
"library",-0.0115486858790658,-0.0376796756896669,0.0479268369807665,0.0157925674742694,0.0193712494043584,0.0492035097522105,0.184274175243484,-0.00287678570262283,-0.0777558415644044,-0.134834420575929,0.0379182741174721,0.0831804383700826,-0.00542115556023165,-0.064756642350814,0.0560644909909227
"homework",0.0739159956671275,-0.0846892857335185,0.00843141878222975,0.0358005098672044,-0.0255690299655136,0.037769000740368,-0.0883092111612439,0.00106751850406868,0.0345703725707448,-0.0881972600463884,0.165678112937496,0.0842534375698193,-0.00670233071351953,-0.0801798575229868,0.118354146112433
"movie",0.00657035038412686,-0.0112452123528718,0.0149375422648961,0.0722409488290996,-0.0563237114248188,0.0475961901547609,-0.0170354454665194,-0.0779923472890538,0.102993760885083,-0.0207661009345222,0.0329805661300228,-0.0283977024584755,-0.0097269629150262,0.0389835891640917,-0.0945741434050342
"music",-0.0433258428499343,0.0773854855507173,-0.0311634775674066,0.0263374131258606,-0.0245488350444797,-0.016139803735212,0.063086289780292,0.061283932445802,-0.0188298824346929,0.0480278082165608,0.0198089505369182,-0.0583499926317436,-0.0692872510491634,-0.0396306706576883,0.304084276072941
"neutral",0.00716180019810001,0.0141554264178594,-0.0161870666863552,0.0375553508263052,-0.0198676946631272,7.1939187343101e-05,0.09616328345405,-0.0159487599761353,-0.0572998377014759,-0.0525068751960504,0.0299212886805736,-0.0889455995315846,-0.0168442312370728,-0.025395207420341,0.0112649585329642
"grade",0.142120540772991,0.010666894726269,-0.005235087049162,-0.0269725729654014,0.0609161869512629,-0.00297464133746675,0.058573317003449,0.00764085957969013,-0.0344680510103121,-0.0835961009462992,-0.0374937849545693,0.0195552920233694,-0.0318183076257551,-0.0492653501184961,-0.0347802176797676
"bed",-0.0175866939571727,-0.00325539802633797,-0.0639106829047318,-0.008911260975203,-0.0408175090674518,0.184500450254906,-0.0225786892329866,0.0224992728874495,0.0647879065237961,-0.000958006392718185,-0.0313656520832319,-0.0643097119143001,0.000665931525774307,0.0896939447350133,-0.0457754333220696
"hand",0.0210339531827733,0.0364478113160088,-0.00457683813397663,-0.0567181287198492,-0.0122443890603275,-0.0726907437859983,0.116847074078227,0.0253749730195925,-0.00672030059672972,0.0293818851246476,-0.0204172064907738,-0.00881458981377216,-0.0182536558355177,0.0768620850213754,0.00629278146795738
"roommate",-0.00571978747820427,-0.0178946580584127,-0.0165406140520175,0.0209707646973333,-0.00472858679317143,0.015281462439942,0.0547347726303552,0.0316144261968555,-0.0184842376144979,-0.0534319828921016,-0.0662196486225465,0.00147355711673617,0.0100559356746719,0.20265541561862,0.0625645897277222
"exam",0.241573823341399,-0.0323888435599667,-0.00454675737616206,-0.011648230311833,0.0125543110036234,-0.0266160448932537,-0.0250684957063851,-0.015498404018072,-0.000424083324502259,-0.0549688731881507,-0.0371434020586375,-0.0402425391556298,0.0209311247874457,0.0145342150887384,-0.0401595163290654
"assignment",0.00711675974636503,-0.0566689269824374,0.0352136118889023,-0.0598877776993023,0.0784257264912491,0.0851962144740352,0.0921400596910649,-0.05201735775295,-0.0287430396364865,-0.110616130424842,0.040886110081431,0.129301357072897,0.0356787475809252,-0.00807357047794976,-0.0130933645332908
"quiz",0.16458002867731,0.0217138665307712,-0.0207350838678644,0.0180979459960521,-0.0959738547534059,0.00468348070289751,-0.0304939751221344,0.0222018338389877,0.00198944071752083,0.0226411906804097,-0.0551662697903769,0.0214208887308077,-0.0776665554449524,-0.0131682421548741,0.0308955786725403
"nap",-0.00938337190997987,-0.0209300406711671,-0.0594331162634194,0.0351351528392548,-0.0302010112599274,0.211076076068422,-0.0107655606727199,0.0238498714551792,-0.0010385091357163,-0.0408471934949462,-0.0231460452084603,-0.014744102292431,-0.0366509458950068,-0.0241316804278392,-0.0163361573251365
"dorm",0.0235457771182566,-0.0197949008437973,0.00932198720878496,-0.0261484564029177,0.0339965052971324,-0.00996336964108941,-0.0280652925770518,0.177164964512844,0.0263703704756233,-0.0977607656367965,-0.0229058477325564,-0.0298375954789186,-0.038357280813718,-0.00599423288219114,0.0407793775525959
