"","RC2","RC3","RC6","RC1","RC10","RC7","RC12","RC8","RC5","RC9","RC4","RC11","RC15","RC14","RC13"
"relieve",0.04501442842744,-0.0236764457868371,-0.0314510574135164,-0.0113749988325555,0.0280098159412033,-0.00793267051761877,0.0123879748438226,0.0272331777727355,0.0319073076260266,0.0117974957234947,0.0319023350548522,-0.0273273603047113,0.0118647454195727,-0.0429025520303696,0.0800863910357183
"frustrate",0.00628966198100737,-0.00564325590303346,-0.0364650895490868,0.000907939044511736,0.00639745908138969,-0.0206714254015711,-0.0272161580093932,-0.0239016581169242,-0.0139672570368225,0.0638774693679929,0.209548336995906,0.0691220353547615,-0.0384903185593461,-0.0336845292149293,-0.0252799705038161
"long",-0.0108887220463226,0.024753979052672,-0.00234502565856504,0.012787669918725,-0.00748307698652393,0.038421282334299,0.0447655953214488,-0.0279664124201835,0.0324463783295102,0.018180410542705,0.0358031712614131,-0.0437272635943239,-0.00443145380824419,-0.00351093324556352,0.0294432168600388
"happy",-0.010776398739564,0.0235237369502062,-0.00877295767682877,-0.047102074537114,0.0166988125122465,0.0280719041142112,0.089014714090742,0.0398247404010889,0.0166449693740663,0.0196373607943764,-0.0759055994927453,-0.0381957871302062,0.0987331854076143,-0.03302507521335,0.0767995306741596
"issue",-0.00682440837743499,0.0349923159825586,-0.0255077765501204,0.0147744487466744,-0.0183588106790878,0.0102250846621484,-0.00668188180317158,0.00514908821993893,0.00572097544842733,-0.0562905594509489,0.14180268503916,-0.0149896072599054,0.0262494213982316,0.0162718685319662,0.0239960985319801
"work",-0.0293272710480033,-0.0485850074921887,-0.0333318834291665,-0.031484711388376,-0.0266827433221103,0.00334933384403492,0.144057632212566,0.0196905764124802,-0.0228574305647874,0.0558728179410136,0.0720425059101741,-0.0424119482931232,-0.0258890366759855,0.122709115286053,0.0593787613962183
"email",-0.0367445377514409,-0.00324425737042881,0.00998127655211645,-0.0350912089611915,0.0800488630930806,-0.025924935851763,0.0654936248773315,4.68594688556229e-05,0.02285782636013,-0.038113459776686,-0.0251349968110682,-0.0523521138938171,-0.0587753233630764,0.0996510274066224,-0.0386733331147314
"lunch",-0.0162227222511948,0.0141624565675285,0.0155408042439506,-0.0417395741713672,0.0144676008794734,0.196868245852865,-0.00804934655740282,0.0371614078419508,-0.00501182107525451,-0.0222702370879449,0.00856380749457539,-0.0224875513710211,0.00882947246626821,-0.0512783997393059,0.0396062965261141
"class",0.101517095460372,0.00802211786142048,0.141548456201099,0.054073850314838,0.0194148420433771,-0.00162436896943582,-0.0589481005529555,-0.0350388110276474,-0.0292525630338238,-0.0126779638830791,-0.0720558258052419,0.00910266593985398,0.0126666374397445,-0.00572974376588517,0.0573105663409049
"call",0.00587661188749157,0.0464508808654895,-0.0290015826678923,-0.0196216659813704,0.0824756485331934,-0.0446513311983346,-0.0114785041500673,0.0807796410898905,0.0683389742984206,-0.00478009658158458,0.0492849087994048,0.0187948786973648,-0.0296138333910177,-0.0903311086117939,-0.0283710467798162
"place",-0.0173815869472262,0.0785027366443735,-0.0202345182113458,-0.0103605546057304,-0.0302594448086379,0.0327104758224579,0.0184658959217731,-0.0147716641702608,0.0144851405156179,0.00342669899734556,0.043531558074163,0.0639583456418548,-0.0239086113728978,0.0112241515939886,-0.0585593335479859
"study",0.134690093098557,-0.0452181721754262,-0.0301567757422327,-0.00184521042800299,-0.046874930932028,0.0116061140006249,0.0591274822320002,-0.0148912360570725,-0.00141685495718253,0.121357522398843,-0.000976825919024319,-0.0282522568428013,0.0289319160362464,-0.0139905909155978,-0.0377806804136043
"enjoy",-0.0169572688766826,0.0380608796194648,0.0457308141645384,-0.0204399973464995,-0.0056827219726981,0.0910222394298915,0.00838819997749527,-0.00804792514711642,0.0869516819540904,-0.0305261359356531,-0.0351950029756775,-0.0472155385419638,0.0546874829956865,0.0118482547646594,0.0137448551489435
"thought",-0.0147400421862974,0.0171452895202372,-0.000824900239297648,0.0405015245806523,0.0312606756966683,-0.026353197060498,-0.0179528972388308,0.0334187164367882,-0.0043943954813772,0.0120402159093181,0.0410694785151892,0.0430072597436075,0.0812323258021808,0.0749402876780733,-0.0866671952014801
"learn",0.0235514675882912,0.0449479036862663,0.0656262589307203,-0.0133510145881977,-0.0593085392417428,0.033835643269538,0.000312784678345758,-0.0283443440589786,0.0206629879074577,-0.00297087745560965,0.0626313408868246,-0.056228140261401,0.0458191322322093,-0.00383278161074597,-0.0245840656551835
"process",0.00061808597800287,0.0428734461000365,-0.00242292413748279,-0.00804872268646542,-0.0101056564372644,0.0188444373606983,0.0183837636178772,0.0105811355852228,0.0277614074802507,-0.0470623557731467,0.0616450138704216,-0.0285632090487091,-0.0437937633698866,0.013434325583831,-0.0117528356837476
"question",0.102761560180835,0.014612603689788,0.00632730919971145,-0.0508486046793329,0.0800795189306119,-0.00220239609984903,-0.0774509853112825,0.00924262556668116,0.0404111492659839,-0.0206000418362689,0.103253280586301,-0.0715421582333194,0.0109594608762679,-0.0356447672646541,0.030578397618252
"move",-0.00539859645595922,0.0394098623036011,-0.0118224961572353,-0.00746305225435626,0.0499465603567625,-0.0187253022125166,-0.0197855275236852,-0.0528846399103267,0.018824667290463,-0.0204345656086122,0.0439793563351263,0.063743661312727,-0.020568888848999,0.0846004809904463,0.00913690107053385
"answer",0.0535393188794369,-0.0047575399328461,0.0174168092397601,-0.0535030470951576,0.173430537625708,-0.0177779384092918,-0.0706636738403432,0.0268544393446106,0.0702000225631958,-0.0245336062683565,0.0623162681927378,-0.0667252347622944,-0.0279532445016282,-0.0630411738734611,0.029869577255363
"discuss",-0.00635431708172252,0.16453801793805,0.0117524254113532,0.00670637396350408,-0.0593317189039288,0.0201381905235893,-0.0454425183329913,-0.00224513432165577,-0.0424549711577074,-0.00723464488813043,0.0221665308321579,-0.00595031994877431,-0.00473463470324837,-0.032232523579738,0.0306600290192398
"prepare",0.113763033915077,0.0141330445628064,-0.0295839299658119,-0.0239957080600128,0.0364682433295894,0.0518691421070428,-0.0369043505122776,0.0419312149722118,0.0123147162147529,-0.0201531342296741,-0.0129522101366539,0.0419571352574197,-0.0497833598104864,-0.00275050202729006,-0.036299022995652
"tomorrow",0.0539423371398343,-0.0323411079220433,-0.0191231814101979,-0.0140347513389516,-0.0177644463634379,-0.0188867851073637,0.0910299452726957,-0.00861830160050087,-0.0163712625775827,-0.0084680161037084,0.0129797331389766,0.0293853491619078,0.0108631993185462,-0.0102285178303158,0.0404365647687487
"plan",-0.0188404154040972,0.0453034254627476,-0.00437548329396691,-0.00187359408099069,-0.00203711911345767,-0.0345622262922382,0.147630532307375,0.047326713600407,-0.061338077542635,-0.0306833172056026,-0.0452488775659393,0.0725233265525671,-0.0490150915288255,-0.0402181509435834,0.0253456840993869
"complete",-0.0170447970766147,0.00619445629244983,-0.0194347321936311,0.0219404394700456,-0.00318200641076555,0.0162386220877206,0.0182853490173384,0.123531017067756,0.0262498588961771,-0.054824113100095,0.108588512510474,-0.0161356903685971,-0.0205286056396612,0.0410442573353995,0.0525457589589349
"task",-0.033019763895297,-0.00906326467560506,-0.0281934308485067,-0.0123109485732328,0.0156627173725334,0.00160548967222037,0.00639188870126895,0.0703098020610258,0.00870948992849892,-0.0678863350302555,0.0740287936426018,-0.0146672524898168,0.0044115061320682,0.129365931217465,0.027845955845485
"train",-0.0496148661070381,-0.0399631107667951,-0.0177531565479036,0.000345190802650216,0.126438365592208,-0.0148028082418509,0.0586814389517297,-0.0284813922367872,-0.0129084016821389,-0.0166189373145687,0.0307828217497644,-0.0709036012901299,0.0138763857232861,0.0100161908801128,-0.0112646662711346
"session",-0.00930953674960523,0.0226976433621855,0.0121031162494997,0.0726122652370753,0.0358411629311091,0.00600301829547314,-0.0163811903547748,0.0270408568215463,-0.00926959408259742,-0.00103809269148991,-0.00936117362187411,-0.0798322422974542,-0.0355018492473915,-0.0243035257973404,-0.00250194730830866
"day",0.018415743410224,0.0101545011051615,-0.0271845228553875,0.0638511475475499,0.0580990656156686,0.0195075143961409,0.0878216401636615,0.0310009280200586,0.0276542199682339,-0.0597941757552985,-0.0191104847079234,-0.034964552476059,0.0102780130727071,0.0519570318860775,-0.00422165019014708
"busy",-0.0291456386042455,-0.0232865711495464,0.00688921511773129,-0.022279381826498,0.0527847641412917,-0.0348783431240213,0.143992798669598,-0.00267220249314931,0.0364380732146406,-0.00659579696876401,-0.00358574237992105,-0.0414894534510155,-0.0322836637253357,-0.0133155257553852,-0.0238816933786009
"start",0.0271083227507845,0.0199020825276296,-0.00988858975726425,0.0356069443173335,0.0380719610335991,0.00718435261133296,0.00345507227523395,0.0302113343299851,0.0123023631796466,-0.00281580472012378,-0.0100798629175965,0.0361571437520329,0.0178866434405117,0.0795559531597019,0.0330639045930553
"fun",-0.0250998502745087,0.0786053983562868,0.00982085964920584,0.00439451964578423,-0.0512705122923465,0.0187321010553159,0.0441707710402677,-0.0198289902411742,0.0223092380217679,-0.0199156658200162,0.00555382113887245,-0.041608115082262,0.0785888773333916,-0.0230376401782484,0.0479084934774502
"conversation",-0.0302359590294212,0.0556344918971813,0.00396965614479445,-0.032962026199456,-0.000457016890834258,0.00875539651428959,0.0346241187561268,0.0159359377878006,-0.0183443357171926,0.00452030966315543,0.0473511024269559,-0.0202154953125787,0.108182528013175,-0.0563242392805163,-0.0016234876230438
"friend",0.00987922408213512,0.078310431140768,0.0105636115000607,-0.00226027204454904,-0.044451566977768,-0.00813804868959759,0.0544276124657588,0.0350954315934721,-0.0530886752259878,0.0596096144432852,-0.0178362602928513,0.116679998946492,0.0645544606346291,-0.129486950218271,0.0334563943901801
"weekend",0.0155831259999375,-0.0235777596274352,-0.0154132178185333,0.0140710489461605,-0.00550086442367038,-0.0523461774169532,0.170768731883759,-0.02804853701136,-0.018189127871247,0.00600736117942744,-0.0582901362918509,0.0108779925421746,0.0183468951065573,-0.0141884981646315,0.0125443247588177
"stay",-0.0313354946442431,0.0239919041317813,0.0650265027962649,0.0326088018032619,-0.0357685519708857,0.0237379178422466,0.0402387246643102,-0.0150169094553657,0.00807959171610865,-0.0189415665878148,0.0459623089590846,0.0749894400709485,-0.034555214488812,0.0242578890256144,-0.0308406676040273
"excite",-0.0243689288892124,0.100018799293181,0.0153789150336374,0.00199692758728436,0.00137292517631853,0.0121926122183012,0.0471967049524975,-0.0163495028136204,-0.0266351542737319,0.00652571122982827,-0.12756812476268,-0.0128872973373493,-0.0134663114460007,-0.0137530086833564,0.097473472799191
"schedule",-0.0127536138718817,0.0503039350630285,0.0199900408917473,0.054556553769352,0.00352163378229208,0.00671751157449025,0.0778654219627659,0.0295957408165453,-0.0129756807376443,-0.0169286564926617,-0.0167242985618439,-0.0552862486340093,-0.101082918437621,-0.0297517417712335,-0.0136655665811305
"watch",0.00863425097478768,-0.00219101854249917,-0.0127689189394164,0.0133965903427551,-0.0557495123782788,0.00746495456357023,-0.0207436675359858,-0.0238975951283781,0.320031866141241,0.0176970682286739,0.00631214790543997,-0.0108131812450981,-0.0184465681951539,-0.0230996600458509,0.0277398776064313
"late",0.0130669884120112,0.0248851129217353,-0.0230910224033609,0.123239854841662,0.0551356650803141,0.0353737504255678,-0.0388132845264419,-0.017361497491666,-0.00362538027612298,-0.0086039871600798,0.0357587344902564,-0.0483109298142539,-0.0323822911930736,-0.0462058407114186,-0.00395569396590592
"job",-0.0169986146717158,0.10160067458264,-0.0115416556773207,-0.0099757539051598,0.011566493418028,-0.0327097963955709,0.0354100755942184,0.0344038978599623,0.0454821553856134,0.00892693404611983,0.0119611074456099,-0.0427512786366015,-0.0926949448315443,-0.0241094543264224,-0.0486464847259792
"nervous",0.129448902026807,0.0611980522774437,-0.0414596933511708,0.00645016954235094,0.0365212681249478,-0.0380268217041705,-0.0477625789346394,0.0188115472483471,0.0153783815914847,-0.00582657292222914,-0.055026688719713,-0.0121597047862403,-0.0481700368776059,-0.0174119257194401,-0.00764586549902693
"begin",0.0374866891870403,0.0407550830649478,0.0242979944566193,-0.00352717362250029,0.0145762416455043,0.0234134560840891,-0.0465445486782491,-0.0199911419315862,0.0109678490726635,-0.0317687205293487,0.0197557968398112,0.0343822956928648,0.0119530624157153,0.0598700644069813,0.0143056872149097
"show",0.00324270824492697,0.0571174809022992,0.00952723121120487,0.0106335225706696,-0.00174860593052484,-0.00180298954797552,0.0109883871431637,-0.0329537656586356,0.23562681760303,-0.00420647076786436,-0.0127828530811692,-0.0421319929876253,-0.0713891638486261,-0.0226400402247712,0.00477439901703117
"hallway",0.0128469992383786,0.00914974084151159,0.0119185966477092,-0.0105599829747685,0.0560104614051421,0.0643688086685131,-0.0137564231148174,-0.0233742330624535,-0.0549733186881951,0.0196765612012545,-0.0428509113387809,0.0300484078840938,-0.0268246119332861,-0.025575352074384,0.076307206916462
"stress",0.0989360160110556,-0.0358294202937827,-0.0432301011896756,-0.0114387081296111,-0.0328881328513806,-0.00314863058258708,0.110164370814266,0.0041429340441503,0.0157432530072399,-0.0381279899299376,0.0343941764735458,0.0130295775767826,0.0155618570993147,0.00722154278046135,-0.0686641936782424
"left",-0.00293790164646179,-0.0326268528136953,-0.00293554859866032,0.0104782602208203,0.118581459551386,0.00283935919352728,-0.0103393053933101,0.0151862465458832,-0.071971828429611,0.00922814384212149,-0.025165074421357,0.0653780937593041,-0.0303456641203031,0.0106067536431318,0.0535181091600797
"student",-0.0227615085693878,0.116764738056022,0.0372641872776348,0.014905135429293,0.00887711531602425,0.031888715559213,-0.0458722527172925,-0.0136065321385275,-0.0167966402196566,-0.0104581672795887,0.0323747235820425,-0.0563155026877003,-0.0681468074162329,0.0414716659566517,0.0231820772220474
"meet",-0.0179231712689687,0.106439471462872,-0.028400041011791,-0.0169787376631109,0.0409390255775075,0.0167170008288146,0.0357628850029152,-0.00406771479788406,-0.0616449266051115,-0.00823202553206855,-0.0332084128419106,-0.0632853911458379,-0.0287149683160301,-0.00705136256952977,0.0728587748725284
"information",0.0139977911011665,0.0623553387587089,0.0290843863570454,-0.00994712945693333,0.00122847135945105,-0.00967191992474424,-0.0203675199770765,-0.0209007951049619,-0.0087302621332889,0.013001681845195,-0.0133099800234889,-0.0496667506327274,-0.000966010305929015,0.0526813486493303,-0.0399234933832014
"great",0.0337509046048342,0.0652178978304166,-0.0277482382170185,-0.0117417090479935,-0.0454966187164906,0.000816776498949097,0.0564360389717899,-0.00971850776620311,0.0483968794670976,-0.0319390568048417,0.00886218531159287,0.013230675648283,0.0131078715421599,-0.00680748471885961,-0.00824666660754799
"research",-0.0282796870973002,0.0495740553469486,0.0102180414137343,0.0203995361297612,0.00188837188122227,-0.022081706120791,0.033207409440557,0.013627034595177,-0.0262560710592256,0.0769668670443602,-0.0332343557903576,-0.0291847251937227,-0.0421687130957528,0.0378839927110887,-0.0109194336883714
"read",0.00463368265676457,0.017561374360749,0.0165478753368533,-0.0187551301087101,0.0380688726963718,-0.020886023046217,-0.0787196725131473,-0.00480653131682217,0.0278131240353509,0.0874977641548801,-0.0877640084764967,0.0432192228617353,0.0500084349658788,0.206485249077303,-0.14661593865358
"due",0.0314470870390943,-0.0208857992133404,-0.0293149797076864,0.00596122504929287,-0.0523285211694473,-0.0251507307736402,0.0550904313363869,-0.0059489360987433,0.0268189403378991,0.126873408868149,0.0238786122663962,0.0230430436650262,-0.059176496493465,0.067149917382926,0.00148013429663241
"anxious",0.0980979713871704,0.034231796900939,-0.0508103543884323,0.0198191060421501,0.0336398290065445,-0.0310074569547518,-0.0381957228741683,-0.00899844231347125,0.0178132122098582,-0.00475335727441802,-0.0165946537042089,0.0155310158904623,-0.0236557349370553,0.00613801739184492,-0.0416978979044859
"office",-0.0152677762760433,0.048978769830489,-0.025643224070351,-0.00598594098978535,0.0719752122829591,-0.0191581738805883,0.0458825024606826,-0.0227384074813699,0.0267601799655677,-0.0309642768864197,0.0302445594954191,-0.0983277267929957,-0.0332983825625102,0.00199145329530318,-0.0259107682873167
"book",-0.00680224526425915,0.0151886896154388,0.0133042481568237,-0.0324492359017439,0.0227993908841306,0.00278733985899109,-0.023808630326231,0.0100436608204157,0.0105331518052528,0.0373567174556895,-0.0404583367003357,0.0855972409939778,-0.0026633279847806,0.10643090048143,-0.112122834344792
"laptop",-0.0308371328933577,-0.00760749598939913,0.0255159938834932,0.0048059419722812,0.0299179726743377,-0.039080932552812,-0.0236776979019024,0.00729899291651275,0.00163132015672571,0.153965524629957,-0.0498345474871634,0.0564974165724303,-0.0451109060982443,0.0201530290520295,-0.00547736424964947
"leave",-0.0323703038151145,-0.00977429721584553,0.0154995490620884,0.0291950598621661,0.0828629847680432,0.00240002034206061,-0.0151021038768814,-0.0241095383414851,-0.0491655119804284,0.00697560882238874,0.0168415711174955,0.0659269513382366,-0.0386677218468647,0.00667089507267297,0.0540649416325107
"today",-0.015491126843895,-0.022417673799778,0.0252999730621978,0.00958448935499668,0.0618722885287135,0.0223132321983994,0.0783154394644805,0.025122053101641,0.0123392245158437,0.0516480575698834,0.0125604300387574,-0.0609350438721129,-0.0366847694205572,0.00828184407194415,0.0055523727032643
"final",0.0951877548902271,0.0235250887561687,-0.0408768218330911,-0.000318752212338397,-0.0317689910413427,-0.0156484410493008,0.0258140830473715,-0.0337227382354594,-0.0162294517820623,-0.0187408803312228,-0.0526887014869061,0.0382946290618729,-0.0587760183641859,0.0448708119705733,0.102484451047596
"desk",-0.0216631388419707,0.0058884995853636,-0.0130192224055157,0.0160248296806917,0.0413743582453624,-0.0404391538741644,0.0123172946253235,0.0158451817044239,0.0104204570733707,-0.00340243155555926,-0.0493550168252825,0.0115319605810822,-0.00250826267055296,0.100550109017862,-0.0637233977171051
"lab",-0.028294802227132,-0.0186432347066885,-0.0424673930618672,0.0418426589196995,0.0488090519125305,0.0379585877251843,0.0658760372956924,-0.0289963309344439,-0.0521090116490713,0.0192929416812788,0.0391974377175499,-0.156195578831657,0.0720203402267958,0.0399904156805649,0.0247844849517205
"computer",-0.0223759128972224,-0.0302450770239099,0.0393778116123954,-0.0315942229770012,0.00235058394646858,-0.0336522386499112,0.0797261584017025,0.00219408547153135,0.00199348996687126,0.0282559124043217,-0.0201571919984164,0.0050390613637892,-0.030227134192999,0.0969712727780514,0.0069928022541104
"phone",-0.0160270903065685,-0.0261557956278621,0.0139829841805626,-0.0183108501872312,0.101972014491288,-0.0541343097607415,-0.0141703169603121,0.0437053306484597,0.0682803262712933,0.0246627514137008,0.0250281366078985,0.0236628223630027,0.0496188731668137,-0.0370841580789342,-0.0229022944846969
"deal",-0.0176494076750457,0.0533208761087074,-0.0343788184036143,0.0243472229630425,0.00479710497266934,-0.0380351139104399,-0.00694743637370637,-0.000119200146660432,0.0191597013413074,-0.00326489429875333,0.0482783281565633,-0.0182074997236524,0.0274980291406683,0.0308653737266766,-0.00227515875049789
"close",6.21894084625373e-05,0.0324645578507613,0.0095473639719229,0.00593358825640957,0.0132064752932675,-0.0232704255442131,0.0398604347848518,0.00395716436568765,0.00426189507526818,0.010754649064075,0.0144492616881623,0.0573654746773643,0.0208090279077562,-0.0414789480336174,-0.0289850536541268
"breakfast",0.00412845364816027,-0.00691189779258705,-0.0158526074183755,0.0270841166097086,0.00792370471305628,0.183794574157752,-0.0305753410974707,-0.00508944850943189,-0.0019117180904172,-0.0392025157000629,-0.00698760956784267,0.0168985825072098,0.00926998608073818,0.0365275607105929,-0.0461476046471064
"hope",0.0468782509965161,0.0388096806592373,-0.0197779836317949,0.0112615866053729,0.0172212365747596,-0.0145976431034474,0.0299613480312327,0.0179984591446923,-0.00231476870266863,0.00831271460661386,0.00691030902006661,-0.0229192090385161,-0.0226298126312891,-0.0637996873291834,-0.0473700717060046
"room",0.0416791282805736,-0.0423387357211728,-0.0262838042601889,0.0214180647875018,0.0438012125700422,-0.0275244198973939,-0.0251039934815602,-0.0338734761703766,-0.0089140753510977,-0.0275634171282789,-0.0554588242945433,0.167668880800088,0.00290365949202175,0.0709380209468177,0.092383874274617
"paper",-0.00320948896060333,0.016590401890235,-0.0197075115413428,-0.024725208588193,-0.0278561848267136,-0.00703454835982726,-0.0319573088830565,-0.0100513573155546,-0.0390954523997482,0.034709822215793,-0.0279044197352675,-0.0125177733009798,0.0154615079390277,0.203562814653939,0.0358356354202042
"break.",0.000432886814974251,-0.02207147038651,0.0247281136325568,-0.0293111358200292,-0.0465236602740777,0.0494546063340513,0.121905453575021,-0.00921393581167543,0.0242288164141385,0.0142433686513952,-0.0215134226769783,-0.0154335731149581,0.0561375244455223,-0.0129848557282633,-0.0269911986519391
"eat",0.00470616588051104,0.0204072590475364,0.00358330257652434,-0.0246146096423432,-0.0198569207721223,0.27859709785774,-0.0368742972699826,-0.0316647376049072,0.00730028325619065,0.0162039110676844,-0.0234924000911478,0.00237098102790159,-0.000106537733392812,-0.0219514459489404,-0.0172273501652312
"test",0.128392190896116,-0.0317114521773714,-0.0259124689868671,-0.0371540032817851,-0.0137741661642603,-0.00339991946366597,0.0112755668158948,-0.0377990094030247,0.0291892252283917,-0.0048358985100932,0.0691476442315952,-0.00595713220228395,0.0154397194702917,0.0039143336998881,0.0111820634999226
"morning",0.00181789413544604,-0.0334251019146624,-0.0146679474747705,0.104412973216123,0.0325725112501103,0.0411644577159648,0.0672296632820071,-0.0431894671552885,0.0119667823875942,0.0430808894464075,-0.00435248854773748,-0.0463418117297693,0.0078019096917651,0.0214560503217639,-0.0649770320585435
"fact",0.0443898898238781,0.0561249215957752,-0.0328403463226375,0.0211232198285595,-0.00724168867563818,-0.00418435608412446,-0.0532396110709421,-0.0151816042138014,0.015701167249259,0.0192818461079129,0.00925930361054326,0.0405441258084244,-0.00226795661125751,0.0165495798535901,-0.00582629362782874
"told",-0.0172816519540366,0.00208289891293506,-0.00114311175563916,-0.0103254716100219,0.111333370309631,-0.0631542175159082,0.0466113427630517,0.0136237056506111,-0.0439809099660923,0.00678253170750393,0.0208605834456277,0.0270335071912236,0.0591012246232084,-0.0502118675872303,0.002218125476439
"people",-0.0227728198235824,0.0714574922016143,0.00181619555435528,-0.0191037351674476,0.0110756693555925,0.0153886324722874,-0.0359207768374078,-0.016788598255723,0.0265590774295624,0.177031051991146,0.0238817497630635,-0.0194042251648203,0.0275176376757828,0.0179473847027822,-0.0479744042309117
"idea",-0.00513136358266718,0.0950819268331861,0.00843994346602456,-0.000374671549141439,-0.03438270936774,-0.00637741169033134,-0.0347581438037888,0.00684122004405607,-0.00641127629995214,-0.0148073602465633,-0.00222684093174808,0.000520011713917834,0.00615543565885781,0.0639148231125006,0.0385774624702656
"decide",-0.0186392922514654,-0.00934177278584779,-0.0044719805024462,0.0306174085117297,0.00943636580843196,0.0247150099271234,0.0358952835332931,0.0280108651354529,0.00479604106411642,-0.0220233829305042,0.00223237322145611,0.0803839632078082,-0.012698957018871,0.0247016261205526,0.047955621002782
"year",0.00661883567590195,0.150158761147565,-0.0259617232677804,0.00270434538049515,-0.0236556031204456,-0.0350430315863903,-0.0125877160256466,-0.0501784971690928,0.00131573952033438,0.0118207415162711,-0.0620309428367806,0.0631920806018276,-0.0396655942192898,0.0631690129073273,-0.00250481120322489
"data",-0.0353546097035136,0.0711006891140777,-0.0418086922195437,-0.000991033530553046,0.016894933940585,0.00380084906891057,-0.00190569652485008,-0.0499289248759327,-0.01428031433366,-0.0266676672779181,0.0485949863284568,-0.0953660632741055,-0.0360661030191393,0.0956802619334982,0.0613240701425054
"project",-0.0429176263266875,0.0426639220032504,-0.0153777906803235,-0.0173866862057521,-0.0370372377907112,-0.00234219243463531,-0.00172369734486924,0.0796153112728603,-0.0442624499908573,-0.0574932438346509,0.0519247270829267,-0.049441887467861,-0.0197064539594019,0.092017025211785,0.183313893100876
"interact",-0.0143177468518479,0.0116571390142502,0.0326796586032597,-0.00672029503204435,0.0067072114716881,-0.0050816652350928,-0.0510057152325626,0.233097919536375,-0.0181687464689421,-0.00174231814447255,-0.046278122007445,-0.0102582329381259,0.0174787069565909,-0.0231656871966104,0.00246149785348324
"speak",0.0247604859603558,0.0671894347107981,-0.0173892671157351,-0.00629542163749624,0.0143283227566781,-0.0166676246476506,-0.0271257226240813,0.0132106349203341,0.0174669525880894,-0.0278243293347068,0.0186241858625309,0.0443302328243348,-0.00935976615921655,-0.0156658156195361,-0.0423546162519214
"continue",-0.00745241939131935,-0.0207750481351874,0.0197271271663386,-0.0182829267979314,0.0159981708290634,-0.0105270411451291,0.0274323496460239,0.0439615772375811,0.0972506580391508,-0.0131568653365072,0.034894733630676,0.00380691911865909,0.0267335191067639,0.00390947927642408,-0.046341401553835
"week",0.0328200302593647,-0.00389321544109815,0.00205745780997899,0.00187263280190376,0.0239283985633696,-0.0498405862654056,0.152479183023487,-0.0243310279264664,-0.00271811478674048,0.0171271656461527,-0.0342736603035689,-0.0304425146689862,-0.0141240648461628,0.00653723462666588,0.0102149661335668
"annoy",-0.0359926961949281,-0.0126449383962043,-0.016372262283874,0.0162323475587516,0.0324482941623191,-0.0137652414630803,-0.0266780217986912,-0.0703291658336888,-0.0229023902767752,0.0206990862946509,0.19933646551066,0.0198394090927346,0.0354020614001471,-0.00072608692603259,0.0293214359815034
"note",0.0533076243674759,-0.0186880285769691,0.0896330517227466,-0.00658131849232042,-0.0053097589459536,0.00604835016527224,-0.0232070775268404,-0.0241282444783201,-0.0142453007917198,-0.0109201675984845,-0.0311731475874384,0.0177148491137473,0.0224645933983188,0.104527326579764,-0.0405298129834956
"rest",0.00862483552637164,0.0224934284001474,-0.00387253927480121,0.117172818915204,-0.00281500802325476,-0.00910085949908513,-0.0264892579837121,-0.0296010354910958,0.00805775834778986,-0.0223595012670682,-0.0223882852720229,0.00557098194686734,0.0139545419315957,0.042638964416228,0.00595488425242761
"wait",-0.0128490753620902,0.0152638944205317,-0.0051300021150489,0.00529822453564723,0.131298044484755,0.059353757641065,-0.0365364023604971,-0.0136907177249579,-0.0326307881917127,-0.00294758104446903,-0.0225708415745857,-0.00872526119321541,-0.0455381321819503,-0.0255422976629128,0.0244082906286689
"expect",0.0082559572304102,0.00911446200993471,-0.0100441823994045,-0.00165594530542733,0.0223268599155018,0.00265940005147844,-0.0243101345600725,-0.010213881810439,-0.0125062943240244,0.187905624897951,-0.0230749447578031,-0.0480361937164272,0.0187338437985458,-0.0062210984180705,-0.0238569160117169
"alone",0.0194105868762647,-0.0304315519518732,-0.0272894261287272,0.0163357350322996,0.0174853983554492,0.0235860223006832,-0.045710177476547,0.240444260674655,-0.00366657718548137,-0.0139719130062053,-0.0281974381977742,0.058511826083164,0.000728694447279666,0.0351034668541728,-0.0304027270776446
"event",0.0135956354945438,0.0978410562954639,-0.0153692759508776,-0.00373741049710822,0.0167894589836987,-0.0118011832595009,-0.00541069402564915,0.052205066380774,0.0464012563152761,0.0234557062318286,-0.107316806339234,-0.041851880450343,-0.0386695909519987,-0.0195211916417383,-0.0708822417283932
"remember",-0.013362788763842,0.031454409925678,0.00852432887003151,0.0162337767118122,0.0291498834815591,-0.0184021743581725,-0.00159323751678918,0.00100657502963239,-0.0187191766915254,-0.00304077290848311,-0.0164831460785959,0.0233036063995875,-0.0084822312637201,0.00678309527909867,0.00517508033848206
"hour",0.0229526737480413,0.0472762333873065,0.0112473756653948,0.0464162772612442,0.0259533990947364,0.027145197271114,-0.00992187160895919,-0.0402502099172262,0.0234277683919545,0.0149854307181487,-0.00341109239138678,-0.0163418007815441,-0.0543297928936119,0.0101425548246022,0.00571748820531579
"stop",-0.0124371732149252,-0.0500548616489103,0.00831624466661044,-0.00800426901154078,0.112743666996504,-0.0244744456359864,-0.00372948834945048,0.00135842032468633,-0.0142677421709435,0.0247414992134791,0.0499983756084892,0.049700120956947,0.0363530951292977,-0.0141083759673082,0.0173034844727068
"understand",0.0472092242266158,-0.0174295231133793,0.0408019071283719,-0.0277836294982414,-0.0549062923168649,0.0128992657883919,-0.0127970679917561,-0.0106069224999957,0.00131182022740117,0.0123269873633646,0.167364605400569,0.0424523393735713,0.0524744923133,-0.0220844719840248,-0.0269060791521783
"early",0.0124183142869332,-0.0244577122528026,0.00481437714315062,0.0991010502976516,0.092119688145503,0.0220519643418102,0.00636511576432203,-0.0041906315668463,0.0174171496829197,-0.0155328112817802,-0.0179729635737391,-0.0528300091845694,-0.00239883803137678,-0.00158511774054101,-0.0148419678286272
"worry",0.0543848341952614,-0.0188711363198398,-0.019205729433784,0.00912269181177072,-0.000254470060768128,-0.0294790727394215,0.0780093110731832,0.0308350589635072,-0.0139475203813662,-0.0217834857111426,0.0198869135503646,0.00591342830650905,-0.00956905769579612,-0.0205057430165464,-0.013238357458143
"minute",0.0275870347490036,-0.0229816276457269,0.00748835642610525,0.0177375483848308,0.123328764945855,0.0166466555632597,-0.0567237100738426,-0.00834416057757267,0.0313906094457838,-0.0199246740986788,0.0248540286333465,-0.0146487608085044,0.023188698246455,0.0229006200779685,0.0125138182920824
"consider",-0.0138216934092152,0.0479360781083335,0.0639240009389421,0.0011964202654825,0.00357243578405552,0.0185632661811764,-0.0113383606205384,-0.0382559330512462,0.00672179006299,-0.0118626705948337,0.00945322857013329,0.0748311372757679,-0.0547591851482098,0.0227942582400083,0.0411290360225519
"turn",0.0112843798584466,0.00716683663484847,-0.00342323448517051,0.00192023371481118,0.0499198180457625,-0.0211539890661858,0.00938186274064786,0.0132246646615137,0.0658367891870569,-0.00203744250400894,0.028301039882381,0.0348551367049876,-0.0335692229212615,-0.00952210042570751,-0.0104337407193829
"mind",-0.00427975878876431,-0.0193502137308996,0.0137895240983341,-0.0171721196324706,0.00225351192516721,0.00489907327158654,-0.00495474154224731,0.225529095923034,-0.00314630616482268,-0.043083826790874,0.033337660681547,0.024903093846474,0.0218141406909384,0.00896493525590343,0.00208005362064842
"talk",-0.00696072223835305,0.0829346707076798,0.0339294158013825,-0.0316740835438086,0.0083053893783736,-0.0136330968399527,0.0159310987938538,0.0166488186429904,-0.0442806430481088,0.0608331188377836,0.00480402859055192,0.00855103604564535,0.141981952438147,-0.127135436541446,0.00785463215709691
"interview",0.0298642059245482,0.045682953427412,-0.00392881050913844,-0.0185904826223404,0.0453193132797382,-0.0484544802215987,0.0163496593932913,0.152709808578709,0.0229861564915726,0.00331622817954527,-0.0621912901688246,-0.0307967623436285,-0.0363526533628731,-0.0727942215968253,-0.0630838043975484
"news",0.00605936408705833,-0.0113277173500407,-0.00678970311538721,-0.0223396643364514,0.0764120955249782,-0.0382880239682648,-0.0171522801988925,0.0347947963869048,0.0680237323316713,0.0531249047816699,-0.0473852573287218,-0.0200016712419927,-0.00268840792331763,0.0117408375671256,-0.058248649059044
"hear",-0.0165238774133677,0.0200960257193477,-0.00491525155502747,-0.0227675500002283,0.0379523464585146,-0.0350586210913147,0.0408560495770845,0.017685524678318,-0.0242010545669409,0.0229505315144591,0.00909709799703087,-0.00864903084147244,0.0911220784352742,-0.0345625370345447,-0.0259066161178787
"interest",-0.0438664996685021,0.108257078267457,0.07969677811673,0.0206507155606793,-0.0399048953750237,0.00994668067909081,-0.0482166687492834,0.018930390859145,0.0187737777612805,0.00190859466402502,-0.0302850576340724,-0.0795393419099076,0.0821699401572361,0.0974974892865356,-0.018365550813458
"focus",-0.00834908405417788,-0.0385589843445975,0.0599289281443346,-0.0237304129798292,-0.0576146948880359,0.0405840932657602,0.0303461779356836,0.0449583730904462,-0.0143756191385192,0.0253454968193285,0.0337487931849269,-0.0122594739198362,0.0500789536547839,0.118166519084551,-0.0178987899381953
"reason",0.00203159943378285,0.0589966056869275,-0.0224214708816285,0.0101698667266954,-0.00743368124521195,0.0010584000973019,-0.00939873724013948,0.0277464263316501,0.00969142981059588,0.00860587566351268,0.028793809965955,0.0244264111622819,-0.0218442245770685,0.0106286688984326,-0.0618433598910954
"review",0.0845273268690262,0.0177512068502625,-0.00580312021952449,0.00689731042609785,0.011210943938376,0.0229239014135003,-0.0525535297451238,-0.00962602546156142,-0.00278198867585582,-0.0253702751903923,0.00800616817499881,-0.0102050720294006,-0.0428541540320985,0.0425795706769522,0.0221975541338154
"realize",0.000851496001197758,-0.0241932707085785,0.00480035055330997,0.0258146726377758,0.0278494996640198,-0.00988573073468609,0.0290443041548446,-0.0130879889061552,-0.0401467396666376,-0.0250127130212742,0.0630022593759389,0.0607306261248996,0.0153780763187231,0.0496392620002434,0.00464773301869876
"suppose",-0.012769576232818,-0.0184300079701797,0.00175845549123059,-0.00543231264652835,0.0151848050974949,-0.0205161119258345,-0.0165970519149776,-0.0259855869709049,0.00655439842169242,0.248845918835359,0.0332745894434138,-0.0315354655668335,-0.0294926270770045,-0.0376743146636447,0.0457765674634606
"ready",0.0288414778027908,-0.0170157517542966,-0.0364963868291031,0.0554699408620608,0.0367451015364501,0.0347578733401484,-0.0119098862717564,-0.0404809982779548,-0.00779021400454765,-0.047173977701216,-0.000373915117032108,-0.00535972664436049,0.0147824087439225,0.058673386413445,0.0280611779323181
"quick",0.0288433903409256,-0.052873191151413,-0.0113096605249649,0.00902502648285947,0.0845922318475246,-0.0163890751247814,0.0132720774271012,-0.00840595685983491,-0.0454732248480712,0.00652423271948354,0.00584026490155192,0.0217385622909718,0.0468201765321941,0.00739672287035601,-0.00217743979233877
"write",0.0229333061463604,0.02008208649981,0.00507608638708571,-0.0148307901981837,-0.0225716601106946,-0.0144502129846669,-0.0346405467345942,-0.0416545900075309,-0.0168689524584423,0.00371824510318398,-0.0112046514000159,0.00882799795436234,0.000390976497395283,0.205439088618615,0.00175552943769061
"play",-0.028032834692757,-0.0118518951270462,0.0234142702457349,-0.0239271255846175,0.0330000968553687,-0.056557576567451,-0.0300632852208624,0.0012794217008142,0.0758970947249648,0.0256788164673664,-0.0144152747649102,0.0460495762890804,-0.0113036896231671,-0.00614343613451492,0.260927502724353
"end",0.0134588106704837,0.0382250990138286,0.0188463756472402,0.0308584299326167,0.021584623510615,0.0123355902111532,-0.0205031645096013,-0.0183926963911879,-0.00541225648379962,-0.0182740007752959,0.0328725758452986,0.00832401175368149,-0.00322509599482727,0.00716080396459679,0.0387527027192228
"text",-0.0152695447824805,0.00694820813689375,0.0143902394584902,0.0551308632918965,0.0240399257409003,-0.0568829281463935,0.0149953977509597,-0.0247387380641871,-0.0153657026480461,0.018306656316161,-0.0140887214565669,0.0681426024426751,0.0572432744260801,-0.00780656822315044,7.91151879776307e-05
"nice",0.00451688515186884,0.0238940291227727,-0.0101470061614668,-0.0471935093590541,0.0353156007274634,0.0367940300548181,0.0679668949946917,-0.0282431789779613,-0.0160645403788687,-0.0156304766541513,-0.0629396030507648,0.00135449257510973,0.0670402333789489,0.0408391456494113,0.0106448731480359
"tire",-0.0152025755031356,-0.0148713268569703,0.0176635153664568,0.197559132346928,-0.0446773008022543,-0.00803672175995401,-0.0108194228587979,-0.0194296356761747,0.00439580205822649,-0.0129658616349072,0.00255315650624348,-0.0220722389491384,0.00377602925882602,0.00209297709777025,-0.0114266022123901
"arrive",-0.00746968555133416,-0.033924396195887,-0.00940400631584438,-0.0188079320335645,0.162223816550402,0.0173031475504706,0.00209400229493309,-0.00287262179043368,0.0144857491475627,0.0109479011440431,-0.0181857454831328,-0.0181972324710699,-0.0423050362176899,-0.0164542146746576,-0.0227248557581589
"person",0.0171320201175613,0.0636734659800457,-0.0301198810156653,0.00336460258038403,0.0400169231029803,-0.0398521293131574,-0.0577104194800108,-0.000769391672761555,0.0245713120044667,0.0261463610382223,0.0294039786269798,0.00815014849565475,0.0272330723874998,0.0159181599383749,-0.0511286557174229
"order",-0.00719628685808421,-0.0136367396186609,0.00131395696153267,-0.0317750226647096,0.0255713006109294,0.070338165780873,0.0462101696003387,-0.00827082876598034,0.00572932435210746,-0.0187819565090306,0.0401724656181559,0.00944669649560425,-0.0352874857946125,0.0137959314905238,-0.035148659248823
"finish",0.0166214869881376,-0.0297512690968959,-0.00981593224776706,0.0208343331173517,-0.017226496427639,0.0763185809971138,-0.0152439464225754,0.0162985036436593,0.0217064336097027,0.104805227165561,-0.00923683331240003,-0.0478018234332922,-0.00671670069267099,0.0323486536374839,0.11495534071782
"fall",-0.0284957323662348,0.0783001921954246,0.0263992254564162,0.117480412029084,-0.0250438198000686,-0.0365991907406818,-0.0357518738914679,0.00955010976351732,-0.042857919114737,-0.0191320457836363,-0.0342074400172384,0.0466235353096448,-0.0448419361865769,0.000132200728614853,0.031803865179022
"semester",0.0449565077829628,0.0975210825916809,0.0299831998641352,-0.0029149233916374,0.00318089706841066,0.000238435536903497,-0.00272543846456323,0.00718652803457463,-0.0437996790733563,-0.0386950618013026,-0.0542003289045788,0.0354229764450921,-0.0581654263159414,-0.00998405635484755,0.0776881474880007
"productive",-0.0253980156472054,-0.00739288047249157,0.000364748998953067,0.0289407191162453,-0.040074794736324,-0.0134731072500547,0.0409985114906925,-0.0161984242027481,-0.0181197796550673,0.00606529921577975,-0.0300238857455737,0.0100549140984595,0.00820905414024152,0.15113050885855,-0.00578328690164851
"together",-0.000115846436451126,0.0583766285505654,-0.00908749424119402,-0.0246036971628629,-0.0422100664122573,0.0216699895487787,0.0704632950388094,-0.029857217230583,-0.0632496823381145,-0.0314621302852595,0.0167830904875244,0.0296330605794416,0.0423599050323395,-0.0220714177348744,0.043574373020943
"outside",-0.00448560097542151,-0.0153176789816141,0.0265595790031695,-0.0079458309392658,0.11049204482174,0.0135386420193265,-0.0214606929524605,0.0284999994922055,-0.0179582130033388,0.00885049090209811,-0.0341117255267409,0.00278155889180947,0.0268602163900421,0.000740147140565088,0.00349363859333411
"table",-0.0141596725392277,-0.0375518101621908,0.0165350170912411,-0.0268449247843566,-0.00903491977500532,0.038287744603359,-0.0310703900763851,-0.0460057012833684,0.000246673267313905,0.272273621361909,-0.0159947030646571,0.00249798135679029,-0.013545110594293,0.0251726913741471,0.0236643038665013
"experience",-0.0132093244037156,0.104710110365989,-0.00428235683266316,0.0120596967193478,-0.0305502559383954,0.0225116056825812,0.00300254612469203,-0.011684862701309,0.00250246611489205,-0.00785202109037942,0.00689544351292811,-0.0468194733439396,0.0163126235442004,0.00241936408423839,-0.0102153524461963
"live",-0.000564718948552888,0.0686562643040425,-0.00315864548254013,-0.0249358305149581,-0.0174077493688062,0.00135189539142461,0.00688977965909823,0.0103190871953804,0.0017071370929887,0.020399115413301,-0.0361193194248069,0.133312412691081,0.0184194163708067,-0.00473602186229991,-0.0627541684401287
"open",0.00363647463248911,0.0268169707248457,0.0012045282830038,0.00921631222857919,0.0695655639142867,-0.0468894037893047,-0.0312047763827203,0.0103399451246696,0.0188079124233113,0.0366352608627602,-0.0407240411596273,0.0687937174720224,-0.023808117312685,0.0228671533031279,-0.0550350943942847
"school",-0.00152426610781581,0.0730630503940862,0.0137762009636032,-0.00358936304388534,-0.0446849198623109,0.0248632427033465,0.0532655165127144,-0.0458645524158252,0.0506831849400886,-0.0242561873456537,-0.0381828436783833,0.021749066571839,-0.0260459066853955,0.0291014456346619,-0.0187209799719361
"laugh",-0.012941889207062,-0.00257411619101461,-0.00371943788341794,0.0203216362238256,0.00154076085703618,-0.0016561082499655,-0.0198588535700276,0.00261580191446988,0.00257965291277923,-0.0465514475071703,0.0412923420517907,0.00751351637287748,0.2266636361331,0.00335127017253769,-0.00664328437337374
"apartment",-0.0166489298902289,-0.0318622964220533,0.00281196834329519,-0.0241680670031538,0.0229920571455537,0.0168528825096518,-0.00148019809557903,-0.0115278784026382,-0.018631789226806,0.00785276740292108,0.0376136797490345,0.198775967952907,0.0182719713654984,0.0356189771011994,-0.0505962252391372
"easy",0.0454207916961749,0.0102528787624478,-0.00518814272863817,-0.032068818655397,-0.00957682381370464,0.01393016619443,0.0269172885999987,0.00423786806467624,0.0373538578845226,-0.0246584083714715,0.00593744567054189,0.00619739576517841,-0.0263679989343687,0.0704553500923806,-0.0222045426977882
"walk",0.0361093666244772,-0.0594441511574369,-0.028940724511157,-0.00591091263890621,0.173796030628763,0.0234867569146489,-0.0242957674127093,-0.00797103264855815,-0.0516753025268617,-0.0222788775848973,-0.0346077200470295,0.0257379437150078,0.021640696073984,-0.0142872548768718,0.0203222088027562
"stuff",-0.00609667004707389,0.000263787352229469,0.000233092070449415,-0.00647632376726617,0.0041538912345549,-0.00190950279258734,0.00191965701251506,0.00691809020269795,-0.0238385828716962,0.00739588991822996,0.00851085613068724,0.0760687275715757,-0.0359566635388122,0.0122117210924277,0.0382399489364369
"explain",0.0242957398559284,0.032383045321601,0.010451227201499,-0.0361832588225057,0.0198722753506245,0.0140002032028201,-0.0388929880307062,0.00283344365403194,0.0170330884093573,-0.0224951884873526,0.119918336122557,-0.0270069969144086,0.0515962618485683,-0.0537495940946744,0.0252350895364401
"group",-0.00898524923359383,0.0892845277057868,-0.00133689523437809,0.00432718175860973,-0.0323878990740725,0.00938138770419198,-0.0555700884618906,-0.02110027216911,-0.0642209555905799,-0.00270474049061941,0.0293530987145154,0.00189233350236618,0.0461346480682701,0.0246253168399569,0.113745389268758
"surprise",0.0207482558979742,0.0145538622548682,-0.000464738650057101,-0.0173577650267128,0.0563836413940821,-0.0512037183942609,0.0166966806349335,0.0149811270918352,0.00202083733930418,0.0138790019623855,-0.0261587357166716,0.0432111994171549,0.0455170022013857,-0.0155967376133269,-0.0565284266052471
"funny",-0.0126705068264033,-0.0326323226230262,-0.00494412449580442,0.0122399748165339,0.011571668654424,0.0124224820146421,-0.0227531707763746,0.00527678722494488,0.0271529457993849,-0.0471588571414537,0.0470757695852281,-0.0488078744464625,0.257057651849828,0.0433669295858554,-0.0206849170019517
"spend",-0.00427092458187274,0.014751402272587,0.0104851719872618,-0.0250319637445708,-0.0462300727618322,0.0135729308379488,0.131955947434246,-0.00579151333773334,0.000503126567299266,-0.0249207846954547,0.00563616030174712,0.0498595013876337,0.00429543876654962,-0.000492740798668375,-0.0312532917387585
"house",0.00112242669123431,0.0174171735247468,-0.0062195887037155,-0.00425160332413555,0.0138199687412135,0.00700283684269148,0.00267671358987426,0.0377252537329,-0.00364515601877413,-0.0265097005710406,0.040560456899225,0.14437264898285,-0.063784209856172,-0.0676860573200154,0.0100044433645487
"life",0.00152657104927532,0.1015751993579,-0.00848331975993366,-0.0100433838662818,-0.0611567041270505,0.0055659250999224,0.0101170035133536,0.017900547840079,0.0156090372422795,0.0161481752931231,-0.00469280413988401,0.0434448169337525,0.0335677109362887,-0.0125500662349156,-0.0536073657112398
"fill",0.000805981752123164,0.0344907541803975,0.0505085894724289,-0.01640596010089,0.027334508123219,0.0323495683717962,0.00131840274264845,0.0156174039996374,0.0270763572142465,-0.0112012946358866,-0.0133110735734495,-0.00910094114028508,-0.0392829100114215,-0.0450310155673074,-0.000681752476975229
"chat",0.00390130726488246,0.00665358892444242,-0.0118681090347388,-0.00437519519271896,-0.02212506620913,0.0112097800403076,0.0706482801588113,-0.0364941623897143,-0.0277877811738187,0.00391691129629841,0.00776289023852571,0.0121603530438752,0.0733980353154337,-0.0402517617623929,-0.013692930610992
"hard",0.028101820679577,-0.0275209846754473,0.0359459711207339,0.0184525876368037,-0.0358321089715709,0.00566307322463332,0.0361956657364541,0.0126822772226289,-0.00957050820098345,-0.0215785004625137,0.0629338919401153,0.0221586904689012,0.065017169204883,0.0442886747853673,-0.00890177942203463
"lecture",-0.00428746031201465,0.0122557621668988,0.207062920263478,0.0237434822045176,-0.00388921093588601,0.0228319221763906,-0.0341629329549651,0.00520970681505202,-0.0284728025328449,0.0176744273201297,-0.0257049862993066,-0.0166330817709504,0.0063829152873925,0.00539884879412919,0.00484796492670841
"pick",-0.00936564169382588,-0.026386861480679,0.015262879594554,-0.0502811467554884,0.0850089897125623,0.0203263879868315,0.0176615470740934,-0.00384385731646769,-0.0170132767615469,-0.0131029640118368,-0.0170478012240586,0.0494099588986478,0.00323262803104334,-0.01160333230465,-0.0062618255207572
"emotion",0.0139414293350396,0.0203223754579074,0.0184811601957234,-0.0125085332305997,-0.00130287369079949,-0.00958167560520711,-0.00311611067378525,0.187889904681736,0.0477803110918414,-0.0287821625897418,-0.015263815288697,0.00137948976317141,0.000627376796913877,-0.0443646312175686,0.0115889244094591
"clean",-0.0131997313441816,-0.0313015699816463,-0.0175911610770075,-0.00901928288881849,0.0137644554560153,0.039146518784749,-0.019768272575393,-0.0389437752341881,0.0422764448596834,-0.0145524103367178,0.0710313802858117,0.128130656652366,-0.0340730691681879,0.0489250029468632,-0.0136328822772167
"video",-0.0143382210302312,-0.00819702353181922,0.0126915945791893,0.00548684864566971,-0.027847093311613,-0.00284298726067599,-0.0294969448520129,0.019688159765873,0.173852329147635,-0.0171214197977673,0.0247391427522424,-0.0209372419507683,0.022612707088758,-0.01250523280485,0.0955689026340254
"sad",0.00144079985525441,0.0377448560533689,-0.00100317507993598,-0.00175907107207166,-0.017428383880121,-0.058512788228549,0.0103069032203841,0.00665995225131952,0.0278086031133258,0.161143662143682,-0.0539537278652161,0.0380121485622515,-0.00926526037723514,-0.0438620796320223,-0.0576686962235793
"past",0.00337887110791618,0.0732106573075295,0.000697890574712185,0.0231119558275408,0.0113487832504565,-0.0102905199366262,0.0517953428495994,-0.0160881670760838,0.0243832515892529,-0.00830142002755742,-0.0392362004043185,-0.0230930386179476,-0.0429915162994947,-0.00767994040696486,-0.0692941452074161
"mood",0.0239319368117432,-0.0324868387697731,-0.000680189384532963,-0.00471081561993024,0.0138421913393497,0.00601351600303145,0.0854573979504711,0.00748309912436056,0.0110759133992627,-0.0181450289446345,-0.0112975054994387,-0.0943851083321179,0.123338644827748,-0.0049234518114964,-4.40036710713323e-05
"problem",0.0462944926326544,-0.0412075226384886,0.00838230904469887,-0.0101099736704964,-0.0440492250746006,0.00660949868055173,-0.00845192136535483,0.0373508280303073,-0.019790041423078,0.00661251454545466,0.173675570355998,0.0558368375278097,0.041984990655786,-0.0372438762186952,-0.0074024328837194
"amuse",-0.0272152234690347,-0.0136492844107117,0.00637450507082626,0.0345106028133528,-0.0019520546702556,-0.0056277707616498,-0.0388365678950223,0.00402176454984363,-0.0181786798093092,-0.0179500525441713,0.023330908243106,-0.0265392304565868,0.222675631466185,0.0523624397503342,0.00680574317777299
"content",-0.0099562076834959,-0.0080645359590527,0.0642242409082655,0.00749581784598032,-0.0235091541782751,0.0327898427599547,-0.00223583549025237,0.0189690823629461,-0.00654683261239449,-0.00593361865036514,-0.0293630609742738,0.00434269835781629,0.0732191406486383,0.0321343061195352,-0.0148112092801779
"night",0.00489272024537317,0.0114845938981566,0.00956727224053875,0.147058644285294,-0.0447370983726044,-0.00752158412199444,0.0428129810770298,0.00548512263656521,-0.020880212924469,0.00517062242112518,0.046228703182514,0.00833495033724072,0.0189097180951612,-0.0582417209667805,0.0253135953978649
"calm",0.0465063478845901,-0.0605140682691603,-0.0331227076835139,-0.0070439509805041,0.0138779894052363,-0.00276058769389524,-0.0132134167322285,0.101932898751344,0.0319506864849124,-0.027137956812888,-0.0542790944219797,0.00909298047456222,0.0900188355049368,0.107362026129795,-0.0103237722864427
"angry",-0.0138029663585518,0.0246115065037965,-0.0233673155506207,0.0219820136760171,0.0174741042208695,-0.0208447196318112,-0.0572001451332937,-0.0161394765179294,0.0139624801920283,0.119317707210032,0.108964006433149,0.0351181317914399,-0.0281563438952532,-0.0445807106682663,-0.0422712757170355
"topic",0.0162521123284563,0.111453635054976,0.0625802991324819,0.0103460757192517,-0.0750739645736213,0.0254740734056772,-0.0624790342839922,-0.00250782320533962,0.00290347330144894,0.01256771037227,0.0397334992498913,0.00109788781607948,0.0245523118012646,-0.0132357532627145,0.0142460605830261
"couple",-0.0131319095441561,0.0153453451874646,0.027163729761102,-0.0107467224407159,-0.00733325637234036,-0.00266114273674394,0.100194651269992,-0.0398251392646956,0.0220245451235669,-0.0240213611116661,-0.031464132632561,0.00820519135385698,-0.015597166989829,0.0483741627371129,-0.0299452507285403
"listen",-0.0502719141718859,-0.00605363457267102,0.148971186146863,-0.0142343566847576,0.0240241362921579,-0.0225595919071629,-0.00923564441366499,0.0681885469818373,-0.0469537782264517,0.0737610208222747,-0.0848398850016585,-0.04554734849184,0.0547772169488787,-0.00153466870331149,0.0640248752485996
"bore",-0.0415501684296708,-0.0245551884061746,0.106689565115986,0.0285223379924992,-0.00268757888371041,-0.0347059750381028,-0.0224989527326382,0.0648799451304686,-0.00498527931894061,0.0160460654498298,-0.0219693596676601,-0.0140598265336203,0.0474759427967385,-0.00149762740035985,0.0723468774714382
"game",-0.0288830688087891,-0.012314168827898,0.0142184781991896,-0.031160966132901,0.0197507749138929,-0.0487871685193925,-0.00719921738456729,-0.035052321017832,0.0957716393404472,0.0075686300407821,0.035313346910554,0.0195752438755616,-0.0553072553663079,-0.00824033685347357,0.256321719129458
"confident",0.093846153726592,-0.0163470502239431,-0.0171033843110006,-0.0379740287283105,-0.00572101014945219,-0.0130643180451024,-0.0108715539737867,0.0729711906841756,0.00494498699786627,0.0108870071805199,0.0151463858432209,-0.00796051561179814,-0.00156637769616541,-0.0201184267890265,0.0347442482762475
"wear",-0.0217534034826303,-0.0273207667062184,0.0157338791177766,0.102220795504599,0.0370958597612048,-0.0281767989278449,-0.0288726342776555,0.024224003248206,-0.00129535825222878,0.0223962112908499,0.00404537949506578,0.0193970415826167,0.0238055479756587,-0.00947525275348994,-0.0164598833376516
"sleep",-0.0385894224023935,0.00956527866632034,0.0295784375389092,0.230498063638774,-0.0672090896077367,-0.00758973984511699,0.00544925594823928,0.0382266401097777,-0.0178030338610739,0.0332106253289204,0.0347178132699171,-0.0409461266475826,-0.0122042105924155,-0.0512358380562278,-0.0199313245791381
"food",-0.0251464111626149,-0.00126189671664114,0.0287892203293129,-0.0479040047275532,0.000404774851843564,0.249049551669882,-0.00264856039769007,-0.00395344315750337,-0.0127090939389443,-0.0155192139211333,0.0167036132417661,0.0166661397076358,0.00309027072174552,-0.0251814228701184,-0.0472054202864127
"dinner",-0.00427345511871827,-0.0302605245923733,-0.00548531374358984,-0.00793915767590353,-0.0127195866746338,0.0937741740916729,0.0141377340819254,-0.0276927268945415,0.00708584410772655,-0.0654219944074718,0.0710471514231445,0.0700903250068445,0.0245661062368085,-0.0212579606332732,0.0284887992851325
"pay",-0.0955490087722395,-0.067645378239659,0.276310106722901,-0.0203895888905686,0.0167076209263462,-0.0163145557663697,0.143594007114582,-0.00537732002944111,0.0294304842361884,-0.040212041925054,0.0447512316370314,0.0405459838127576,-0.0921013474967418,-0.0311582802653652,-0.0481280176687489
"attention",-0.0888913260642583,-0.0804317305657552,0.280830876343444,-0.0243843172620869,0.0186382420070058,-0.0142157365227277,0.130674190673655,-0.00365505259338461,0.0499687206591566,-0.0407245711783673,0.0503892209286451,0.0213382620461518,-0.069210619947404,-0.0194837502761528,-0.0438562870118067
"coffee",-0.0121689022726699,-0.0199923287214017,-0.014051327639349,0.0260703630719893,0.0584446982038033,0.0370959169653597,0.0467266209947807,-0.0138150484339552,-0.0103140685024769,-0.0139450049286214,-0.00991983275218461,-0.0481667416293188,0.0304766125623681,-0.00259797426707205,-0.0455078445409312
"professor",0.0742442306999302,0.0455946361385646,0.172200630135974,0.00982229600323968,0.023193856840502,-0.0038145421684059,-0.0866382485374333,-0.0101162493211716,-0.0116623901202531,0.00350029523443047,-0.0256859868779362,-0.0475339181778731,0.00853725829088198,-0.018050695282335,0.0454838749406566
"confuse",0.0104722275515618,-0.00510541586645513,0.0512490441149593,0.0136351123890942,0.0159127156689444,-0.0104930417541419,-0.0300411817612972,-0.0136458772792484,-0.00748974505597561,0.011082942335427,0.0740599688533543,0.0245579689466784,0.00543028873501152,-0.0506589691504686,-0.0136218280627132
"material",0.129765293863289,-0.0127378334368647,0.0706862832031312,-0.0139729044358002,-0.0331315538975397,0.0203442067790757,-0.0110961678621817,-0.0222179351778171,0.0155906212928462,-0.0261683538654342,0.0289561899712315,-0.00786487395154011,0.0129364601108692,0.00486431395590758,-0.0393671695993251
"shop",-0.0292031366247774,-0.036274079956958,0.0120255970968448,-0.0213732516033613,0.0117951002133232,-0.00416271969526163,0.0798071495701234,0.000260751312578449,0.00791725484210208,0.00628648488904531,0.00724388806847687,0.0482605030415859,-0.019715146194608,-0.0026709121157942,-0.0512921202658124
"hungry",-0.0251407306743987,0.0123792830645198,0.0291795215550223,0.00168525560998064,-2.75562026177782e-06,0.256188770017932,-0.0759553385281835,0.0434923668580475,-0.0068422572346564,0.0416901727240566,0.00923166165053424,-0.0272919378959482,-0.0423097865599372,-0.025298450191794,-0.0388015133357962
"homework",0.0294716403755026,-0.109581449059807,1.54411232175932e-05,-0.0141940662757236,-0.0659573620055156,-0.00835594150315036,0.0611733738968396,-0.0337149996601522,-0.0106840929048614,0.168658604098686,0.0630777941296986,0.0444584671851419,0.0267242782629254,-0.0137299268541824,0.0746006595771776
"relax",0.0517736428116277,-0.0621905042155034,-0.042132706888011,0.0285435125295939,-0.026876154222474,0.0310446557148597,0.0308360642306806,0.0302162630642939,0.11581509842957,-0.025597491309092,-0.0674428725539245,-0.00797617738067511,0.071134828746111,0.0340414516319384,0.0646448985670924
"movie",0.0023844519926194,0.0238541930524393,-0.0215398214195731,0.017837700731763,-0.0345524118276776,0.0019816305714207,-0.0182961955182795,-0.00616854917424015,0.110461024116397,0.0353419297179445,-0.0148584190670638,-0.0136578201991536,0.0325011612133486,-0.00634274797978702,-0.0431210040511166
"music",-0.0277543942423115,-0.049559173376799,0.0593470435046738,-0.0121303981412734,0.0596703158995055,-0.0485999406570688,0.00770067970273464,0.0816679453339694,-0.0329910506323992,0.0729891160925337,-0.100169902947908,-0.00133544493892341,0.0234812914336675,0.00603186742602067,0.144204615165795
"love",-0.00322381557437406,0.0906269630878505,-0.0107386289643127,0.00378130722959338,-0.0357661246358561,0.00180364334661315,0.0252196824425755,-0.00874312150813916,0.048343036885482,-0.00746968601501926,-0.0300604329935039,-0.0130278275711231,0.0367173244620628,-0.0403668267121074,-0.0259390019078712
"neutral",0.00445434014848961,-0.0294199010352506,0.00920649049768073,-0.0111797391327151,-0.0238888465207417,-0.00960450624174779,-0.0165542356012393,0.103862196558254,-0.0400815301277944,-0.00440874602175772,-0.0419505189100979,-0.0138060134783357,0.0688959353223909,0.0374437943505073,-0.0102530133076464
"bed",-0.00948172896548987,-0.0115222890767344,-0.0146871107980446,0.165818336590314,-0.00662690351687152,-0.0433469581188225,-0.024266797410892,-0.0396997971980883,0.0720770761624063,-0.0463622946101393,-0.00946928460523242,0.0557612095517918,0.0424692085984068,0.0256371702827223,-0.0287862581401262
"grade",0.135709250447316,0.00148400060485086,-0.018182707684245,-0.00138010728574016,-0.0310812442778991,0.00224866676651168,0.00341481364488507,0.0293055186319469,-0.0324973788940943,-0.00772036810945546,0.00468445874419545,-0.0017516834659979,-0.0260029395198043,-0.0135732608588214,0.0049321344936785
"wake",-0.0209095189588467,0.00955694356894656,-0.0102164086001267,0.249583490616092,-0.0092078651026121,-0.0248063322543284,-0.0217788427820253,-0.0348768880500969,-0.0226921077484725,-0.0117328333394708,-0.00951124814373445,0.000884072782152227,0.00937293717136198,-0.0137383196790556,-0.0201452018910591
"hand",0.0233621833686095,0.0128814155491919,-0.00804503557356174,-0.0142344300629267,0.00942720702401169,0.0260010724641287,-0.0501706537006164,0.0521741174157684,-0.0160728481299042,-0.0626270202064056,0.038536762490657,0.0348414057486295,0.0262810791989044,0.0834233718739217,0.0189702802574267
"midterm",0.11460263203554,-0.00753829718137511,0.011920615969287,-0.0257577094327362,-0.00273547504613316,-0.0183223963376325,0.051254227185147,0.0102147191889178,0.00506756320053436,0.00533343399281823,-0.0651759709165717,-0.0541943169663126,0.0181471709377027,-0.0535658375913311,-0.023559834274933
"roommate",-0.0179351879416683,-0.0118547078411391,-0.00117129103124297,0.00476075021106707,-0.00510664965387091,-0.00974662592757121,0.0059636911257137,0.0197165601473795,-0.00415958354863402,-0.022112595778478,0.0488424065300727,0.204597433779112,0.0107606925285847,-0.0332948332247372,0.0119530062432178
"library",-0.0124148908939316,-0.0221997984641795,0.00671778629571653,0.00269497074687908,-0.040050604196444,0.0232292927747922,0.00205291851674455,0.208743456538913,-0.0669955942518228,0.100882813571328,0.0150996550626411,0.0122762774843227,-0.0375426616568587,-0.0253278580352287,0.00587869634082801
"exam",0.188559830167189,-0.0373417072990478,-0.0181457484641983,-0.00962375394065202,-0.0431654360123292,-0.0155967413159941,0.0335245576004927,-0.0314309333845336,-0.00367313024867166,-0.000310345076660738,-0.0199426983658367,0.0584990952071461,-0.006878344614647,-0.0250293197332852,-0.0242318073003453
"assignment",-0.00167836982474814,-0.00613304177451015,-0.0071688980896205,0.0370166897019776,-0.110450455923826,0.0447448076103067,0.0712211971273523,0.0559537200536818,-0.0234765871382022,0.00350416448799385,0.103226507122077,0.0455258743178539,-0.0711360075254155,0.0100543211276693,-0.00309258032351255
"quiz",0.156345534741684,-0.0518088386713124,-0.0286145893134946,-0.0025001376455365,0.0296507245854144,-0.026946407516082,-0.00457451916772959,0.00343483027371343,0.0235593987850617,0.0069458741557985,0.00155845015407595,-0.044557040800001,0.0579138535449445,-0.0553714142454542,-0.0383074764551747
"television",0.0192508565783619,-0.0153385331285473,-0.00472238479945025,-0.0190591340991331,-0.0172624386187948,0.00815755360881898,0.0202414386210485,-0.0195270489634399,0.254889593594013,0.0144344064241934,0.00374851281673059,0.0241051091998118,-0.0461782384280812,-0.00656824107523964,-0.0157297293325937
"nap",-0.00421138358380284,0.00734578903968648,-0.0243351770245071,0.207386912111976,-0.0159754740733921,-0.0759381158646997,-0.0407164808782196,0.017180593746493,0.00748828237142596,0.027088054540585,-0.0269341077111553,0.0109035592731813,0.00860011755480019,-0.0487694361944574,-0.013646419657958
"dorm",0.047969478763029,-0.016078783168665,-0.0219910764962638,0.0267771607491161,0.0549954370035366,0.0243170988653104,-0.0604322755398202,-0.0247272315281721,-0.031411916742035,-0.0259373789742974,-0.0277671457250285,0.0753275422216893,0.0109017480611602,-0.0308190338306719,0.12432517204002
