"","RC6","RC7","RC2","RC8","RC3","RC14","RC9","RC4","RC1","RC10","RC5","RC13","RC15","RC11","RC12"
"place",-0.00140372283588577,0.0358478713999131,-0.0514889650544902,-0.00421434900329407,0.0420867793580136,-0.0625717160802998,0.043415769164875,-0.0141246925506317,-0.00833253727577522,0.0882965917891926,0.0277448483077794,0.0331362748774432,0.00743055526826257,-0.0347229194412597,0.109590614426763
"relieve",0.0474950270600414,-0.0131948417587549,-0.0164669346502824,-0.0122883981479918,0.00701861202835158,0.0447438806068933,-0.00199151848227349,0.0463000378074312,0.0259633329010048,-0.00263720971138461,0.0294246332206919,-0.0295238452300217,-0.033185305687213,0.0650963799049307,-0.055725672647503
"frustrate",0.0194593041831405,-0.00835931526943306,-0.0529513892055617,0.0140456006282726,0.00543977468232607,0.0114175902963494,-0.0383621695905906,-0.0110671819220297,-0.0221012968370252,0.230608518347872,-0.0168668357263316,-0.0118884537782866,0.00253830961928887,0.0237659971560335,0.0352912698364111
"long",-0.0147352229543426,0.0258098491182764,-0.00613252427896143,0.0435479486001545,0.00917812643161298,-0.0268088326272833,0.0263881992965237,-0.0293104817851086,0.0683812697766631,0.0304117531125696,0.0517646215940708,0.00168202964381553,0.0358181812429689,-0.00230095708523524,-0.0190951010360139
"happy",0.00292081008747351,0.0349682794639285,-0.00306771072645425,-0.0545854039066485,0.115308307518374,-0.00191467418239369,0.0478326272251165,0.0354423279174034,0.0797150896131152,-0.100482536848814,0.0252693355357945,0.00756229898679913,-0.0391909632417985,0.080218416687306,-0.0588546058185886
"issue",0.00377573109429097,-0.01633873157974,-0.00464774895009628,-0.00906930150405628,-0.0116624175891481,-0.0427723231111338,0.0157959805557113,0.0441558270724355,0.0620032485935633,0.122608808941673,0.0231149638400801,0.00239762149400266,-0.030313646673448,0.0102206787704443,0.0186997124837672
"work",0.00420107904540733,-0.00178858578993305,-0.0794981311634481,-0.0217743589945738,-0.021306261917144,-0.065567177156168,0.0098290993818093,0.0428297985920704,0.142583960000196,0.0295676592715039,-0.0483137924057262,0.0521407151229261,0.176301040553635,0.0718605006318373,-0.0379181056697624
"email",-0.046452533580358,-0.0226184885019189,-0.0371542229138353,-0.0684139329021431,-0.06663993877314,0.0582589978493829,0.0336746382229826,0.0122914868562293,0.0790583693528179,-0.0436801939150992,0.065762439648939,0.0748446778431261,0.12392581828568,-0.0858806280148953,-0.0488584946469841
"lunch",-0.0123824081372898,0.212572555388642,0.018461687307943,-0.0681559730094323,-0.0107930930537403,0.000912478827596483,0.0307656639677728,0.0354283997916973,0.0224853833278637,0.00414208301929294,0.00713980029495987,0.00862128530565919,-0.0729192459442042,0.0259333777957796,-0.0280331541238376
"class",0.0697018372847545,-0.00375030891284956,0.173500379823806,0.0605220472789606,-0.0251915932020765,0.0784572407601379,0.0522336981791006,-0.0644567198553306,-0.0773077548975073,-0.0743396602272137,-0.00423078627017044,0.00789615691073554,0.00832293623892104,0.016318671749342,-0.0376333353384584
"call",-0.00696656369219102,-0.0310193705840133,-0.0402917098252278,-0.0394555530510292,0.0670194942897763,0.0959359468368924,0.00581488037811627,0.123339547676652,-0.012733201170817,0.0397330700593299,0.104469005714067,0.00535695376969939,-0.0753506949666434,-0.0570960353645606,-0.0588062359845869
"study",0.182288449707052,0.0385255454039352,-0.0418103442159079,0.00997363820272349,0.0674826271751353,-0.0305987170063974,-0.0801964435458343,-0.0179600781814505,0.0129638759823437,0.0267649572531446,-0.0277076671224729,-0.023547282553412,0.0340736963316499,0.0289834148296027,-0.0387403826801817
"enjoy",-0.0294972921233744,0.0861117298635953,0.0863907766131441,-0.0369531322881859,0.0200659096873794,-0.0186518275357582,0.00592372705203812,0.00187214415255051,0.0450967078639706,-0.0319159794749774,0.117755295615221,-0.0186249297920414,-0.00423968982686008,-0.00615285901285435,-0.0105258954736112
"thought",-0.0235080252287359,-0.0259307398273257,-0.00466554856229748,0.0291864450746267,0.0951358053719832,0.0664698748929044,-0.0646913934870423,0.0408794647208874,-0.0269459045342259,0.0310432692108566,-0.00998908396452765,0.0091233639740129,0.0920970114170197,-0.0442192791300441,0.0366776717594854
"learn",0.0342901200130702,0.0280477596649525,0.087025240757351,-0.00805153799610791,0.0140829466213611,-0.0720251593439388,-0.00512473943868351,-0.0302667679263039,0.00347969032310938,0.109579940477481,0.00718872721719556,-0.00174643155705644,-0.0174278467913651,0.0138196321903903,0.0185533401352934
"question",0.0955210826516365,-0.0106146203846835,0.0720209589403222,-0.0930928925565757,-0.0345280332635351,0.0597291869269442,-0.0428364255621625,0.0290126998233321,0.0473470579105161,0.13528269872052,0.086445885157176,-0.0707948259870862,-0.0694503510711322,-0.0141410170162216,-0.0434334895853546
"move",-0.0147293338631488,-0.0389853829162236,0.0170297631924887,-0.0169392309561178,-0.0407779388971422,0.0103998458639997,0.0163551996018027,-0.0327876038119563,0.0287709062901672,0.08965304881054,0.0235216445925473,-0.0290836260580402,0.0382692108254549,-0.0174542857635942,0.201768341501905
"answer",0.0335728004401721,-0.0173754462524558,0.0459006618262655,-0.100367076454681,-0.0489456871190654,0.159152234593633,-0.0379611819284662,0.0582200283130487,0.041796866445352,0.0872440060199552,0.113939199672226,-0.0290855309734234,-0.088504425272829,-0.0323606053888353,-0.0640443835584399
"discuss",-0.0256205615153034,0.00497416686545472,0.0797474061559492,0.00429158682327013,0.0264692854402774,-0.10157888431704,0.182376226499146,0.0254698826053679,-0.0109922944059834,0.0667429513611925,0.00934362460365088,-0.0513980968490453,-0.0742815457427765,-0.0678408978413094,0.0393929793307187
"prepare",0.118665396575346,0.0614433962444022,0.0037894800362163,-0.0601210663894544,-0.0620954628135279,0.0259469434231221,-0.00188105442205326,0.0574359685833491,-0.0162584568947837,0.00457405771536093,0.000417077139537293,-0.0387112689018576,-0.0364825402530022,-0.0441136466778836,0.104309940203265
"plan",0.00337953152365043,-0.033382299220624,-0.068034291837775,0.0170653741425398,0.0308438943450635,-0.0286591560967585,0.16743106700936,0.0526797054210791,0.0284884876225858,-0.0661352514559962,-0.05875288964587,0.0726637473209778,-0.0369175690041013,-0.0128826701081495,0.0540535678792021
"complete",-0.0222377568771972,-0.00822266493996133,-0.0136356048454866,0.0187527211167622,-0.0584222831391417,-0.0085034756590033,0.0407469812050655,0.18493622282544,0.0186493457347903,0.0756141117056459,0.0281875462855843,0.0103657677419505,-0.00219083799431633,0.0248058037133183,0.0161792074655175
"task",-0.043369860121533,-0.0257319214302063,-0.00911623702842154,-0.0494810594078385,-0.078767650513772,-0.000667220061299817,0.0118469771654922,0.129717373362993,0.0586138859401108,0.0246448335543271,0.0212267573574246,0.012268558308076,0.0681137201436371,-0.0180491522147066,0.0523138361863369
"train",-0.0495347932076799,-0.0313197404206781,-0.0290345023142723,-0.00656519143177483,-0.0321967723886154,0.0542465352834967,-0.0397763999083242,-0.035278780573307,0.159402138551287,0.047333559791713,-0.0407381930034143,0.0228964159390303,-0.000170006209341584,-0.00972839283600472,0.0405076780465072
"day",0.020772017481165,0.00114792854190524,-0.0228043777448585,0.063540867655573,-0.0284758432656989,0.0240468015408044,0.0488850215679643,0.0362816329078353,0.12536016032112,-0.0475686670887487,0.0474401223309261,0.0150659150790832,0.0238250966392049,-0.0378081493902484,0.0162747642262955
"watch",0.0125918921831422,0.0189107925102974,-0.018861112659748,0.0444722238099849,0.00222914440152714,-0.0713029828885909,-0.0493265016610964,-0.0140767003749706,-0.0488768279916069,0.00847117326910929,0.333848979817774,-0.00975533414631836,0.00451716302702091,0.0625115550450471,0.00670144520578684
"late",-0.0166288230723026,0.0281583081633659,-0.00655386981676742,0.135572636963599,-0.0555555733941762,0.0782811039281353,0.0451256952353378,-0.0399112889949188,-0.00867948270539549,0.0685655908605836,0.0197802227371719,-0.0457743772405942,-0.0258214704407249,-0.0287856122456395,-0.0374897712634307
"job",-0.0256608464015866,-0.0100057497963193,-0.0180903008129777,-0.0106006602799661,-0.001056007558217,-0.0353370995428184,0.0796609509646198,0.0352157089210129,0.038093980048266,0.087089306716512,0.0604050005181152,0.0138711431479293,-0.00263094284169473,-0.0497415539352922,-0.0310501132960577
"nervous",0.109025873905814,-0.0382612598530664,-0.0125320854346334,-0.0181033000784096,-0.0328203310728757,0.0870370056591105,0.0816321069374411,0.0238856633412295,-0.0620341017615739,-0.0549429535355867,0.0571390946153082,-0.0575155412274411,0.00617535744988566,-0.072836625331511,-0.0508207730937
"begin",0.0237988614755394,0.00442780269481644,0.0528076457601764,-0.0113390798777855,-0.032455256897193,0.0176319516520393,0.0359331589677448,-0.0176501560311556,-0.0250969644031101,0.0388628020025719,0.0149098169558992,-0.0153053553387828,0.0226217751453015,0.000371368378162875,0.105757447942417
"start",0.0246485686076995,-0.00325028899238372,0.0118717364082337,0.026307367794116,-0.0204041248619495,0.0454979320369377,0.0599054855607775,0.0489041357477969,-0.000669988935666247,-0.0229085633196286,0.0126705765827192,-0.0187229732320582,0.0438372296137906,0.0168591053623816,0.0816564081802948
"conversation",-0.0215047459938891,-0.00242607924862403,0.0247334999754463,-0.0478071704383101,0.1273455166099,-0.0177662231171437,0.0337315038732427,0.0511632136035248,0.0758324882662624,0.000849941368890914,0.0351473019220645,0.00583926571627828,-0.0675263199321829,-0.067818486186422,-0.0488738631104094
"friend",0.029830129433849,0.0121948231012352,-0.0524584421619412,0.0322231122862797,0.201481844969873,0.0158481362414346,0.115488702712898,-0.00239304922101181,-0.118945763168458,-0.0205287982432107,-0.0502582267726759,0.0426640898937808,-0.0585987596700598,0.0632487462635579,-0.0132972390724059
"weekend",0.0546515389088744,-0.044209767529544,-0.0472289222855099,0.0345365788299831,0.0419466883470708,-0.0584056007370055,0.0516093673207038,-0.0399780046055431,0.117449909878423,-0.0721812744791398,-0.0423282227946581,0.0401647361034303,-0.0182005037909428,0.0466417000833597,0.0386913294329737
"stay",-0.0158139258908858,0.0247201365772984,0.00928244420982124,0.0457265461230866,-0.00652377510695485,-0.0388883453643264,0.0404666749479838,-0.00506113195681809,-0.027786312710159,0.03773216249134,0.00720899633676748,0.0963268915816946,0.0267131934700251,-0.0217464201286154,0.0991256454858202
"excite",-0.0365293027992052,0.0143223082083187,0.0438069861439048,0.00426825245718623,0.0136456885142486,-0.0129115431867485,0.153881854538665,-0.0473550147552798,0.0326323280492727,-0.0849941847402487,-0.00905242768587671,-0.0279567268002057,-0.00893547735011904,0.0585899914250254,0.00862637997785802
"schedule",-0.0172444529878767,0.0188408311304613,-0.0251934883471284,0.0832688200886003,-0.0375290738492054,0.00732498819676794,0.123288380108078,0.023315145586574,-0.00435657185651193,0.0202032971138006,0.000190909190198311,0.0429412586579473,-0.00336925137862948,-0.0455626126020508,-0.0871286917150071
"show",-0.00898481436255168,0.00726754477676441,-0.0162620335103534,0.0285731403104801,-0.0202131531038661,-0.0146042241514542,0.0495576748927685,-0.027752503536551,-0.0174768860522019,0.00989291856975576,0.248464785527021,0.0323579182413837,0.0203278879825581,-0.00912726230980718,-0.0249168784826783
"hallway",-0.000492245742808803,0.0762295190970595,-0.0123043414913334,-0.0155176177289216,0.0217075015879366,0.111163893185646,0.0595302661310965,-0.0559332357930464,-0.0597356952193454,-0.0309049430837627,-0.0439874772712624,0.000385511435857611,0.0210081666521949,0.0655581236679302,-0.0772894218792491
"stress",0.150920188420891,-0.017436655392547,-0.0961371774526092,-0.00656904583315203,0.0432165381362529,-0.0416111474666158,-0.0268518475650164,0.0189289935031952,0.0597350032734707,-0.0418899151324048,0.019122974821457,0.0584313223215477,0.0352152945791376,-0.0728699865263681,-0.00893162586796981
"left",-0.0268703059008486,-0.00212920950236842,-0.0222511985453359,0.0115270184525007,-0.0140181862137392,0.185754987256196,0.0101734238253811,0.0110460361152462,-0.0380787640448699,-0.0336038607109632,-0.0921812260499884,-0.000503003224505832,0.0160721608420478,0.0504165469699389,0.018868495932776
"student",-0.0545922957493885,0.0235723087767781,0.0571844586446364,0.00786916051661916,-0.0436982203586494,0.0198064041417713,0.132216846287684,0.00166492429139884,-0.0317945747184209,0.0866403469182234,0.0369073661804313,-0.0126075802313838,0.0428356694343801,-0.0544122563067566,-0.0544381045298333
"read",-0.0349119626825038,-0.00704186462193318,0.05928143786436,-0.0169544064641024,0.0476277551231912,0.0572297113545442,-0.0649738874593476,-0.0124333318229085,-0.0817077025415597,-0.028201607862478,0.0363638676241894,-0.0568701304031216,0.222126051253597,-0.0928457257506521,0.0694216336752312
"due",0.0367589679790279,-0.00123615818217493,-0.0566425139582808,0.043511365566992,0.0196050473288164,-0.0347369043955775,-0.00573086283180371,-0.00188250326191426,-0.0127669051139701,0.0305487012945396,0.00721717032643875,-0.00260292017238492,0.175396639940956,0.0466799614256533,-0.050279443886404
"anxious",0.0916527911815052,-0.0344428046753755,-0.0398719665068213,-0.00212870492631672,-0.0105039296320305,0.0829683476647235,0.0271450041565002,0.01570664958377,-0.0474747674737639,-0.0398743454483851,0.0639513286545976,-0.0343541935111523,0.0234997602026953,-0.101873244960036,-0.0262780611578336
"meet",-0.0326694831068591,-0.00156892204401725,-0.0132079035463931,-0.0208902191432818,-0.022170017983337,0.0239092219683391,0.198009348044462,0.00309867848890989,0.0502946225786378,-0.00685133322147901,-0.0147454697711328,-0.0237711395907838,-0.0253175036389042,-0.0368454396947135,-0.0328916736848679
"great",0.0677352178974436,-0.00363796302232976,-0.0566567932684743,-0.0281312040692407,0.0572203569295226,-0.0457802614385986,0.029227361164348,-0.0124539268709892,0.0294633844534172,0.012238751628287,0.0515215559613346,0.0329151385240181,-0.00716178596190749,0.0253782010732141,0.0157633407013901
"office",-0.023149044396487,-0.0206721938963369,-0.00527027381154678,-0.0247171631415858,-0.0287214403339373,0.0164141213874486,0.0333957453956181,-0.0165121838771939,0.151755687590744,0.0714474452310079,0.0720609013920474,-0.0169657368353857,-0.0234165756953984,-0.0616757142371886,-0.074090866191298
"laptop",-0.0365325939684625,0.0110407250000968,-0.0127290717442207,0.0260971519564459,0.0533867805548272,0.0683424517120759,-0.0253404923699539,-0.0157042468087232,-0.0843514227013185,0.0117284786387713,-0.02967307456403,0.00987572462997769,0.0813589360152649,0.0867603841274087,-0.0420772292800756
"leave",-0.0456920965553806,-0.00805035789172502,0.011355379117805,0.0356556124921003,-0.0449416563663663,0.0832723758962312,0.0274734923396397,-0.0229549627063346,0.0118741499023819,0.0220560902319782,-0.0609807675475266,0.00409488319766327,-0.0128773955980581,0.0310674576607298,0.107540023765606
"today",-0.0172018577816297,0.039197220568034,0.0263043041897324,0.0297660945663815,-0.0256513844778198,0.0108214168984974,-0.0137262056333426,0.010013690121671,0.110187460361045,0.0517857937201356,-0.026914341557848,0.0106686586355152,0.0355237299449566,0.0373689348362449,-0.000516048263729776
"final",0.101559801776909,-0.0219367120288598,-0.0427218355160611,-0.0133204925582266,-0.0616207843416473,-0.0116367763053914,0.129409450306302,-0.0376929267881624,-0.0219639687554478,-0.0602670394925313,-0.00942108286799672,-0.0136525113631843,0.0438729082227899,0.0872360720039181,-0.000255243780553304
"lab",-0.0202396044152339,0.0149382017891668,-0.0079371346040491,0.0317087677514968,-0.0123653183383465,-0.00878807760986139,-0.0147777409938454,-0.0302311642055032,0.216443599982859,0.0191843210439675,-0.0289626120442387,-0.0246533359813943,0.0287421904550511,-0.0272667099048656,-0.0682946195885776
"computer",-0.0150099571061258,-0.026548182935344,-0.0071809247498721,-0.0323465473124107,-0.0257698040411097,-0.00834969454995965,0.00827258131062761,0.00372312887383063,0.0542675665527373,-0.0575836454007784,-0.00450096817269484,0.0775551296102412,0.145090387267568,0.00993154569505436,0.00187599327633772
"phone",-0.0159008375137184,-0.0396241192327268,-0.0218823541133684,-0.0348184551288541,0.086899303856762,0.130181585500366,-0.0743200418168476,0.0651310058299478,-0.00422459730171827,-0.00889768010643713,0.100751840675534,0.043439651155104,-0.0323905302899799,-0.0140291846609592,-0.0580804088811616
"close",0.0121521562014512,-0.00029848685399393,-0.061535209981663,0.00962743325287924,0.115936702183553,0.0883253011322864,0.00537556939804266,-0.0230563776604823,-0.0826165065029116,0.0305933071396706,-0.00918108156295629,0.0664265849716779,0.00643596756897605,0.0454481101270441,-0.0334811625409273
"breakfast",0.0019267256553414,0.183730339285182,-0.00126085166239824,0.005134151924349,-0.0540116061501352,0.0129970852746475,-0.0120445703069894,0.00440821067706108,-0.00161468620672589,-0.015190027714649,0.00841146554553729,-0.0107108736276551,-0.0156890793751683,-0.0431366205525591,0.0724811703058331
"hope",0.0403509763847052,0.00488396209320213,0.0155383016791749,0.0285654155510977,0.0109500796214592,0.00854152476346638,0.0243312428486612,0.00817527567552066,0.00673908259872011,0.0807865720751981,-0.0362751425693761,-0.0561507407400874,-0.0815376298153063,0.00934706982461899,-0.00416003460766979
"paper",-0.0238659542879769,-0.0260780586444993,0.0136948708732167,-0.0552096638768758,-0.0416804962664088,0.00844278297641025,0.0197124444278484,0.0133733025379531,-0.012771642605192,-0.0527275861617709,-0.0132456005888354,-0.0366488505595555,0.233232170179545,-0.0151099347465523,0.0203630174247998
"room",0.0352737662751721,-0.0422349191631379,0.00552065322137876,0.00207590537223618,-0.0270395076507132,0.0465860393928244,-0.00922053698875971,-0.0148098149150645,-0.00845430214765754,-0.105839037678227,-0.0123744382579651,-0.0332256849491566,0.0315183263429842,0.0693156240745036,0.183659131777931
"break.",0.035460941963367,0.0653046845518199,-0.0249654892236441,-0.0141988094023831,0.0790284030864411,-0.0535599732330542,-0.0011426875584147,-0.0158883818754511,0.0503418875388446,-0.0545823601830217,0.0201013284601697,0.0687989355056422,0.0140792040871166,0.0191241123818905,-0.0509873903071727
"eat",0.00993771068692744,0.299925492318526,0.00954058531094556,-0.0464060014697251,0.00353901805660892,-0.0116066198307557,-0.00482179851667204,-0.0420602203202734,-0.0174722223987714,-0.0118385022277086,0.0248622044304952,-0.0112951527489245,-0.0214501169467062,-0.00799834262881453,-0.0071769966280437
"test",0.16657909290106,-0.00676159583706807,-0.00914739265300179,-0.0599353732102561,-0.0310811770295266,-0.0381228387071252,-0.0427984808970148,-0.0213295254348067,0.0491656086201716,0.0734173446688069,0.0158684420535111,-0.0177274418422043,-0.0321110256653837,0.0339804080580081,0.0486707913992523
"morning",0.0121700359381372,0.0559367161928311,-0.00888885110219189,0.110330638910307,-0.00735357739347602,0.000412653673073022,-0.0539693157396809,-0.0562318787333056,0.140822853182083,0.0117676408849246,0.0172965028577203,0.00482325076403872,0.0183747584652425,-0.0327131802589337,-0.00733861578142841
"told",-0.0118585983173671,-0.0671073158732544,-0.0201800899743926,-0.0231602661757558,0.0957187377828327,0.101762060960286,0.0118293028432796,0.0252243708878807,0.0675148978526448,-0.00629452125017279,-0.031324849942922,0.026973685831488,-0.0568077389647725,-0.026165500521369,0.00766202703913723
"people",-0.0560605006536227,0.0496132422398415,0.0280131848616701,0.010253224390171,0.138385825563742,0.0191216523067801,-0.0468668506297922,-0.0597958524349194,-0.017491530098368,0.10632424405631,0.0242173869814096,-0.0560451104615519,0.164208525222456,0.000532131571389426,-0.0520161195311994
"decide",-0.00335603559025183,0.0249805113199382,-0.0380182684276954,0.0219930036924993,-0.000618750630140447,0.0414058273547461,0.0219834613026618,0.0444823220282684,-0.0128354959599754,-0.0257002662723501,-0.0189234845020736,0.039970165593599,-0.0194231874588725,0.0974583713887874,0.0666118657128476
"year",-0.0217999166601116,-0.0315514716788091,0.00635223431250748,0.00192743809956964,0.0548285960873294,-0.0264913746577571,0.111107389221015,-0.0744983626051566,-0.0476698571734551,0.00336627766929336,0.0377526581080506,-0.0605906705065969,0.128436842638574,-0.0413046663771872,0.0775619012478709
"project",-0.0570678491623638,-0.0413170535164576,0.0232308378225205,-0.0436440435899676,-0.117647183476654,-0.0572192480693856,0.144343678240527,0.119349403477331,0.0539025172676795,0.00532003539879399,-0.0317933227206836,-0.0128062044711435,0.0398187954806667,0.102252106695378,-0.0047842946224063
"continue",0.00678781877655322,-0.0141659548971076,0.00959851209615804,-0.015302400540063,0.0478299090408482,-0.00581148041995182,-0.0593503504807988,0.0899419013306343,0.0291455167139469,-0.00124625499327204,0.112125721204837,0.0331598496026415,-0.0183443530094071,-0.0538206096240708,0.00816992747963229
"week",0.0548978386472866,-0.0403590356536291,-0.00850611133736195,0.0183564714785799,0.0213484569947608,-0.012413987225914,0.0402410247215113,-0.02414089834881,0.132117805967841,-0.0242179994856646,-0.0192048063014092,0.01499259426413,0.0114318516290514,0.0285592045005047,-0.0153685109738162
"annoy",-0.0343412171508725,-0.0318324008166326,0.00533096094904192,0.022000344594291,-0.0135022320347769,0.0108411740033088,-0.0409637081345511,-0.0551520359873288,0.0709335345791994,0.189420510265825,-0.013665782132577,-0.0222152682594973,-0.00726161577409269,0.0253154775168973,0.068086035748257
"note",0.0524219872930547,-0.00735776698363719,0.0991303288285808,-0.0121861411053324,-0.03026368266782,-0.00683462792444633,-0.0241838097717992,-0.0290326471030508,-0.00765508866452475,-0.0494958744775376,-0.00411724768352302,0.0325016393918623,0.0933839656620901,-0.0536195058917046,0.0614300329779116
"rest",-0.0123957527715713,-0.03081404274244,0.0488971141684692,0.121699800335501,-0.0319068553569785,-0.000217505339416349,0.0223534208103881,-0.0203473854736084,0.0309795993286518,-0.0328495362297913,0.0276517704210467,-0.0409914945677588,0.00591213199350089,-0.0332587887250732,0.0596532117371127
"wait",-0.0441880573326033,0.0496231744188796,-0.0156834276436147,0.0107861137683404,-0.0484225532765942,0.146674777093326,0.0619253550636392,-0.0410984545408435,-0.0120703154936332,0.00366913933366467,-0.0146009132588519,-0.0156784041756748,-0.0132778214973682,-0.0085349875379582,-0.00841265481915309
"expect",-0.00678411166135894,0.0421192031168445,0.00222114233575415,0.00853631329505871,0.112204231104891,0.0522533835238868,-0.073711204738447,-0.0393395062830854,-0.00356414214496759,0.0231527048133471,-0.0141123189677965,-0.0515608533180961,0.12856388796132,0.0109932948622622,-0.119087963929688
"alone",0.00675091830431875,0.0250894415853708,0.00654404038034338,0.027824218124619,0.000959398345923475,0.0424578411002617,-0.0436680372623323,0.269820740856584,-0.0894158386961205,-0.0485832717327483,-0.030700534915752,-0.0534408710340318,-0.012009851651522,-0.026688283078442,0.0330395452229043
"hour",0.00455171157910276,0.0268102065106979,0.0134983354372834,0.0520979943852872,-0.0192033188196181,0.0589820390811619,0.046369042922011,-0.0440271231261514,-0.00519687402106055,0.0138349301222406,0.0507142540089217,-0.0179876546667789,0.0530174869945773,-0.0248126842893037,-0.0487024378472394
"stop",-0.0134170328794673,-0.025989856628888,-0.00277248616144089,-0.0117305358339797,0.0258101091030554,0.126706612723552,-0.0671310567607834,0.0156073724592808,0.00502052217463603,0.0665397621089149,-0.0410864568061739,0.00147161937656672,-0.0381403569242875,0.0439239957041858,0.0839307873516722
"understand",0.074644947376887,0.00949631774032202,0.0408820627900445,-0.0204545715579347,0.0512262498663425,-0.0598095807439614,-0.076946970473749,0.000744689575082156,-0.0147175721053486,0.158440306110072,-0.0248385509082476,0.0138377369820212,-0.0176395407403916,0.0322339238836754,0.0524735692303924
"early",-0.0121001237263285,0.0162877519296266,0.021912514414955,0.103218891473468,-0.0286484255767706,0.114337993497786,-0.0241125583481482,-0.00724105018029475,0.0527785390111699,-0.0126814367309448,0.0174496916586889,-0.0111465494646185,-0.0202321260203584,-0.0157556293964743,-0.0441787424728594
"worry",0.0895527581296108,-0.034318803212587,-0.0530227948045735,0.00684148159742751,0.0164593305140077,-0.0198816805618872,-0.00421819974249483,0.0443255493940336,0.0609838451579999,-0.0124661982325488,-0.0312375389502364,0.048975892365488,-0.0337012677852574,-0.00928997830325038,0.0149073971069467
"minute",-0.00167961166624782,0.000112100245527299,0.00962818632509366,0.00895034060252447,-0.0292899210545763,0.173996906584214,-0.0291246239755676,-0.00762426275236278,-0.0275579730443682,0.0177239590817011,0.0518877031084022,-0.0168768775983323,0.0243412696295158,-0.00835752575104,-0.00610456430908881
"turn",0.00452165783565517,-0.00574745921282729,-0.0263154171687526,-0.00203557072533121,0.00909810914282963,0.0638868870637124,0.00673398560883647,0.0125452136109259,-0.0203093774724402,0.0382159210317879,0.0407635310840624,0.0215824701752416,0.00659353623071234,0.0436735993028209,-0.0103726480024492
"mind",0.00281419681686421,-0.00549166346543868,-0.0011004810836525,-0.0180628086889636,0.0155498610450482,0.00601334330463454,-0.0172554911341643,0.248040937467807,-0.0290280725537849,-0.0226320435539672,0.00208208480913034,0.0321512911888079,-0.0211893184521397,-0.0316953637317097,-0.00468429697560343
"talk",-0.00660497856123467,-0.00472051925856671,0.0672518505017411,-0.0221226582455262,0.229112289127267,-0.0128862684881847,0.0339278862216858,0.00587975068821405,0.0315478011467848,-0.00427040749170278,-0.00164893033946369,-0.0154501083984342,-0.0770862710364444,-0.0464994997282122,-0.055171345734157
"hear",-0.0199902800736417,-0.0301291583837392,0.0399893710489275,-0.0241938724690452,0.126869878085455,0.0218520173822225,-0.0417415187265645,0.0278364782705147,0.0670528896574487,0.0177251922831627,-0.0333659211345178,-0.0399810574845521,-0.040329480786136,-0.0143532856199057,-0.00266039230758763
"interest",-0.0885925113120811,-0.00786905761771553,0.169779097462835,0.0239533635113025,0.04484608359937,-0.0525723267283838,0.0409072994404573,0.0265164435137667,0.0115105483174819,-0.00385454335543533,0.0548691030361507,-0.0448946961700327,0.0904397360969335,-0.079182089139971,-0.00346901945366348
"focus",0.00246038598939926,0.0316014640963256,0.0529649917942112,-0.0210277488484183,0.00760125102929426,-0.06215864773231,-0.0516681381668855,0.0666604523446425,0.0245910088489943,-0.00405699067574543,-0.0455146546742454,0.0496050392468162,0.120991051706907,0.00926735484930926,0.0251341814925173
"play",-0.0255497810216659,-0.0339791235146922,0.0288574052030261,-0.0657308348990979,-0.0318865021856588,0.0663398967496924,0.0213212822864719,-0.00470448764173724,-0.0397233941049474,0.0323433077426886,0.058454203389396,-0.0180837654355376,-0.0353644625283045,0.348943790502034,0.0164655164984502
"end",0.00870082013925419,0.00241985925999726,0.0213036654400029,0.00783860263294615,-0.0255687836499843,0.0460080720097253,0.047741132726491,0.000211655356300029,-0.0106282003607288,0.0328871854082067,0.0179968911251609,0.0159879000491057,-0.0133436537051832,0.00962871789015788,0.046520595186062
"text",-0.0143632041969517,-0.0549108539258643,-0.00941641426303421,0.0628669367064937,0.0768542776185038,0.0578727587361532,0.0241325888631416,-0.0318358665910346,-0.0162630594221034,-0.0497248281342407,-0.00832446327840286,0.0391250446994252,-0.000923114780265566,0.00960169264866931,0.0159462098777148
"nice",0.0160515522981009,0.0357542781961555,0.0104717046874727,-0.0761260812394292,0.0512891541428087,0.00180584962388223,0.0153532544788794,-0.0347142269246673,0.103602207299531,-0.0592459554441558,-0.00493484431930685,-0.0157564778835565,0.0182826270642219,0.0145649387015963,0.0388818843477085
"realize",0.011921770971659,-0.0252414111022033,-0.0462997051661139,0.0264398013058952,0.0130135783805898,0.0719941777446188,0.00623563357525356,-0.00547075496542685,-0.0200498543381207,0.0132791956370229,-0.0457819795308153,0.0591157961498693,0.0602483133217993,0.0163020646791085,0.0299825885301414
"ready",0.0349598887508632,0.0108049331214188,0.00990552684468928,0.026331715005475,-0.108398938511456,0.00630896408588558,0.020859986010186,-0.0201195788615053,0.0740630953753108,-0.0144206361716427,-0.0125567745030372,-0.0344978960376484,-0.0294610510006472,0.00192354895163539,0.134817624259868
"quick",0.0282811751600926,-0.0254404186590937,-0.0172038822203831,0.00898681105884526,0.0392477831747852,0.1296749678593,-0.0674128463274557,-0.0219818321091574,0.0184858010166664,-0.0213141764721458,-0.0758106691779262,-0.00827493758118503,0.0181087352204251,0.0250903056086676,0.00459966809192599
"person",-0.00981265067078742,-0.036980530108975,-0.00649166493836451,-0.0177561050482571,0.0443757110430871,0.0517005857040253,0.00728884481030341,-0.00811608527739153,-0.0169286275817865,0.0467063391732211,0.0634019772696808,-0.0347502395617884,0.0561966020051836,-0.0663978814066151,-0.00171209470074314
"order",0.0112335077729784,0.0756117599896786,-0.059215912499595,-0.0378953630032058,-0.0227799654177105,0.0156714299676082,-0.0131545717348463,-0.0107284461343903,0.0265226782883016,0.0597550556234491,-0.00989552676436966,0.0641986442241652,0.0180192657754691,0.00768905830877693,0.027148977128461
"finish",0.00984585413062998,0.087985377750553,0.00882461325098551,0.027211773480743,-0.017613643635879,0.00457464335349805,-0.00545462233746531,0.0105010626902075,0.00754337414271631,-0.0238129388092689,0.0385554500587363,-0.0462499001035804,0.108111447691368,0.10468145139136,-0.0946212945376621
"write",-0.00308905939475317,-0.0368914172824654,0.0135635417400422,-0.0430225968369257,-0.0433753156228925,0.0245994593158796,0.0129211764782875,-0.0356838089283412,-0.0347183661901129,-0.0355711505089632,0.0148855274293398,-0.00331125066010041,0.263770918821174,-0.0309995822827007,0.0201055557716008
"tire",-0.0169537202878887,-0.029698540919565,0.0227689036789331,0.231383197672543,-0.035375525802679,-0.030019483311114,-0.0164427784564288,-0.0240410608916551,0.0218093291270214,-0.0223739674030639,0.014127069917889,0.0119889303607681,-0.0127964505067222,-0.0281215045482175,0.00390950032010054
"outside",-0.027525096364287,0.0107886101420839,0.0165875440566854,0.00414371438098171,0.0267171349504195,0.152648875340761,-0.0165639260969836,0.00701512267184238,-0.0347448514303926,-0.025566075790287,-0.0227068054340534,-9.87354657678885e-05,0.00962322744872865,0.00340731520880864,-0.0168073408797838
"live",-0.00281911011042557,0.0193371085931087,-0.00406769015658905,-0.0108866803089958,0.121434537752879,-0.0140792655397653,0.00296362231617493,-0.0139560926986476,-0.0778297162811667,-0.00298506521382173,-0.0114622172678653,-0.0184641684707641,0.0406360878281926,-0.0311734991052432,0.140293900596265
"school",0.00339283205714892,0.0245098429232577,0.00514770270582853,-0.00224931613912896,0.0187828161326437,-0.0866778477806136,0.049460289549082,-0.0657090882227535,0.038964060561787,-0.0211275408983178,0.0570053747763112,0.0253231390302133,0.0719222850538813,-0.0181074347971471,0.0645333493773832
"semester",0.0378927853122737,-0.000728343156776527,0.0196044922838503,-0.0212226687007699,-0.0293478823515365,0.0248297867098567,0.195399250430129,0.00505656384317182,-0.0582962175065381,-0.0432634081581319,-0.0026762055312994,0.0195757750711906,-0.0262298569885684,0.00474211350803711,-0.000137441101446531
"laugh",-0.00582799473224773,-0.0379446431485556,-0.00695064552800047,0.0154206156705924,0.10969134564562,0.0246175516407067,-0.00973072041374693,-0.00459385303591691,0.00721907514920677,-0.0266908906723598,0.0573437779506119,0.0175900073170064,-0.0451105259462275,-0.0193671521354582,0.00247651680674489
"apartment",0.00352655071365405,0.0172792399682335,-0.0128743778353258,-0.0172911926943223,0.0261966354459508,0.00883088872945853,-0.0431424323442962,0.0187599567443484,-0.0378451501017685,0.0255634725572201,-0.0554149710270071,0.0205124048356579,-0.0330743002566174,-0.0156420526930659,0.279043696720584
"together",0.0184068899319247,0.00300843976256927,-0.0331446128515715,-0.0245363664834572,0.0532285633734168,-0.0276952106877319,0.130314009466517,-0.0369795472985065,0.0058353770494671,-0.0171937949026593,-0.0462809573479802,0.0262138767933506,-0.0197881083096792,0.0197590120208745,0.010967506784052
"group",-0.0475802647147319,-0.0188816431519519,0.0484648883335357,0.00126723973086432,0.00216386203278746,-0.00650121502522365,0.149096745901656,-0.0272938294179418,-0.0384518877949953,0.0158661144937803,-0.0215438687595864,-0.0470068408308352,0.0403087451330313,0.0488685489958172,-0.012492293897333
"surprise",0.0151140962539057,-0.0406172402734701,-0.00600629669245861,-0.0145202060524624,0.103551872160694,0.075980624286966,-0.0192232598896625,0.0116304281872849,-0.0161489121450308,-0.0304722895418486,0.00721673388715471,0.00627430369399546,-4.70261643654617e-05,-0.0313425536927059,-0.0124124831076006
"walk",0.0195254373339737,0.0137117446843008,-0.0300127597867496,-0.0286743385264502,-0.00660031633557456,0.21287601715586,-0.034935685838599,-0.00622749844136894,0.00658170097020215,-0.0585121647717224,-0.0626801904577601,-0.0191379315249046,-0.0364831918998844,0.00317908081279695,0.0112952925836204
"life",0.00305294089086412,0.0154788737128848,0.00300683582384436,0.00213102288399958,0.132219216294908,-0.0752089299306008,0.00472408914149888,-0.00253788860525555,-0.0314548955023479,0.0470849866151263,0.0134677706322659,-0.0216660436990114,0.0396215211222825,-0.0210453323390155,0.052515579443032
"clean",-0.00714745324239063,0.0213016647779907,-0.0190055900053089,-0.00361971166588505,-0.0514196051719762,-0.022801171685307,-0.0365216788596189,-4.45964955107441e-05,0.00629692729495502,0.0436477177579377,0.0342772052474835,0.0084915175155819,0.00884435445949958,-0.0209107312128507,0.209985587204619
"emotion",0.0183958016928904,-0.00467410765310584,0.043125168289608,-0.0202849965040135,0.037225903077999,-0.0242135995641034,-0.0135338084356533,0.211223228793052,-0.00713714126167005,-0.0303952130630373,0.0447833485456731,0.000268996227237179,-0.0792795023154665,-0.00257680890621738,-0.00648446338007969
"hard",0.0534138485112118,-0.0137061588980883,0.00587532608866719,0.0197208024962914,0.0503670977330414,-0.0307524034492756,-0.0431536892393474,0.0215958138466326,0.0281859252454932,0.0108704032310173,-0.0165664987999594,0.0638611913270073,0.0441204862538079,0.0202820788557394,0.00215385656619997
"mood",0.0370105587544762,-0.00128369484599515,0.078653702596271,-0.00354900896558981,0.0340354838841151,-0.0918768048111272,-0.0574442529322681,-0.00182414681608908,0.219698393663858,-0.019369586176071,-0.0182574468882399,-0.0373599077438529,-0.0700243667157485,0.0230509129687797,0.0180413525302269
"problem",0.078665944297316,0.00252319902713987,-0.0186519152249923,0.00241295007315576,0.0466054738383557,-0.0118256039552557,-0.0677365889756618,0.0536974909872596,-0.062959962219105,0.153121926362316,-0.0396991209572132,0.0166161306695278,-0.0278550044576443,0.0538129025362186,0.0129125708222476
"lecture",-0.026619800931833,0.0325169421430334,0.223755404384232,0.0416154628835591,-0.0118338802690147,0.00493868853650285,0.0123164327053345,-0.0183078821482738,-0.0368127806019574,-0.00574201341688664,-0.0410052934309698,0.0591504706338951,0.0106063394417925,0.00105316343429396,-0.00695199423486703
"video",-0.00962944467667073,-0.00247125826441878,0.0151736983569471,0.0160274342827992,-0.0263510692484045,-0.0357515288538517,-0.022769621251694,0.0119227332496428,-0.0323211384175756,0.0282467164983417,0.215318719836707,-0.0102923301883757,-0.0255149104945104,0.127525674792066,-0.00289268327187679
"sad",0.0129365254781874,0.00554695029618901,-0.00758623889361966,0.0188844894480772,0.15232205873187,-0.0394613549279419,-0.0600264767239105,-0.0322088366626653,-0.0371242999667023,0.0324995735816926,-0.0111568460765966,-0.0180556596885526,0.0610807232329061,0.0466431412975625,-0.0157944409555881
"night",0.0084514209989886,-0.017671597015064,0.00504452617188117,0.196294780977563,0.0338068043618193,-0.0339944492122514,0.040288623202414,-0.0107986479384891,0.0202209094146969,0.0395197778760416,-0.01324873259743,0.011505172101447,-0.0422336770909768,0.0123437617689155,-0.0153454240945397
"calm",0.0443077179519495,-0.0317603295689617,0.00495417377373952,-0.0261111388456299,-0.00294935764831902,0.0187194326318478,-0.0543107975225937,0.137238637750248,0.0365842195637083,-0.180971096356528,0.0593536539456965,-0.0248092594775075,0.0811312418971876,-0.081522360477657,0.0278051351418315
"bore",-0.0621249883318023,-0.0380063911298941,0.147228098945821,0.0639198203024205,-0.0113910164310866,-0.00918719988447094,-0.00380535911325672,0.0540381342073555,-0.00593305250876602,-0.0228528964859395,-0.0287008341077073,-0.00113610609489061,-0.0391094692597384,0.071190496773063,0.0107144589082421
"topic",-0.00207721193596092,0.0179346446222413,0.143341541883666,0.00969891196539981,0.0312807363992888,-0.0952315042128268,0.0821670548811051,0.0274537361228427,-0.0288534696697376,0.061610201059949,0.0337040938152793,-0.050594930184139,-0.0270526003562881,-0.0486446910087358,0.0376434397366056
"listen",-0.0824300358998427,-0.00105676258153073,0.255606438475084,-0.0202412970945973,0.0654331016926437,-0.0399660285387138,-0.0737482475649521,0.0641689335782133,0.127400808327018,-0.0815728029406804,-0.103430854043575,-0.0290741221613813,-0.000437779069566953,0.0560027919836164,-0.0233112749324093
"game",-0.0122064860061085,-0.033022288063076,-0.0178900337105665,-0.0757772727560608,-0.0795461242951263,0.0485758848337257,0.031029923829959,-0.0400273547564465,-0.019895851005089,0.0753959621741601,0.0772625893324769,0.0254458304576006,-0.0267596143563152,0.340570214019172,0.0125122745367617
"material",0.145592372819507,0.0138334148299019,0.084915026955633,-0.0182524493062964,-0.0289261374832325,-0.0408482100617123,-0.0291086363825265,-0.0267356754821502,4.75223511952844e-05,0.0321638152242381,0.00364119876783377,0.0200924791056914,-0.0186091278505855,-0.0193768763330464,0.0339685466437103
"pay",-0.0201058276422009,0.00761280081950854,0.00583484105747866,-0.0165669382544208,-0.000367225978673407,0.0102388247797812,-0.00882048494860267,-0.00395387730293929,-0.00327317466282609,-0.00477597215507108,0.0127319827976214,0.439849548150168,-0.0189888974121454,0.000805552465447289,-0.0166318019457111
"attention",-0.015852499954417,0.00672120358486496,0.023205877556263,-0.0256091375515237,-0.00361293218772711,0.0109245290662544,-0.0313494577957762,0.00203722771123899,0.00271844256163186,-0.00907837914705493,0.0328158314233587,0.429810569738621,-0.00884643026813401,0.00496214576435734,-0.020982481151248
"sleep",-0.0338248719786791,-0.00401553624257428,0.0339759101030595,0.274191804550634,0.00307765604630698,-0.0524132647493603,-0.0156467697594803,0.0258660491493701,0.0108365038028161,0.0625255301719907,-0.0317658637483789,-0.000661946994419353,-0.0442351642045571,-0.000485432456304185,-0.0406672741266882
"coffee",0.00420023435085228,0.0311947376572237,-0.0270818895642835,0.0183360999315419,-0.0204796935148942,0.014739681481496,-0.0141279761830861,-0.0282374992642008,0.109809709339785,0.00325277839293403,-0.00927650854874121,0.0227240166691032,-0.0387588562260977,-0.0293084613067417,0.0236176924910491
"wear",-0.0384595819594603,-0.0370886143459396,0.0223970410506643,0.136654771387396,-0.00227481270028627,0.0527302031940182,-0.0323390369947044,0.01698641620154,-0.0166721237675711,-0.00680047334369701,-0.00213962054632934,-0.00740819144320492,-0.00905710415414791,-0.0234242682167363,0.0376626429755243
"food",-0.0160288514090179,0.256653155743801,0.0126914416886212,-0.0601835742364396,0.00167366336920415,-0.0128090011489335,-0.0281906547707749,-0.00742818043102468,0.0151629216759847,0.00282224158509366,-0.0145454610988439,0.0365946839070617,-0.0226590843734315,-0.0456879636716466,0.0402636843413224
"hungry",-0.0393946639421741,0.282970057467754,0.0341947425637627,-0.00172010454604564,-0.0401063770488811,0.0170972288776315,-0.0230288701730424,0.0246242219049057,-0.057362695698896,0.0428491794096012,-0.00675346641701632,-0.00749773864091568,-0.000491878546979108,-0.029015596330194,-0.0263799006602116
"relax",0.0697947243550566,0.012398065157573,-0.00281827863309322,0.0270907366271207,-0.0137179099702672,-0.0540440857325279,-0.029512353651711,0.0501104665464214,0.0797010274185389,-0.168157912867294,0.138147979251073,-0.0305314377457309,-0.0125209329471229,0.0422047267147585,0.0215211212529637
"professor",0.0326356422539731,-0.000836922843774016,0.231691893055264,0.00460540224528428,-0.0302163104142415,0.0474925098532167,0.0465895561520902,-0.0269089047163827,-0.0535158882690548,0.0107881976673234,0.0141310019451668,-0.00543908095124964,-0.0157054578895129,0.00359898310614363,-0.0526723703424365
"shop",-0.00512051593679234,0.0078719003354755,-0.0355789990023931,-0.0101212971475611,0.0244732410539807,-0.00267365756770066,-0.0412029703492466,0.0139214135226418,0.0395746498146998,-0.0121269400232023,-0.0277946735071265,0.0633438556868662,-0.00772357170865791,-0.00411603437077177,0.0479473266876741
"homework",0.062917196230966,0.0147504817856579,-0.0408913298285195,0.0490067147605609,0.0839546269048844,-0.0464001488976949,-0.0827801657715119,-0.0651337085545216,-0.0127551388640326,0.0302600063015375,-0.0453274478917437,-0.00669948695575851,0.124919490435832,0.147563835744804,-0.0728661101155936
"movie",0.00437189063753027,0.00618245401890788,-0.0316526687576537,0.035884919173517,0.0707880839485883,-0.0341227629139619,-0.0400333723074961,-0.0104179934619666,-0.0380006549276822,-0.00550056744339854,0.150995944753738,-0.00688342647220844,0.0362267318485798,-0.0448833748086398,-0.00885180185398328
"music",-0.062331962441082,-0.0279005299268225,0.16536856152721,-0.0187403534404667,0.0300475694813981,0.0183248257254378,-0.0758476064306812,0.0800278984818683,0.118914618979772,-0.0969854361634194,-0.113199604494788,-0.0749402534538196,0.00552042190065351,0.171117711846604,0.00150822381068128
"neutral",0.00126553387083552,-0.0225526260393907,0.0292140209556474,-0.00358698449667292,0.0196445836494418,-0.01113997253941,-0.0145656719068741,0.106183037433303,-0.0310667973853426,-0.0909067837302097,-0.0335991879535331,-0.0207096488232284,0.0301960154265761,-0.0479955537017573,-0.0281600725029138
"hand",0.0252041903241963,0.000462981058593164,0.0328830650521807,-0.0682918337838507,-0.0555377056386259,0.0200605781820039,0.00304181438579472,0.100978034558664,0.00414566161719765,0.00750373942933658,-0.0132733420644826,-0.022538629275367,-0.00338558667683677,0.00115636725771318,0.0912022783813136
"grade",0.152213502436734,-0.00182074334843359,-0.0101812272579128,0.00274859435330816,-0.0205597779681737,0.00557737256534802,0.0642641916587736,0.0557167127166942,-0.0759237433829131,0.00912355371784085,-0.037670615538492,-0.0291456421317503,-0.0353644013647514,-0.0011289686187808,-0.0431163050653307
"bed",-0.00964289813104464,-0.0644025176579614,-0.0151918303502261,0.173988610749307,-0.0107921851649378,0.0210751720078065,-0.0251620319057049,-0.0296968743778743,-0.0194243078395766,-0.0477787045018215,0.0991337179576964,0.00068683220762811,-0.0240112991376251,-0.0330344722161806,0.0991815401853973
"roommate",-0.00561164845782006,-0.0137624271468291,0.00478215907470245,0.0166055940716891,0.0587092117361535,-0.0311178759007615,-0.0129565636412721,0.0488383078905209,-0.0322320976640572,-0.00505559790769342,-0.0394679421443218,0.00996073234512787,-0.0631446120972599,0.0124044596815203,0.231471474975281
"library",-0.0111967156507966,0.0491614868851173,-0.0203632368391989,0.0572231970775263,0.0377617492832299,0.00308958885838564,0.00351556323640227,0.194851374324746,-0.114825953287142,0.0414717708113815,-0.116903099860809,-0.00842448054307494,0.0212524648415357,0.0571609336299561,-0.0726065436507291
"exam",0.242896434144685,-0.00467923347121615,-0.0505287073520906,-0.0274269964784338,0.00739794435545267,-0.0208382817415373,0.000887600227044517,-0.0234030504362996,-0.0401695676106597,-0.044593519872206,0.00244140611934728,0.0242021501503642,-0.0337627525498973,-0.00974295154566157,0.0159167645028989
"quiz",0.157396306400324,-0.0228045788566959,0.0332407246816958,0.00589195182905299,0.0177591578502891,0.0211453095402903,-0.10268549584587,-0.0225697772947645,0.0376251249413662,0.0233708280516521,-0.00564555692653316,-0.0794320787081769,-0.0607464713066974,0.00567673070169155,-0.0103944242029435
"nap",-0.0107299802650126,-0.0692660674992184,-0.0110912652623353,0.210814877556768,0.0325307537794063,0.0329701136703375,-0.0302276575493208,0.00124733261778068,-0.0246745306235022,-0.029313554019921,0.0194870793548251,-0.0405253578599355,-0.0346007356263131,-0.0215354689073293,-0.0306323914475728
"assignment",0.0168680423108495,0.0453148393075595,-0.0706234143876418,0.100679772772586,-0.00501748829842093,-0.0727349463178379,0.0702630048239867,0.0858674551758837,-0.106891110195123,0.0990881458521025,-0.0567748104655796,0.0444513409163644,0.0403480926834676,0.0396627205266044,-0.0228041055113818
