"","RC2","RC6","RC12","RC1","RC3","RC4","RC5","RC8","RC14","RC9","RC15","RC7","RC13","RC10","RC11"
"place",-0.069860244646212,0.0367043819449713,0.0409714807636839,-0.000131498377502205,0.0580290854816901,-0.0201706882564172,0.0567346390495679,0.00031608425003829,-0.0519409328296476,-0.0280728651371977,0.135969774406437,-0.0371444635272586,0.00665423244860593,0.00830562653865667,0.0671474942699491
"relieve",-0.00385554574365284,-0.0220906796927549,0.00135242224651638,0.0191265144732783,-0.0161304480124345,0.0171888290032157,0.0143748139387267,-0.0201316679058562,0.0951796555177937,0.0637185879213652,-0.0363430328013936,0.138586730728634,-0.0638117981312851,-0.0169808895987491,-0.0372637694668553
"frustrate",-0.0283592751028537,0.00125065503871578,-0.000222079683295238,0.0198307646384533,0.01748570070959,-0.0117468426428689,0.00517702747063797,-0.0289899475138666,0.0324367766123925,0.059937861996311,0.0269720224938298,-0.0155786949353047,-0.0100018715258427,-0.0481565002043505,0.296171707191534
"long",-0.00855398706221829,0.0316956850989031,-0.0391401253885936,-0.02061205925484,-0.00468326011461951,-0.0623542523662522,0.0517272718365808,0.0564639889615158,0.0797679680415572,0.0402195352266841,0.0238161913567436,0.130743984778513,-0.039509492827891,0.0108620911441606,0.02672039600358
"happy",0.00362011061933023,0.00601477764353651,-0.0514168499057657,-0.0235551631876168,0.164035266603899,0.0354999172868951,-0.0138789825555098,-0.0694351880963875,0.0168618637433079,0.0992011221619181,-0.0128013320139482,0.0533612709821284,0.0853073126642154,-0.0149925851818952,-0.180099510095545
"work",-0.0854404106950634,0.00145792642887661,-0.0262632331105461,-0.0892733431071757,-0.0885556351660417,0.0133485904630931,-0.0416037565404893,0.00109635699147354,0.0546643749504568,0.105473661873129,0.034473007133732,0.153330357375334,0.113871276507581,0.136743181854327,0.0923742203042035
"email",-0.0334085666102077,-0.000963927369492895,-0.0464050116435725,-0.0126131263129546,-0.0318787858376128,0.00182455740475042,-0.0384766912278643,-0.0236322151198249,0.212885101001996,-0.0121303582080752,-0.0705133944812187,0.0443971806210303,0.0133352183776614,0.129228232913502,-0.0774248883448013
"lunch",0.0386060614982896,0.2635365283608,-0.0338917779864693,-0.0401378721083421,-0.0443990898882308,0.04194564186707,-0.0233952553687351,-0.0957586549455677,0.0251412241630381,-0.0559873987384323,0.0475715746057114,0.124197805319712,0.0217305561611301,-0.0646997891136267,0.0541172531301311
"class",0.251351442415041,-0.0230861788373054,0.0474753230794164,0.100098941956748,-0.0174537082742721,-0.0400376126001506,-3.1276565689454e-05,0.00394134433166639,-0.0218819117368929,0.0278304851269777,-0.037413078533567,0.0409795410994901,-0.0597601745075805,-0.0132108197573763,-0.0550318157842855
"call",-0.0428507481727936,-0.0136957715581532,-0.01323873382193,0.0116144497234294,0.134808652209511,0.125467187979862,0.0161208337476287,-0.0126572504188287,0.192371482010113,-0.0479052959766138,-0.0643271071586013,0.0428135240162445,-0.128204403143603,-0.0187936332089731,0.0174124374698075
"question",0.0884261951453209,-0.0070980509459244,0.0702816469960729,-0.0210388937321029,-0.00512528882231479,0.0323095543737988,0.0140533888546741,-0.109945555616864,0.237218011723426,0.0571196408494757,-0.00815151712265643,-0.0445510155674773,0.0523409880012238,-0.0983688577729301,0.0711926816468896
"move",-0.0105481284728404,-0.0243119617099649,0.0125293110863987,0.0979271001755118,-0.0174595068686722,-0.00477389279456193,0.075281657962005,-0.0501632337024542,-0.00549081740276344,-0.0720898964815769,0.080199097818883,-0.0313598660413886,0.0726153703401379,0.0222645391825027,0.106002499167079
"answer",0.0707707860298025,-0.00639470029536604,-0.00772839872929077,0.0635285448000689,-0.00123140091872678,0.0640128768297613,0.026514858312821,-0.118318733172977,0.297485894658583,0.00577682201314127,-0.0748425842244517,-0.0340424516895396,0.0179363093813474,-0.0878904415865312,0.0469426454463887
"discuss",0.0227597469918186,0.0115248595048559,0.044431179411922,-0.0689624839109779,0.0250158995777869,-0.00328403527728961,0.0290108154617102,-0.00944893845918998,-0.0118999623129388,-0.0677331280754382,0.295223591028791,0.00315710018327404,-0.0226072335474383,-0.0395486376931297,-0.0201197642317483
"study",-0.038285854823468,5.40631993209887e-05,0.22852562774672,-0.0226523273855325,0.0476501044124174,-0.0204576452889798,-0.018903222369617,-0.00766657068810613,-0.0223152232402773,0.172233070587186,-0.0214080422403509,-0.0624110783505749,0.0374142354178326,-0.0464633260960055,0.0284466589087938
"enjoy",0.0453673760474806,0.0813562869666179,-0.0238261932242838,-0.0583517203401668,0.0854634127357312,-0.025741373680223,0.117298307555736,0.00297073166049297,0.0671556400374649,0.0287142320488987,-0.00709655613410885,-0.0573911598616586,0.0339260703090481,0.0562902113475649,-0.112392593305136
"thought",-0.0271587963697633,0.0222551528968245,-0.00529646712839935,0.0280544864378958,0.0710105012246084,0.0311947867572792,0.0114847622914878,0.0507157794853152,-0.0522385446280953,-0.111028295765104,-0.021019368669701,0.0379481062022541,-0.0459972480881108,0.202463914824508,0.119571444609157
"learn",0.0976373505877008,0.0106162599446212,0.0464383171440821,-0.0537487285069049,0.00369103840061252,-0.0213749821920469,0.0402678403562614,0.0146830371788697,-0.05888208761181,-0.00486668643509091,0.138629211443487,-0.111285369420684,0.0743254722767038,-0.00678813602737649,0.053777477879332
"prepare",-0.0208652376862121,0.0677857345231887,0.210358799187245,0.0656980146909547,-0.0749861718087131,0.0643882953231924,0.00921938712851322,-0.0738599514391387,0.00634314039718255,-0.0507182499180089,0.0969527854738093,-0.0484225768032117,-0.0179680941192127,-0.0109023065232608,-0.0387569194833695
"plan",-0.0468383312957086,-0.0484975692632708,0.0298558975926743,0.0463053563142013,0.0304963865185221,0.0412196910716548,-0.0699096286920336,0.00679568681543172,-0.0245604856262337,-0.0182468881278879,0.154494225011847,0.121468580229906,-0.0256112274939255,-0.0468553912655517,-0.119498213890304
"complete",-0.00925176033925799,-0.00805065474479832,-0.0422064901336161,0.0145116617260758,-0.0791636627924175,0.170219816407867,0.0352019738028461,0.0331650591443981,0.0372882007145256,0.0131200817777191,0.107318225960957,0.0532753283931252,-0.027683129771325,-0.0187401427329334,0.0821830393653333
"train",-0.0910121698700224,-0.04954073283121,-0.0122455413122389,0.101013418631861,-0.0123982262177082,-0.0385817426335159,-0.00936879892343601,0.0714767369397349,0.0227181781930925,-0.0821093026215977,0.0181410219357491,-0.116529603889875,0.193599086164149,0.0300486769030183,0.0179240846622521
"day",-0.0194450623615944,-0.0204018994769979,0.00322176617623213,0.0850180219963714,-0.0126609540205067,0.0476842309412445,-0.00262589880976217,0.107439995415631,0.110264710431902,0.0176071526200811,-0.0232262857279424,0.0484896271670062,0.0723632286904631,0.00781142493239377,-0.123032672815511
"start",0.00631053403483876,-0.0188418991450002,0.0419838888117585,0.13069680989483,-0.0232785761431618,0.0628348951147736,0.0518346509913594,-0.0238533963417615,-0.0690480073617747,0.0157289711886035,0.107551237799861,-0.0330263202143916,0.0563441740970383,0.0633404443055532,-0.0346140961877927
"conversation",-0.00570613653792458,0.0182733636758265,-0.0125469087653461,-0.107019627335758,0.21588460025307,0.0255694240349332,-0.0372188727937888,-0.0191238630072418,0.0590241543837514,-0.018310457233992,0.0181052544098529,0.00260207188757145,0.0505307236441587,-0.0122277977978153,-0.000421102808358483
"friend",-0.00781542032558731,-0.0129416890463024,0.0394641460876596,0.0360308608597952,0.256852449467083,-0.0139641259586179,-0.0249386871835264,0.0174695297217114,-0.100406781223325,0.0885156833453832,0.0850728355131982,0.0485813067554111,-0.168884346318521,-0.0694737786560681,-0.0505617967566839
"weekend",-0.0150766161985763,-0.0506434036459548,0.029201290794868,-0.0234629440261409,0.00188088965232712,-0.0573106809880887,-0.0230032833274322,0.0403510684758882,-0.0517128375521193,-0.0295320206672104,0.0342972202119223,0.243105484751362,0.063515671378401,-0.00819687855914889,-0.0606044311848372
"excite",0.0524246064686323,0.00686823445641264,-0.0856819406703113,0.0151633909245536,0.0445359408362866,-0.0625693728556021,-0.0218811115133415,0.0203185906687195,0.030711589039926,0.0404851772321486,0.106886857773066,0.106613273346719,-0.0334867010798788,0.000157024045089322,-0.228228768304789
"watch",-0.0458416153116111,-0.00263649517353591,0.0262396962243289,-0.0443436088101699,-0.0405248027819512,-0.036248411894689,0.447989506085223,0.0193512483494817,-0.0196873636705579,0.0118694916291734,0.0144158059611228,-0.00362323648297747,-0.030100311282393,-0.0156135327542034,0.0300619497128575
"job",-0.0659755290498173,0.00197998534684047,0.0267654690642403,-0.0710800460511209,0.0223764711405581,0.0170803548548128,0.0333799873211426,0.0750539312706367,0.136245151470208,-0.0676966813162087,0.117865109053018,0.0140822432758269,-0.06334651516733,0.0221133540260276,0.0162971491674243
"nervous",-0.0253363042349254,-0.0244094361755572,0.198090859471693,0.0407361788632613,-0.0280878345742247,0.0143075881150732,0.00692984596565052,-0.0295823097279561,0.0941232265910341,-0.0439821660420719,0.0535092610603911,0.0385362210687262,-0.122720780068409,0.0247095803698925,-0.107976488069954
"show",-0.0469194139509968,-0.0112073058991684,0.0490802492688728,0.00200124617106362,-0.00468515660626064,-0.0451231846440538,0.310125454025343,0.0624660413772528,0.0504512048981156,-0.0357687639398102,0.0835588947164165,-0.0619816072635353,-0.0378164069390731,0.0269836707771912,-0.0300338009146484
"stress",-0.0942157272762512,-0.00753901864967567,0.235913104795524,-0.0708817035359706,0.0411500952457488,0.0127112007500092,-0.00791507823606783,0.0503410491601372,0.00427443781840326,-0.0441351799935966,-0.0566508070219051,0.0825769118048867,0.00417136620499486,0.0305208381199968,0.0558663995568259
"meet",-0.04527180534269,-0.025376184792208,0.0316075305816656,0.0693213809079518,-0.0334743535826107,-0.0150034611785902,-0.0218129734512017,-0.0663729235169688,0.0498399059891488,0.0253483399534353,0.281171451777668,-0.0235300328208891,0.0455451092000973,-0.0643100673775436,-0.130508131669911
"left",0.00667655297234459,-0.0266199995643705,-0.0637298256068044,0.252047867460591,0.00339048930465161,0.0156152374665572,-0.0770378280344171,-0.0223147426113466,-0.024476721629536,0.0546754439894181,-0.0509048591351224,-0.0145985923296367,-0.0314230463916568,-0.0188533502020272,0.00162826279190123
"student",0.0433056248931598,0.0188053380597417,-0.0187533524127717,0.00246423129621094,0.0140744761828617,-0.00627947646961523,-0.00352657745535277,0.016253629664824,0.106501418331029,0.0339998358763961,0.126344720708549,-0.0858833742127448,-0.0239015374389656,0.00944499945868713,0.0251859087543989
"read",0.00168489162134008,-0.00446617863000909,0.0151606883137208,0.0562575381143868,0.071371592269302,0.00584472097392384,0.0360953487100722,-0.0221800124391354,-0.0445494865926636,0.00483950900238969,-0.0268276131610158,-0.181767451922121,-0.00786857538311181,0.300608941590194,-0.0717143605918313
"due",-0.0472683986878104,-0.0583232079453849,0.0167882560730461,0.0101551677658405,-0.00106257606190816,-0.0339220275210332,0.0165227791119518,0.0148086648022302,0.015080021688853,0.277748677178562,0.00667949507205566,-0.0389264177063215,-0.025316252972803,0.0804055911435132,-0.0231763241819065
"office",-0.034681849256168,-0.0104838313174574,-0.0170285414076782,-0.0437948702111969,0.00468227896032962,-0.0473855075614203,0.00178329720206487,0.0396404778609446,0.242613491349662,-0.00511549970589131,0.00989153403713388,0.011105962649066,0.0755308471825214,-0.0419892892545976,-0.0070474994122116
"breakfast",-0.0296435105630507,0.204871313056041,0.0306826444309573,0.0428269653904193,-0.013672699602239,-0.00226034830509625,0.00283354121081877,0.028336150462083,-0.0240461088254804,-0.0263584287317273,-0.0314056225678566,-0.0411443399956408,-0.00428958362646611,0.0322160996251515,-0.0141018795070494
"leave",0.0284963365966701,-0.0358963180082255,-0.0746690402158071,0.240013193463216,-0.0265525103672534,-0.021781197819912,-0.0174630960966216,-0.00616900034607173,-0.0552824769108634,0.0342546960956403,0.0373698976192348,-0.0544725957845216,0.0200582909482532,-0.0576420824802939,0.0234970208557997
"paper",-0.0241196381420251,-0.00345097491695132,-0.0445865670928971,-0.0171594620227604,-0.0640173047907825,-0.0159614961896111,-0.0449491567538278,-0.0858609119740175,0.0352156333038507,0.0617589054231578,-0.00760941220840584,0.0816142927624298,-0.0482585601934097,0.324872705306191,-0.0696673919737239
"today",0.0198000529049542,0.0159349531974069,-0.0247059765792221,0.0525657283624705,-0.0627477371637879,0.0131307141842991,0.00346231149594617,0.0794927363820088,0.0122935178355411,-0.00609290947340934,0.0618907377763027,-0.0330639445355966,0.160478638878483,0.0154230501060151,0.0242337395196539
"lab",-0.0575082118858412,-0.00730454268178499,-0.0175767933772256,0.012015073752444,0.00215581371805051,-0.0459384280405434,-0.0591095619582603,0.0709825979306895,0.0336942499956895,0.0411757064789853,1.80428001047068e-05,-0.0707066787644852,0.277501702092098,0.0043810637378487,0.0215524973014034
"phone",0.00248895867475273,-0.0090045370365585,-0.0509731140885586,0.0296152264123805,0.156438085813729,0.0723996481437744,0.046214241441789,-0.0349490091575635,0.115016311694527,-0.0574236085747837,-0.171811023774084,0.0711563229061419,-0.0747470616181194,0.0163112579402591,0.0813330748227815
"close",-0.0235605968572233,-0.00496334950892599,0.0151522249933912,0.0859547382127647,0.164787969165531,-0.0328870399137648,2.35690480919275e-06,0.0496600393917378,-0.0190418890554373,0.044310028912632,-0.0267119348366643,-0.0332650047449162,-0.140327278419412,0.0110711017115203,0.0427884667673001
"room",0.0229582012209446,-0.0547642471590926,-0.00691883172349864,0.173130925418483,0.0119531484480086,0.0256395517221221,0.0372630270350628,-0.134054492466302,-0.158348426287859,0.067032908416516,-0.0745789900453036,-0.00678611611672287,0.111818877068957,0.0147361298611029,-0.0349152951250606
"break.",0.0238073265196438,0.0881909220239773,0.0105248337314617,-0.0877118125312321,0.0368120488072612,-0.032099812521546,0.0045953986431898,-0.0525062449150463,-0.00997912605116389,0.0291386840857355,-0.0525142680421394,0.21336523003374,-0.0107760821508099,-0.00540390173710102,0.066607407187052
"eat",0.00189240261817393,0.342568367508882,0.0189675744093864,-0.038052067156988,0.00998339939849999,-0.04308268709585,0.00508051058320641,-0.0502737314749785,-0.0141401791678271,-0.000634615215673414,-0.0106441145287092,0.0242074967845079,-0.0122228422212821,-0.00386307599532698,0.0200178165142118
"decide",0.00665659671898061,0.0259628613066513,-0.0581463693156163,0.100645153242817,-0.020345874448964,0.0473237280905466,0.0304366244005524,-0.00411382613844077,-0.0687848180554065,-0.00736011344149929,-0.000609141429775305,0.135712743007864,-0.0444616558881856,0.0074419250659781,0.0178358482343719
"project",0.0179408549824653,-0.0237415035254066,-0.0979022859641172,-0.0392315756066774,-0.180924868423431,0.125582297670945,-0.00151381533074418,-0.0793820606143497,-0.00548881704194331,-0.019304223979945,0.201340890642514,0.12074092029487,0.071402227975401,0.0418090975751116,0.0228521579091597
"morning",-0.039656075810446,0.0305542304829984,0.0227680546802806,0.0272971610500269,0.0382284535751289,-0.0586320236131341,-0.00120951064868881,0.189006504496852,0.0379480475539137,0.0361008541042254,-0.0941624683746555,-0.0740213819764256,0.164557596623731,0.00118501186647944,-0.0302587774906399
"told",-0.0477201879391978,-0.0579062770385707,0.0117497607283729,0.0792288851412232,0.159539570452221,0.00614573836486975,-0.0274140458430865,0.039176072998706,0.0176566600577888,-0.106898709590001,0.0146478192680897,-0.0140258861177712,0.034576399266556,0.0329956168020083,0.00687240543000966
"people",-0.0185774849857685,0.0353322430793217,-0.0338884753122838,-0.00441351152497299,0.152769873459981,-0.0843495881863548,0.0607854065853522,0.00535829622295502,-0.00496929763918467,0.150861022116297,0.0716568551173603,-0.173316876798259,0.0441882113737229,0.0925937984946589,0.0929762765714122
"continue",-0.011421242459818,-0.0348535125553308,0.0195671713526901,-0.0232066806190304,0.0977238444314135,0.100252912725106,0.0959159095981567,0.00673879397176134,0.0498962075552324,0.00852963189956756,-0.0528013065207367,-0.106556981741906,0.0436730213366086,0.0202138644674372,-0.0130557017579382
"week",0.0151133985273655,-0.0419001280193891,0.0211652470447959,-0.0374408071923028,-0.00480341448094593,-0.0434819560515347,-0.0244963644713314,0.0619338393865883,0.0946355638490728,-0.000276222388481519,0.0117617352525649,0.195355482774556,0.0603431208092595,0.00246952408363663,-0.0501447409230824
"annoy",0.0185916382334234,0.00543070072754565,-0.0752221210047998,0.0224765234248991,0.00321289451222359,-0.0595488205142272,0.00981228733722054,-0.0317480778690304,0.00277823252768825,-0.0132231167770692,0.00741969623301842,0.0454691964880079,0.108509669672129,-0.0431559865014018,0.315990579052968
"note",0.105475689380353,-0.000268025798150777,0.118691522872922,-0.00863965877873573,-0.0285605677299659,-0.0153949490750898,0.0158238615471736,0.00599775663617453,-0.0342111421080682,-0.0697371000943437,0.00308219178023154,-0.0144383073254232,0.00452221249938005,0.115022630281133,-0.0210314063576939
"wait",-0.0114787806760642,0.0551239841239643,-0.0428793568790903,0.164195369027187,-0.0263763115638338,-0.0493929581506763,-0.00806738153957449,0.0341042016776851,0.0554630768187354,-0.047859948452686,0.0389643367044633,0.0211399222099818,-0.0774849414818774,-0.0148307172672342,-0.0151891526805504
"alone",-0.00342684536920032,0.0109850320533463,-0.000616727829173103,0.0602417752458896,-0.00206225044567137,0.322666832390221,-0.0398398053627869,0.00588713518404477,-0.0296000201216561,0.0097877752604405,-0.0502209959125744,-0.0930613698282063,-0.0247125465720458,-0.014676215317296,-0.0417581688338537
"hour",0.0217851364467176,0.0399745421729586,0.00833015697412006,0.0555778059588352,-0.00634827745098562,-0.0799260585844238,0.03746748276094,0.0680367322872994,0.129064497519923,0.0495447759391919,-0.0119951854619234,0.0598362549095077,-0.111654978397535,0.00830762825840253,0.0167349138381728
"interest",0.0873570153981627,0.0134070331762641,-0.0466069981572522,-0.0890168235610291,0.0780699559004018,0.00352946387401257,0.0709923374061707,0.0929909684183701,-0.0259298121689856,-0.102610862765877,0.1000883494566,-0.0833562621418534,0.0264656989491741,0.211382739653709,-0.0416091269657427
"focus",0.0516641691009977,0.0217500643838811,-0.00869029734269382,-0.0761312708630934,-0.00708104619039558,0.0589391256992841,-0.0382526594995934,-0.000194609927242962,-0.0562024458236915,0.0708699764445782,0.00894607657570368,-0.0466871065404297,0.0732754901051006,0.167791234537837,-0.00109685965983118
"early",0.0182125052519933,-0.00791609321528681,-0.0254932513548273,0.152204747111226,0.00348311141772477,-0.0035321241487233,0.00375459451763372,0.166766565013591,0.052096944963874,-0.00749769203772961,-0.0782756129896618,-0.062192735277829,0.0279346561308521,-0.0131846845015218,-0.0555179614633128
"worry",-0.0370323532642484,-0.00472304335487285,0.145016880476528,-0.0451630098157381,-0.0192433678673437,0.0640074948456074,-0.0245926922443372,0.0287343678998502,-0.0643325487139303,-0.151554486751533,0.0219008849806794,0.144908444364582,0.0438729569466124,0.00759545000886255,0.104085370986413
"minute",0.0116371416307101,0.0226446011707151,0.0355209658733569,0.181412502672062,-0.040770051293679,0.0126134583417608,0.0796078147591294,-0.0377471656495516,-0.00344776865036764,-0.0885385701903396,-0.0160466375644139,-0.00024697041377735,-0.0386200377817513,0.0478831530891324,0.132782923031059
"mind",-0.000501083640644404,0.0123713307073699,0.0156508658246409,-0.0520835451714109,0.00845292308765042,0.290085927216273,-0.033205079855027,-0.00776387907888342,0.0141825424010365,-0.0731828423930827,-0.00252706846002482,0.0213092762455445,-0.0271085358956631,0.0213327135248184,0.0345019390699169
"talk",0.0495022726737883,-0.00324195407473144,0.000895314241702423,-0.0767896112368291,0.313227131477297,0.00035595215701398,-0.0416242168448985,-0.0208526040270129,-0.0413633842176799,-0.0175525399208977,0.0213640791810296,-0.00616258010177413,0.0532354838705721,-0.0296073434661788,0.0163071675708111
"realize",-0.0179683488651801,0.00242329421021518,0.00780415101146371,0.097604360295206,-0.0134093699131828,-0.0371614289637179,-0.00676334228629865,-0.00922189338063809,-0.0914056111925793,-0.0422265344517491,0.000143136289674689,0.137658663479475,-0.0689510090857762,0.127790084916971,0.15819802311593
"ready",-0.00649022464892929,0.000108426800947629,0.043061628188479,0.122477776351764,-0.118761586317576,-0.0250771264967976,0.0264683283842067,0.0143228639002311,-0.027772525289494,-0.0191420972422323,0.0557294985111101,-0.00507097747444695,0.0837093263008322,-0.01628430093978,-0.0666378199268331
"quick",-0.010428440995076,-0.00354270231190876,0.0250652077935439,0.142234788243593,0.00200491449835879,-0.0338905351225455,-0.0401534156110112,-0.0277649466947273,-0.029841196605062,-0.0261375383838609,-0.094292025956099,0.101198517283849,-0.0341789387333655,0.0260444138661333,0.123865523373528
"play",0.0618792442521361,-0.0733960425135793,-0.109078810498844,0.0825889545706795,0.0271680556701277,0.0364167635938937,0.128901243672732,-0.0982290336057942,-0.0306633787581262,0.127569564958162,-0.008376760489681,-0.00690123707263409,0.0358471708361438,-0.0447241299833665,-0.0458264119477846
"end",0.0629826993851496,0.0095060115755741,-0.021993618277892,0.0996212870224044,-0.0273281329141073,0.00331494725726619,0.00601472758657053,-0.0102178091913232,0.0586409936486656,-0.0163897483882983,0.0439175602597863,0.0821789515494323,-0.0738690644734088,-0.0250678329516872,0.0196059453430377
"text",0.0178668224738059,-0.0220896128959219,-0.0298835518808727,0.0281381036969492,0.118692713097543,-0.0291365124757065,-0.00183863212977505,0.0939477695184304,-0.0452842384653542,-0.107736615369085,-0.0513583540313243,0.14428000091217,-0.0807201292853198,0.0589875012554144,0.018246480583061
"nice",0.0169441885965035,0.0486022518896094,0.0194984908376226,-0.0234588752274096,0.0501667741964436,-0.00739323412314561,-0.00904526218981541,-0.141546075561558,-0.0131040805315127,-0.00482455110742602,0.003233803226974,0.0727878372958648,0.188430407058301,-0.0148701387476597,-0.00732567109354936
"write",0.000709721264134537,-0.00605764822885622,-0.00927271678667987,-0.0237748507040005,-0.0438032248331219,-0.0646218142400339,-0.0161199966159329,-0.0460582021754663,0.0314421276494382,0.0407904770081605,-0.0372906591364522,0.060182046936679,-0.0534381192749803,0.346233962711192,-0.020151576342663
"tire",0.0321750732605847,-0.00526604037994079,-0.0151679623717692,-0.0418531281116491,-0.0543360239990131,-0.0133439484182549,0.0272901167886783,0.300230852687305,0.0171923844933618,-0.0837126577679228,-0.0720150942736229,0.099357401362524,-0.040366416855592,-0.012149335872769,-0.0285425899239118
"finish",0.0284369443262481,0.0483976184336894,-0.0553156222702777,0.0125481120324706,-0.0511882334479027,0.0149654161072553,0.0213195980391236,-0.0458981279759608,0.0656970715490737,0.265488872329465,-0.0497537537500472,0.0259620392626767,0.0158331970818177,-0.000245405971037422,-0.0589348263398957
"walk",-0.0473683872761682,0.00296564183806292,0.0675131140117576,0.224313721727802,0.0146105686753091,-0.00851339736439248,-0.0283091081495398,-0.0479190012040217,-0.00203957911873925,-0.0295979301478787,-0.0425179985491798,-0.0590433653558203,0.0133827138369549,-0.0393899049876245,-0.0224584048740684
"group",0.0499957817030215,-0.00442936705529552,-0.0418893062209663,0.0166331678975539,-0.0077018276347013,-0.0331546422405426,0.0247227864576058,-0.0932142126034023,-0.108520217095127,0.0193282224412121,0.200581617469937,0.0495583767608396,0.00683859440647969,0.0271938933018092,0.0692961035431654
"emotion",0.0416638244639896,-0.0199313963250429,0.012729937790824,-0.0472842983586965,0.0530141730275135,0.276716496840569,0.0152125814394329,-0.0168306793225459,0.00646168906504917,-0.0557383509392891,-0.0220493160963598,-0.0317977646922889,0.0427054680812794,-0.0568839354148866,-0.0314402001985376
"problem",0.0478730877805663,-0.00483985976369817,0.0292298303483055,-0.0233956207216318,0.0608604879822843,0.0683265323321931,-0.0410687637927096,-0.0178601944699591,-0.0145221199207879,0.108803396616344,-0.0497667100588375,-0.0265823327766714,-0.0299241091640759,-0.0574812859517043,0.216275261458307
"hard",0.0199757192920931,-0.00662995815211599,0.0714581623464579,-0.0750284875584844,0.0638610766981074,0.0310174861336712,0.00191745948781265,0.0809514733670115,-0.0745494999126622,-0.0517388419176415,-0.0482498099101111,0.0175510718706699,0.0699718638632495,0.11274255272127,0.092763983007925
"mood",0.0709070180774655,-0.00791961625967135,-0.010446978441256,-0.051755135994329,-0.0192068518319356,0.033094148809903,-0.00234492109139811,-0.0325351033005633,-0.0519284275820592,-0.0387540635977437,-0.0058778893983797,0.0491547616321046,0.305616839822067,-0.0808040231161726,0.0398717731966389
"night",0.0101025370064419,-0.0333726287668436,0.00294390316408474,-0.0236651062600981,0.0599381200069197,-0.016720739322772,0.00844778263582346,0.275180345879774,-0.0258320761597765,0.00540969584932411,0.01532275224132,0.0213788390717258,-0.00145263206434404,-0.0266722213361793,-0.0138451237503081
"lecture",0.291187049049351,0.0192340992126932,-0.0554389964246979,0.00134510932477978,-0.00457592443624771,-0.00107511522284378,-0.0361763459821566,0.046180787089938,-0.00140268242198528,0.00205815577863718,0.00405638946600193,-0.0148481193792806,-0.0166679422200136,0.0027709009522361,-0.0124841785559582
"video",0.000422792844673856,-0.00949877285069112,-0.0158965491539156,-0.0318719491281144,-0.0624158237989773,-0.00929226131946462,0.338166262955096,0.0100655667772355,-0.0205599464683414,-0.011518762039706,0.0286327892459112,0.0544614367027334,-0.0413377877852671,-0.0305299687061556,0.069360790249254
"listen",0.203445394678605,0.0207573913894716,-0.118170232796081,-0.0832398206505408,0.0745975151505852,0.0378771481573823,-0.0739815999115276,0.0181244602457029,-0.00359906149968212,-0.00744292477175638,-0.0544247931795206,0.0108931872195818,0.0907755087922005,0.0183837852071532,-0.0210001697264303
"calm",-0.0270232450448999,-0.0187431514218031,0.0716422781442216,0.00411965641710601,0.00546766111583784,0.17023602590121,0.0204817378777508,-0.0653463948159069,-0.0311578335694917,-0.0550498276872708,-0.125689647224079,0.0160423887934788,0.0835037218561736,0.11258068217146,-0.0730622291119004
"bore",0.20639275235616,-0.0300806484380702,-0.162896787960603,0.0139583214726775,-0.0562494798015316,0.0986868372212148,0.00781695464533695,0.0216251888765627,-0.0716888217933494,-0.0621471108680577,-0.000911526008299505,0.103754630449009,0.0308046709771973,-0.0479978723711111,0.0521438345814605
"sleep",0.0394444544128472,-0.0142213419023145,-0.0443850417833283,-0.0259767497050003,-0.0179827452164706,0.0426059152805192,-0.00709478658361728,0.326388050502518,-0.0240017972467625,0.00556930335631335,-0.00894036546907444,-0.0269361339521329,0.00915092750671725,-0.0642476781385923,0.00807029036833075
"material",0.103838103998862,0.00514571112246962,0.211143788216373,-0.0412540666259814,-0.043666570238327,-0.0110530981678362,0.0230239201335255,4.94278901880871e-05,-0.0213049410974207,-0.0289318152028384,0.0324009727807871,-0.0487521193372407,0.0441356625612485,-0.0125347168772216,0.0323607324905086
"food",-0.00149150660082488,0.288360996008468,0.0106822363724311,-0.0255485667276105,0.0235759041986506,-0.0174650593989039,-0.0322182847041511,-0.00246362689461803,-0.0130876362922351,-0.0534898685587778,0.00475568207246202,-0.0316826198935467,0.0071261811828942,0.0250141998983752,0.00638905333537107
"professor",0.299895663779742,-0.00367979555744294,-0.00228526565662624,0.0186502572573335,-0.0145855170710639,-0.0146007808713234,-0.00597632073899365,-0.023994095802726,0.0690904975651809,0.00976718866610942,0.0216390430601547,0.00404370423759133,-0.0498606300760449,-0.0150473176357174,-0.0148416162410815
"hungry",0.0230756492403045,0.314764108201277,-0.0276185822798236,-0.00739673152879775,-0.0466503174891676,0.010584163669568,-0.0256434804082665,0.0400315284628075,0.0229894679857218,0.0072865430483729,0.0224006653153501,-0.0676076981468078,-0.055760840156599,0.000546463972724996,0.0215134107863074
"relax",0.00201587355571918,-0.00500565612508205,0.0408845368315594,-0.0121900435937953,-0.0230364009884635,0.0969366445213525,0.139850232397079,-0.056329099820544,-0.0515397064534794,0.0409186774660728,-0.138569130578996,0.103705736326797,0.137944688645161,-0.0548409249963681,-0.0847804516581125
"homework",0.0139615182728916,-0.0381159864280055,-0.0180751781870194,-0.0468315541584391,0.0280031045789848,-0.101184181428666,0.000297574422327021,-0.0310125638102667,-0.045898295206141,0.334491492137638,-0.0900250935151835,0.0877033587420391,0.0123351026960466,-0.0342650462409655,0.086234124941943
"roommate",0.0030775126945928,-0.00314168547204056,-0.0171990843934369,0.0703461242591544,0.109774469956175,0.0616842687224373,0.0309503549555139,-0.07596024227326,-0.196663394443991,-0.0250961183001496,0.00638945826786204,-0.0107869972989929,0.062470162144933,-0.0168922195663339,0.0781253908049308
"library",-0.0127353476993444,0.00898461635378354,-0.0173706542282885,0.00798528157935875,0.00858119755832545,0.205410408262762,-0.0986841572009812,0.0605294316102877,-0.0329551808315048,0.159460177385012,0.0758174450279482,-0.102762590925359,-0.104316450814472,-0.0519739990707176,-0.00418004170854993
"exam",-0.0163798033873523,-0.0157152890584565,0.343577983534547,-0.031121834115294,0.0135861571135549,-0.024884265216825,0.019111561450425,-0.0350814935887144,-0.0327962460306802,0.0276223557788335,-0.00266151331860784,0.00383041821998711,-0.0186973197205919,-0.0858520446472908,0.00378689759765848
"assignment",-0.031163722020978,-0.00514097074887775,-0.00897988449589225,-0.00454774851313577,-0.0262864249259642,0.0435248568239245,-0.0135203802739914,0.114358116289264,-0.070057186670723,0.183276117567897,0.116990929288082,-0.0174953491948649,-0.137308515903897,-0.00203891412413024,0.0474645320423296
